{"0": [[0.006543263487108959, 0.00737621199310317, 0.007812757280057491, 0.01049030304195909, 0.009105104509361398, -0.002887608561746323, -0.002585964808212662, -0.009783294383345416, 0.013828164898883364, 0.010653373167267655, 0.003561275792622025, 0.005903729321096836, 0.00928309817714857, -0.0032067204147448103, -0.001117543521993638, -0.008317255053090116, -0.01172200541975806, -0.012918069589664877, -0.0012085452577171591, -0.020337282598373967, -0.02361297106483139, 0.006439082540059266, 0.017141218886992805, 0.013504201441915912, 0.004633210068060565, -0.014668544529708135, 0.009034524055734008, 0.002052817614999152, 0.024131433849507986, 0.08798809638682083, 0.07826165541247565, 0.034351460685862326, -0.011605130211474341, 0.005542536275620397, 0.02739030045257732, 0.022098018238788212, 0.006288552955217964, 0.01804483285135968, 0.023498727780191988, 0.04096022504252084, 0.05356859319780522, -0.01405055935375271, 0.0427353637023706, 0.058304591826395025, 0.02922257915056967, 0.003751378744939942, -0.01979254938686437, -0.028244104191889836, 0.008467430662869887, 0.013900881114161318, -0.004497060904326579, -0.014875983613930511, -0.05012245417232323, 0.001161006759277128, -0.03141199486600972, -0.013835095673413752, -0.01671541097367119, -0.03509639227568306, -0.06755009801499588, -0.0431232983689336, 0.0072297821436847, 0.004554611779666998, 0.004935754294124816, -0.03709597057715106, -0.06135048209769955, -0.011968481224384254, -0.014619120611776724, -0.032768186718048965, -0.019253605378715344, 0.010804963967190368, -0.004009265341976537, 0.0017057874516864338, 0.005965585244257575, 0.006951277955397327, 0.006215702608436816, -0.012971296686675994, -0.0006620883576226595, 0.01500994555778171, 0.011538430134345579, 0.011057038079264454, -0.02834266377591125, 0.025034628047171586, 0.0272953544482318, 0.010184249317516877, 0.002289267773777556, 0.020504581068762, 0.03970736649718644, 0.0694126519568118, 0.07345743060358338, 0.033617635136842586, 0.033762382041183855, 0.04283990300355542, 0.03842268434546364, 0.030723388566582032, 0.022547563357595005, 0.007412860217969867, 0.004708031063604075, 0.016706710568337908, 0.05890360502510004, 0.09409280836739611, 0.04184840979805948, -0.003491231993466209, -0.05580996343919812, -0.02046463555887421, 0.02299286565156229, 0.027372177463515543, 0.021472675334450173, 0.006627905780917069, 0.007370052478587352, 0.0009470072776234273, 0.001718426363672822, 0.019704419538378256, -0.01686073539840927, -0.05412347681069198, -0.09667524452257473, -0.04515604993403885, 0.05408366438313031, 0.041138766760866766, 0.006186406890940227, -0.0006697677155892482, 0.0041526933384129355, 0.00802069863337407, -0.007134924850897207, -0.029340405686622245, -0.03203437476374869, -0.042773437329681786, -0.039163151157592904, 0.035821997488357765, 0.05950604078700964, 0.060322913189491345, 0.022384295449637857, 0.010704906895082557, 0.0054047645773114585, 0.008918653324566388, 0.001739197419492069, -0.02291915081693725, -0.014162301539805609, 0.013105711260408055, 0.042751576408456005, 0.06159108668970729, 0.06774102798337785, 0.04304591951502595, 0.025808244996403693, 0.010476797368883494, 0.04837353474395791, 0.04923625348673744, 0.04890204408518317, 0.04849671243783515, 0.04957581932487908, 0.05002321375643132, 0.050100895677146075, 0.04869730211773468, 0.04742402678471813, 0.04853794703852692, 0.04670408246305145, 0.048754651760499375, 0.047327965737513175, 0.04898039615657028, 0.049461520209948845, 0.05081748993258848, 0.04852958587158367, 0.05179334865429702, 0.04843446584127176, 0.0462315043189817, 0.05008197449464516, 0.047435487734884464, 0.050831115127063196, 0.047875736918127215, 0.047859202359521104, 0.04710687043841851, 0.048450607046847366, 0.04928751716277045, 0.05025865539065149, 0.04926520174164858, 0.04872574137976289, 0.05062499210560949, 0.05092367174196393, 0.05044907058736005, 0.04763476420765074, 0.050149017268634466, 0.04878640169771852, 0.04961931294764489, 0.04959117675292185, 0.04712213162754518, 0.046091445707439255, 0.04999048237840984, 0.048053429681148674, 0.04822015354129416, 0.05177698410409032, 0.04633257868329669, 0.05154920049774979, 0.0502935539185279, 0.046448411434776, 0.04665293201800119, 0.04854121812313244, 0.049282770646416015, 0.0509968024322918, 0.047187756897264885, 0.049390423335503544, 0.05031057621044291, 0.05025352899176523, 0.04718292745475109, 0.05050006191417431, 0.04922492515953578, 0.04877029114349672, 0.04810122708374124, 0.05024855464577823, 0.04961077133513287, 0.049295019822741135, 0.04909890887619193, 0.048364358388213485, 0.04914368275931241, 0.048373912807473565, 0.05103880062454322, 0.051453911847257706, 0.05160746324782377, 0.05148320578246684, 0.04849324067187899, 0.04928597661690101, 0.04759706105128851, 0.050040512681716935, 0.045703994138934716, 0.04979878902421172, 0.05090057963062615, 0.04954798243416395, 0.049792290584993085, 0.04677103273174114, 0.05118562523810642, 0.0467456334170767, 0.04905484402518305, 0.05097872358650401, 0.05006559412639937, 0.04830694580352449, 0.05043922760762809, 0.050264222622304726, 0.04912451742595519, 0.04693368004519756, 0.048396445738408796, 0.04712609938651363, 0.04730526144026633, 0.050660329335008025, 0.04969954132373163, 0.04955264709914777, 0.04904418224668715, 0.047596957311596154, 0.0482268464750208, 0.04880398383256358, 0.049111471938261854, 0.046765335106362056, 0.049085327708402036, 0.05115334342460013, 0.049043098107405474, 0.048479582320889954, 0.050383862174511795, 0.050197569237858, 0.04947029593652087, 0.048541707279045346, 0.050445619916466525, 0.04866723845671625, 0.04789838747645926, 0.049675537665797014, 0.048647460036646696, 0.05017140324757302, 0.046745277865499896, 0.050501307745559186, 0.049427789059206265, 0.04732273539663968, 0.049423185269814485, 0.0474372622999946, 0.04719494623698989, 0.04926469654722499, 0.04860520006775462, 0.04800120946835175, 0.049292295427602655, 0.04924522863647793, 0.05006206819547211, 0.05121820597169883, 0.048345540931933724, 0.04601683802116082, 0.05247689913907968, 0.04860741938183962, 0.049688653731050206, 0.04985848456684973, 0.04735125145860015, 0.04785436850944576, 0.0474865939866638, 0.04753891884027435, 0.050425853010837504, 0.04783319348537731, 0.048629133817030885, 0.04950822300369157, 0.0503508698209017, 0.05279221804333054, 0.04859576201862469, 0.06352312510816242, 0.06757341360109352, 0.0482005902534987, 0.048425362645093686, 0.05491751713112834, 0.04890019687285911, 0.04809384782015673, 0.05149918974889687, 0.05198011812630096, 0.04258983821541644, 0.0574767410393502, 0.08802497481913933, 0.0910875463343565, 0.0894209004505222, 0.10999083723114451, 0.053241999303153605, 0.052759738444839416, 0.053010281232699075, 0.049313338877001116, 0.008860317489977369, -0.0007839144046506215, -0.03103505166313387, -0.05224064908930055, 0.09861651635121574, 0.08304203770306831, 0.08302171754447743, 0.0793448558730063, 0.07656653712684805, 0.14844846815875706, 0.059994817236567494, 0.03863817764067739, 0.01809721360731761, 0.02242067753835948, -0.028357930264263177, 0.046452830112406494, 0.026479564928753068, 0.012722480222328407, 0.11784752693804207, 0.027411597253475795, -0.04803633483837935, 0.06266955356460896, 0.05857581398736836, 0.06091823120274734, 0.10978472131794041, -0.03199928111052079, 0.060749666808414746, -0.010712426615541152, -0.09883065996810185, 0.10540525678776926, -0.002867909100106819, 0.013246952165288681, 0.052069786769314744, 0.06224303060009626, 0.050674083416079575, 0.057287807312370896, 0.05035400597078105, 0.012835944696352115, 0.05393123228996968, -0.19328110178028549, 0.07482728971566166, 0.08491650777649253, -0.05991615672198497, -0.06358382549788681, 0.03345089596233685, 0.04579390027877822, 0.04989052190022271, -0.02407840068295648, -0.010698617820511003, -0.000833652728818975, -0.10905880157391767, -0.06865908738216862, 0.12843616039117936, 0.042498615946743465, 0.08656863756312012, 0.024232483023964774, 0.03583845122302509, 0.03953741704018603, 0.04729888588894836, 0.04553638029966548, -0.004296902296546472, -0.04595310381659755, 0.08635051460464592, 0.2905221900817485, 0.2549867893289776, 0.14328383301048456, 0.022079249565323526, -0.0713077747209567, 0.013297815281719017, 0.047690401671372354, 0.05178703736160566, 0.04725940272609578, 0.044589073784451136, 0.21067711071039874, 0.21999057613280285, 0.2933663243250591, 0.2601509030681946, 0.10566235519829834, -0.16896845100376615, -0.0663343748275294, -0.015558186586495597, 0.04283403309447384, 0.049421250661689425, 0.04479724683614773, 0.07034639629733266, 0.06691932928207672, 0.030945041775731864, 0.08609986977939009, 0.08982603173633595, -0.11759829791878271, -0.23154385499764543, -0.1103931646600953, 0.01553289303834981, 0.022058588848373563, 0.047882817276698214, 0.04042948378639777, 0.05753932068726938, 0.17397270127387743, 0.14980114885495957, 0.10191611020340306, 0.03432487425552418, 0.04275291428382768, -0.05293200720257579, 0.02343870657105645, 0.05039859664499545, 0.0481583978105722, 0.04796381992389943, 0.05004494242545463, 0.05838065125789089, 0.0736872920316209, 0.11336725838546133, 0.03111831010168362, 0.0587737730307009, 0.04641529864259541, 0.05813221135139036, 0.04053549729566157, 0.05140830621440115, 0.04821782161293937, 0.04953900831038336, -0.0002398484948519776, 0.002663325756250205, 0.002679453510303016, 0.0031230553868803884, 0.0025402821406382346, -0.0029698634858044155, -0.004691359202964117, 0.017039728550412, 0.007929015318276077, 0.002276168994028243, -1.0739266486052072e-05, 0.002508055423656478, 0.002226536454801735, 0.0007733267687426277, -0.0015414583632361388, -0.003848369450416069, -0.015455203896451214, -0.01857981923067952, -0.03239352539913436, -0.01610025755021719, 0.08500118456945085, -0.004709514308140401, -0.020722906576326465, -0.004628155693339545, -0.0014081881095770656, 0.010980120693439205, 0.0051001662048034534, -0.03506843812929559, -0.012217231128396048, -0.022906467261226863, 0.0647625017016017, 0.05244401240541486, 0.06376347172789293, 0.07444262733572206, -0.10526289999471623, -0.03743331057136752, 0.00094948606175449, 0.036750641245965505, 0.04304033327855247, 0.0836570453388686, 0.06705510517034673, 0.06312920142535525, 0.13704226775930556, 0.12925008992686196, -0.058769908921029304, 0.0517512350698808, -0.016307797963924685, -0.15828038804538247, 0.001686242927814893, 0.04235676658503934, 0.053630768119270734, 0.03785894131579036, 0.08151637982752817, -0.015156814139909588, 0.057183464559483546, -0.16974734664274158, 0.025177105117094544, 0.10537162868704834, -0.02546381854577412, -0.02952843353816929, 0.0020042629322240004, 0.024751015866724062, 0.02798947182496169, 0.09658035164551869, -0.10092324490299523, -0.03741011246527274, -0.00548458940888791, 0.054838837314576276, -0.054588582471653775, 0.027098183624002903, 0.013873217277562062, 0.001980610249557358, 0.0036688717285920745, 0.1094582290648878, 0.12190064436914783, 0.13819291427509683, -0.23191250456017992, -0.04327195387796245, 0.15174629498015108, 0.059113516047417485, 0.15684412356028857, 0.06846916990603845, 0.06051333593794516, 0.0802720426777607, 0.002140609056296831, 0.008666502138782995, 0.11371508308180098, -0.0018318649563070773, -0.10631236324896348, -0.03574317967880527, -0.10760816763747848, 0.10631859067242418, -0.0557211162929043, 0.18992060012948764, -0.02585360501400388, 0.0654845822396977, -0.0024272061064680855, 0.00833631391094661, -0.0543055376497867, -0.1725413741094981, -0.14444797868909412, -0.24500364680996856, -0.29317362191688234, -0.08498281071623065, 0.14821935000434422, 0.26395022236213667, 0.1700966219456649, 0.028803462430231724, 0.004795793115922931, 0.007629598586303547, -0.022851020944926397, -0.0020417473510449123, 0.036593762833152826, 0.07705310675555348, -0.08891643383358491, -0.1328053300111654, 0.16630764386392335, 0.3603913521479156, 0.25800076116980364, 0.01829850816391657, 0.0030494640052897252, 0.008227470665090969, 0.053008130415076175, -0.033262645159324804, -0.026839942095229625, -0.19124883456378486, -0.18062002731534596, -0.09358038873527029, 0.07764330493175914, 0.19254877659879732, 0.10471569889640787, 0.024532743084259817, 0.0030693123906894103, 0.004018732829154953, -0.04103111208301238, -0.0347671134939812, 0.00325088448136346, -0.09666787197899931, -0.09624101785267611, -0.016875490521244863, 0.09571472969885331, 0.16526291119125425, 0.026974967177566388, 0.04221666975864756, 0.04850329702421734, 0.04832403177792131, 0.05060188758986829, 0.04922661337398118, 0.048087656106791485, 0.04759049173238886, 0.04954044746604304, 0.04833163603091744, 0.050201415576171304, 0.048961708585625485, 0.047881528528066764, 0.049751411765567674, 0.04846882744574079, 0.04964873435012338, 0.049015767678173686, 0.048933022286734094, 0.047003590486545836, 0.045576731993472806, 0.04879322989966759, 0.04944058245890332, 0.07591774194594213, 0.04932457476560182, 0.049881691948317874, 0.0514158259000488, 0.04853999600307724, 0.05032106344229076, 0.04825302280028101, 0.04835540188870869, 0.04926583472093336, 0.05709089938145679, 0.05383373539002685, 0.04914128905019982, 0.05258675861300093, 0.0503567903642143, 0.04750411246581493, 0.04932231502993154, 0.04787375925891303, 0.049220880549770696, 0.04718678944705591, 0.048208174433105655, 0.04989697776728948, 0.04683811512703521, 0.04336739834606531, 0.04196629658126425, 0.051442541974116046, 0.04917890130114852, 0.04748611589729114, 0.04883210718471903, 0.048188358879532184, 0.05009364321445393, 0.047534000521418554, 0.050207091212451545, 0.046040203681885064, 0.04665908459068214, 0.049466347378108504, 0.057297158340951344, 0.04882075635777682, 0.04844894927073343, 0.04767649704666993, 0.04846155387769307, 0.04902331294183656, 0.05098471018947051, 0.04995408742445417, 0.05039351588876654, 0.05041273151051798, 0.04474365531353874, 0.047724048796681975, 0.05094452529910479, 0.046395885012106175, 0.04838392755684691, 0.049644011689867804, 0.048857678740030205, 0.05017415464845958, 0.04770007767854209, 0.04912477041561059, 0.051078374880586114, 0.04899496514813001, 0.0460282523236676, 0.049511253799336734, 0.04911200690777936, 0.04864178489872036, 0.04597994137131813, 0.04991871525655089, 0.046703875135539176, 0.05154176605610175, 0.049900735391042506, 0.04646738685691191, 0.04966706287818729, 0.0480571674861656, 0.04923041340837658, 0.05094401455634753, 0.05114985295327454, 0.04989398185757596, 0.04963689988193101, 0.04640305470148169, 0.04582285776521924, 0.04852602221895952, 0.049243276894502155, 0.04831076551534027, 0.04588779571463888, 0.047876701842187286, 0.050087211340521895, 0.05079008603494036, 0.0545510073477779, 0.047520560600105004, 0.048564321993265706, 0.046596523961473735, 0.04914894451559661, 0.04822595591235014, 0.04988903635782676, 0.045957508249089334, 0.04972221051448609, 0.04863671889495026, 0.04898129178859361, 0.04718661887907835, 0.05013453404152007, 0.049049431501229854, 0.04738245785608414, 0.04777399757570035, 0.04815032409071162, 0.048140288229994846, 0.04827254009575801, 0.04920448349417362, 0.0479937862446546, 0.04828636566187673, 0.049513509718526555, 0.048476639561953395, 0.048320662442929735, 0.04833652209641857, 0.04810871040474484, 0.046694673213704845, 0.049397558646293985, 0.04794638582972751, 0.047898416096260596, 0.047782341633337055, 0.04724569258857045, 0.04782326845453844, 0.04997568559212063, 0.049085543240630435, 0.04815803342734501, 0.049569198065126385, 0.04786100636160734, 0.05041921389540076, 0.04989378386512405], [-0.002076573676788784, 0.00021037578542507012, -0.00036966008535088175, 0.001260971235578836, 0.00015079815132021444, 0.0008889010477327846, 0.0012514171628729472, 0.003326631308274996, 0.0012876244033289124, -0.0003868470192252914, -0.0011017146449063652, -0.0007539704310792713, -0.00026287837565879864, -0.0034891169975621653, -0.0015500703851668522, -0.0002648375298828208, -0.0012761134474887318, -0.0005794153539431139, -0.003681687714992752, -0.007997232213322679, -0.007398951583766838, -0.007935342794539457, -0.0020179274268613137, 0.0026142728738643, -0.002465463821613297, -2.9217303392558907e-05, 0.004570379474116377, 0.005242653071889304, 0.0020078075951676655, 0.0017109732911392498, 0.0005386004387766428, -0.0059594346520332134, -0.0026362921739926776, -0.002839209221777728, 0.0020650304916995416, 0.0037370701138240573, -0.0018156686563352644, 0.008277964458644404, 0.008179589261420626, 0.0016435925026894724, -0.0015963084282485465, 0.002077031328501437, -0.002485432346443476, 0.008796053536977898, 0.013254698692366196, 0.006967081876002846, 0.0032387748406413736, 0.004575076057727555, -0.0008876838126477191, 0.003143474695635635, -0.014226292314062547, -0.027029581081259416, -0.024156510849659026, -0.011765406549916752, -0.025368265446256522, -0.008395208654294056, 0.00556548802909964, -0.002251107280909682, -0.0057947152567045315, -0.0028814588576855722, 0.0005986080401406539, -0.0064166369247615545, -0.02070349135134617, -0.02437638787809109, -0.007057540335769002, -0.0063722438411908024, -0.013519710918630504, -0.008220048099318785, -0.012052122046366001, -0.006465627175148771, 0.0012810105141962825, 0.0018702357943702868, -0.00288020194707616, -0.006917581218220855, -0.00923872615953907, 0.009812768393580305, 0.01847485790792325, -0.003064038412552552, 0.001270521654177349, -0.010159756416174007, -0.023394847447286007, 0.0022625772381005575, 0.013815403137198529, 0.008620497634255635, -0.0017954122400387748, -0.002009085438974628, 0.01783863316755068, 0.05237731226433556, 0.044070925091724625, 0.018358923637424092, 0.007484153965673496, -0.012013611078559205, -0.002072368333271667, 0.01809886083257937, 0.022044060789190252, 0.009000324042394571, -0.002300044576613031, 0.00327010350470105, 0.03209781135896194, 0.04428533454448844, 0.027167233954540522, 0.0031049354297438218, -0.01234734609955713, -0.012058058443826257, 0.00794452829803952, 0.020556658844280148, 0.012388973681057437, 0.002753958066385199, -0.0006307964428865512, 0.00507467815366636, 0.014297276797353535, 0.002061247828999272, -0.02181023837440291, -0.0221541830089929, -0.027266819774756527, -0.008845515986081869, 0.004125985341905085, 0.008856600438932624, -0.00040098383620078726, -0.0030221057466895233, -0.0016510133324217993, 0.0004995992329199007, 0.002119686331841349, -0.0002359101317049902, -0.010088134787671142, -0.010676672558322756, -0.00826117705838534, 0.002204582447264183, 0.003146133178139655, 0.003232357789559076, -0.003420016063310965, -0.0024691427280260545, -0.0018231263460656297, -0.0015031926068170217, 0.0007813111965225169, 0.004018843285454591, 0.007107586843947372, 0.005791029418519534, 0.002330452654209349, 0.00679218351613689, 0.00751495223558557, 0.004476443412687384, -4.722051682666404e-05, -0.0014104080033821617, -0.0015731610176219614, -0.001955538404601169, -0.000713848634675133, -0.0015186761298730215, 0.0014578918473815287, 0.0006572298374949669, -0.002724729681227066, -0.0022248775451498594, -0.002486008409795989, -0.0013790662863043188, -0.001247850033328606, -0.0007143687453405046, -0.0006049124871478635, 0.00019061319068766763, -0.00023446043281427612, -0.00251571193369087, 0.0003940023511927486, -0.0036836500031536524, -0.003090742829567177, -0.0009493574678255778, -0.0010306481657619887, -0.0017617205995227, -0.0029214952638442794, -0.0037531038855680423, -0.0026315705575344255, -0.001526116919900112, -3.879423365556209e-05, -8.549281520898277e-05, -0.002196584565020028, -0.000274580980797131, -0.0027421797444713417, -0.00037914175856531207, -0.0026262517617098974, -0.0012699215363273372, -0.0004909602367784463, -0.0018511621987501883, -0.0014654887193273616, -0.0013013819746484547, -0.0056983716731756374, -0.0016068126733726098, -0.000173353767661471, -0.0022735052913837577, -0.0017257418355473928, -0.0014683033173374057, -0.0003293110694402494, -0.0008621032227960807, -0.0027137988840000185, -0.0016642388966983063, -0.0012303124416927912, -0.0005751282880685447, 0.00042807942028767103, -0.002353663876011308, -0.0015877448224046234, 0.00011798704538751122, -0.0013125224749211191, -0.0017167528684413212, -0.00046100034494548384, -0.0017044909966141524, -0.0030913889773767976, -0.0016653365928325815, -0.0024910866852830274, -0.004235333920923182, 0.001597686922334204, -0.0006867803234463587, -0.0003673894631668236, -0.0005649314105798507, -0.002999344235925798, -0.0015687656631614068, -0.0010619198975971896, -0.0016778718790821771, -0.0017795835951536748, -0.0037381615446975144, -0.0007427422709764315, -0.0009899272623477545, -0.0015355750242534226, 6.348210643876462e-05, 0.0021401272875928583, -0.0018514865972020507, 0.00022965110746245271, -0.0014020090646059546, -0.003089634418826076, -0.0006849591993125118, -0.0003238949611426484, -0.0011876148487736282, -0.0022989704220127793, -0.0010991060654943958, -0.0015301939976488054, -0.002588827048640857, -0.002758432327007098, -0.00025399427820593323, -0.0008362438323179536, -0.003924179466881245, -0.0008078886358973194, -0.001776626703084223, 0.00025434485798365747, -0.0017260206658248267, -0.0029707407967056315, -0.0009160568644060316, -0.003580152787518463, 0.0018645700068017016, -0.0010875867015893161, -0.0015694161455474726, -0.00040505661758626765, -0.0025363193286110828, -0.00040786346150506616, -1.3107147162331385e-05, -0.0027212680021505963, -0.0017354737731626931, 6.907459023120359e-05, -0.004753915498394125, -0.00034312217226362623, -0.0021975921902391638, -0.0012133642041773397, 0.0005881306926718923, 0.0011321473609980416, -0.0006011642653122486, -0.002397766761960858, -0.0012880215943590464, -0.000919783024559877, -0.0003204566660225899, -0.0015107708477638017, 0.00017579686595227572, -0.0034216356886641827, -0.0036641855530648473, -0.000658141787282346, -0.0007811554339927422, 0.001050310414428466, -4.9823917650986896e-05, -0.0015814503073139545, -2.4877608262513687e-05, -0.00016095577925846267, 0.00028686991876795785, -0.002013736801291612, -0.0034620744123293992, -0.0009627624346184458, -0.0017515404421673214, -0.0008537489821815437, 0.00039063448720784644, -0.002135014647802717, 0.0006253444730248063, -0.0008358049285648466, -0.002684012291270922, -0.002365701814754122, -0.0017225527785445862, -0.0014374891667712658, -0.001380983145931359, -0.0023168271640989072, 0.0012653979929144663, 0.00021215581927714865, 0.0007438981318093126, 0.0025310034950269283, 0.006144875444973927, 0.00028265737338675133, -0.0021271343778196277, -0.002836760091547643, -0.0009697463005752632, -0.002004204159733756, 0.0005611451640066575, 0.004961624746551946, 0.007065772188409083, 0.01757073904094928, 0.02692509728347576, 0.03015793543199902, 0.021024727613117283, 0.0013997636630360536, -0.002943116389880955, -0.0017341230742333182, -0.0007841038419470081, -0.0029396217719704514, -0.0014228187825037248, 0.005620492955426181, 0.005647690080455333, 0.007349074897671966, 0.023182829433034215, 0.00911006131766204, -0.029787165321675094, -0.04272521243002707, -0.03848511536500051, -0.011368908816590742, -0.0009433098673552395, 0.0024298158357846968, 0.013769720102669825, 0.01712774212517427, -0.021636504263582285, -0.0396742229552708, -0.009876484460223392, -0.017711232578593198, -0.04774907195793904, -0.06511885252622829, -0.051112618777403286, -0.008360245551870382, -2.2211056503097348e-05, 0.008208368202176354, 0.026556443106058102, -0.011261175334987241, -0.09468878156710961, -0.11412649830192047, -0.02519774523900296, -0.03283139973633569, -0.028145941360314834, -0.06272315537275033, -0.017354427351550423, -0.002065899969496168, -0.0013063397143323813, 0.0030265362425780434, 0.0023834735757057093, -0.07467179449856653, -0.12006591462726315, -0.0736116457574156, -0.01268384774731897, -0.010997832416809497, 0.0214421388304637, -0.03177966877123648, -0.02834339117133797, -0.008665803484323836, -0.0001221249833637977, -0.009755872380197655, -0.040716633194634914, -0.17299089342218257, -0.14698657476747282, 0.001889518824117865, -0.005645426897495292, 0.048003569705678255, 0.06263067991176773, -0.032652673756046864, -0.058483198797689595, -0.013123303554385787, -0.00032459636546302813, -0.0029217390772922716, -0.048581688076856935, -0.11291321885020159, -0.012436052715672736, 0.10322165321478988, 0.050628147456845664, 0.14896110676260438, 0.027745990727727366, -0.0870145345053842, -0.06460434786746908, -0.010061211584073151, -0.0006504399999409116, -0.00201713643958734, -0.019552925910192344, 0.017707099507730962, 0.0761600300708587, 0.06740694612395184, 0.07856548727999917, 0.05657498234168238, -0.07143339588609239, -0.06938009170348562, -0.03725232895576313, -0.0048659792483539445, 0.0012131067893219546, 0.0004947964783704032, -0.018564856435832895, 0.009800748936947207, 0.0376418563584583, 0.020158694109389804, -0.006304684433084269, -0.03674369810675542, -0.04378856022565899, -0.027520937839403892, -0.00794888923552131, -0.0033414895440984577, 0.0002576207822514865, -0.0037823033979869584, -0.005172387602349724, 0.008443222609108071, 0.015292408105094083, 0.021292601182466377, -0.005441530371736576, -0.009121200794378916, -0.018817990946019155, -0.004507654582566778, 0.0011275539969354815, -0.0015424709439546618, 0.00023450978885794434, 0.00010103681086354304, 0.0018367684425613544, 0.017034655147548938, 0.042108502778352715, 0.035734894808044794, 0.03130782159308811, 0.007159066879159661, -0.001985200642486173, -0.00427021636995006, -0.0008653211377956815, -0.002469404880006327, -0.0007546055229083832, 0.0010905767181068158, -0.0033005689636235024, 0.003126616222392232, -0.0002902501587264888, -0.0002078605173444081, -0.0003455780845412226, -0.002345142534132648, 6.257557463080125e-05, -0.00016416925503588226, -0.0011731379401238187, -0.0004485321718421052, -0.00020050940808286776, 0.001594323773269653, -0.0003734214264121326, -0.000941506046723997, -0.0025447963400397505, -0.007405585431680502, -0.015373399040352412, -0.02079906409952585, -0.025067354985742536, -0.01970687939509128, -0.010091277945851459, -0.0017346018000940159, -0.002166775801628106, 0.0005293407642168299, 0.0019746710489937118, 0.0021230916680547774, 0.0005567069584388656, -0.005879590208820902, -0.007412068222915646, -0.006535522620395425, -0.0020244049636754563, 0.006145766230764514, 0.029678312597760388, 0.00929533299071688, -0.0034144380330037756, 0.0022764886667187073, 0.004082994463651774, 0.013372633971325246, 0.026432224504523115, 0.02701567566496643, 0.01446435120265006, 0.012674789229862956, 0.00960447171742524, 0.04951381273063231, 0.050230084663237744, 0.014347376571175971, -0.00870672177680712, -0.0006684167857695272, 0.00825736447680499, 0.039052230527634485, 0.051815764141364226, 0.03964431099112521, 0.03334254296291827, -0.005459689469207547, -0.05130748500474368, 0.008486677694771069, -0.010371817088668023, -0.034348507288721776, 0.006151149242267671, -0.0002410815522749593, 0.0170569943805888, 0.03687947372364269, 0.05606885742383183, 0.044397831652865954, -0.006203317170181884, -0.0781855678270605, -0.02281626520423285, -0.01787240409310635, -0.05051244865385106, 0.01240616654729945, 0.05372077310868865, -0.001514972546150393, 0.02487355602346393, 0.05157740652276396, 0.11878340148982272, 0.18482092035151182, 0.04672092945254121, -0.027777075792478137, 0.010085259032997566, -0.026234215217748165, 0.007333000174409384, 0.07202482099410949, 0.08959458308385071, -0.002143848634423593, 0.007756018057187248, 0.03424547010594393, 0.07708803137881896, 0.11913572096354323, 0.0911504797158161, 0.07474243360830592, -0.046323517099471384, -0.03543694901221512, 0.03351620380578218, 0.07963692123991724, 0.07648683914361, -0.0028876362896201324, -0.0005823911263793098, 0.00913830439869087, 0.033423324841324334, 0.009841573930281565, -0.015313424585421523, -0.00859399864872383, -0.09491193282350889, -0.06806635814346307, 0.035724675157122604, 0.054069499949206144, 0.02269420945659704, -0.0016369173226544258, 0.0006540135849630766, 0.025097491425581608, 0.08296133908459954, 0.022710576857708536, -0.09208829631065178, -0.08729951817925588, -0.08623779492292843, -0.009062367692652477, 0.011206238166425679, 0.0259918060481267, -0.009688947230021512, -0.0012819888885877936, 0.0020292861844004965, 0.01123086086410145, 0.02098116210297415, 0.0009245248483669925, -0.04998310804068934, -0.035729360166044784, -0.012067557624779963, -0.0037489178206737014, 0.02388626670716029, -0.00022792095835930158, -0.006518617020429267, -0.00138359527270835, 0.0009396378202469577, -0.006359220541911634, -0.012529007388849807, -0.026022689313459645, -0.04247356956498797, -0.03249192190316907, -0.0038248847826064533, 0.045845164828855686, 0.05226715531886408, 0.014722396354597125, 0.0035403779665063176, -0.002548366936313935, -0.0007482679177286374, 0.0003482384010059299, -0.0011559513339007195, -0.0032799395502780037, -0.0015749225683427445, -0.0011721017575843564, -0.001494448113779851, -0.0003577361282726614, -9.445079992446103e-05, -0.0003453637291688111, -0.001974854744832923, 0.0010886787824019209, -0.0009013069317341098, 0.0007183958197967123, 0.0005481069968959442, -0.0004853857347299486, 0.0009274406487849865, -0.001708494591266289, -5.810994237546818e-05, 0.0004928995132448057, -0.0006379526099922109, -0.0019611720956617005, -0.0005021151314021988, -0.002502130134148636, 0.0004413402718206053, -0.00200440008317937, -0.000785245842264791, -0.002098090870080206, -0.002279201476267136, -0.0013008795102522118, -0.00020446155401086954, -0.0022091107941959397, 0.0002152229010055815, -8.689756012879205e-05, -0.0033913332276510736, -0.001948534071711419, -0.0023185081654907365, 0.0008075381758705349, -0.0014633623078190597, -0.0013390987357585252, -0.0011447858373386207, -0.002257089156001047, -0.0010718175723314616, 0.0020533458532057125, -0.00233710901229874, -0.0013859544065837291, -0.0012345222730550812, -0.0018100506505986603, -0.003401862661236764, -0.0011343072755532883, -0.0017358701324257763, -0.003788559633573492, -0.0023606198019301234, -0.001010101132631637, -0.0011713278869456807, -0.003931718885571517, -0.0018694855995527485, -0.002961162868035431, -0.0032006308546597907, -0.0013019203827186233, -0.003845271465187644, -0.0027431840591370274, -0.0011585061966649806, 0.001254417918444582, -0.004804424021849811, -0.0034701023351555015, 0.001060399591843121, -0.0028698036369489773, -0.0003993226454263293, -0.0011836158609752885, -0.0007285528748225965, -0.003573138863595781, -0.0032283021553020422, -0.0011094642933239761, -0.0016696477600655667, -0.0013371854025075872, -0.0015927828912096573, -0.0013252241538231151, -0.0036164616361906215, -0.002914299241332971, -0.0025170672048924884, -0.003037155282984681, -0.0024827679322978673, -1.5463182838401406e-05, -0.0020235262572773378, -0.0030901129688183913, -0.0013085759034794566, -0.003072371570620967, -0.0004174698597620687, -0.0014571339306608862, -0.0026946433601500435, -0.0026308644303416054, -0.0001795488101273263, -0.0016677312971001468, -0.004633615155862075, -0.0017285893766365934, -0.000365429710110848, -0.0019857191732044438, -0.0030797509554912022, -0.003385023966816983, -0.0005999098057838663, -0.0008003105114909902, -0.00032057257616121415, -0.0003183245224332144, -0.002282371191662426, -0.0010493960347816719, -0.003117236271672136, -0.0012690250553984497, -0.0011322106919258855, -0.002124229117159071, -0.0021567186590604605, -0.0004947179612643179, -0.0007208824450084677, -0.0030505751131269425, -0.002605054815552187, -0.0008148916530563016, -0.000848775546653704, -0.002282307736930743, -0.001122963890013849, -0.0009774244781061618, -0.0018984571802841998, -0.002383529053953875, -0.0001639856405095362, -0.002326106423036634, -0.0005666008367222691, -0.0024783289408057585, -0.0009252709299199353, -0.0008646331768725389, -0.0014820375978943296, -0.0005533343373028421, -0.000235738304670572, -0.0014282140722086617, -0.0028428516280073206, -0.002135002820067285, -0.0025773991095295458, -0.00014545557586967845, -0.0013080027101287938, -0.00041852019107450607, -0.0019330861446374141, -0.0015940575628037878, -0.0011750499516005857, -0.002429747193690607, -0.0016268597748083844], [-0.002660160900859417, -0.0019254538178051005, 0.0001635714477828431, -0.0007272208989063867, 0.001404325587715836, -0.00010518712001348122, -0.0004914926566104255, 0.00025680003389621917, -0.0020252214024388685, -0.000305065030711997, 0.0002680329145188146, 0.0009441114026491587, -0.0030956219841573865, 3.8721063067076644e-05, -0.0014094695816723364, 0.000573820056160376, -0.0006550496115163708, -0.001701282092061234, -0.0020987939331568936, -0.0016227233800342941, -0.0039051217322517064, -0.0005052159004969341, -0.00019539016975185386, -0.002499855360897481, -0.00033162354743611344, 0.00042692486354159264, -0.0005843851158100161, -0.0024590320768790217, -0.0002686645360419416, -0.004180617694958132, -0.0010592108301509238, -0.001328100724329644, -0.003241281763032671, -0.0012750410089274408, -0.0032919122758161097, -0.0007469870349288983, 0.00023585347068380227, 0.0007302695212517767, -0.0016952267467889549, -0.0019417791145334281, -0.0006835469176605276, 0.006769128149868279, 0.0014343936538721022, -0.00016874683137410693, -0.003789302793480945, -0.004626755622064579, -0.004158698619094439, -0.0038724262797458003, 0.0007844826328942045, 0.0011528371916427033, 0.0030967753360527654, 0.001024272770718045, 0.003483496452687205, 0.001850808504384391, 0.002924243339575954, 0.0017815556879340296, 0.0036211584361043473, 0.0017892797837562803, 0.001071467773892368, 7.209480897487727e-05, -0.0003527061745303075, -0.0011284659763699456, 0.0030442875355017667, 0.0019406721699833035, 0.004121308394003586, -0.0029496334645233995, 0.00011210848729581463, 0.001600106332763509, 0.0045358698734754965, 0.0028316971365038943, -0.00020569806449525317, 0.0006383858993462884, -0.00043012308875587497, -0.0014265804511541418, -0.0010745472264294118, -0.0004302969963474838, 0.0005831497599669402, 0.0012383704865448315, 0.003153756480314289, 0.00216903848953501, 0.005875216433505834, 0.0002662365580802433, 0.0023930382751396815, 0.00017821282612087813, -0.0006339397135164533, -0.00019907876214603155, -0.0007135104484547127, -0.002929002623798421, -0.0040303279813862815, -0.0016740759361355021, -0.0030056668998101103, -0.002691557807831641, -0.0029078993559199387, -0.00023973292977206496, 0.0006621793341877846, -5.157144883523617e-05, -0.001708213426773133, 0.00115230172909146, -6.251067610456895e-05, -0.003763430243507006, -0.0006195993614282937, -0.0006197612728092787, -0.0008230585340454914, -0.002526422305921264, -0.0018149308661587025, 0.0012644788104082122, 0.0025279531474955872, -0.0004505391057083554, -0.001233687959007197, -0.003100414901215138, 0.000953984244500542, 0.00030787430239459236, -0.0021766892384846594, -0.0033743072222807147, -0.002998352894047332, -0.00186058859738703, -0.0006402789697575792, -0.00032174908335661564, -8.857085223382342e-05, 0.0005591138366253571, -0.0009945948025091883, 0.00016253475116196755, 0.0004673926420511608, 0.003370133897195919, -0.0015751407687278993, -0.004087308661799177, -0.0005297702719480343, -0.001845355875288248, 0.001541719195523675, 0.0007219367043673451, -0.004077696638957959, -0.0015398137927602456, -0.0014774581698096241, -0.00021550623990775717, 0.0013460170716769432, 0.0034405971056052525, 0.005255152856980937, 0.0035064984647125578, 0.002616105737804793, 0.0007785681492494339, -0.0010333686093738062, -0.0006999693858583681, -0.002754227857658147, -4.795738851079145e-06, -0.004803924869156365, -0.006516817292258089, -0.009107840609759625, -0.006306015406173844, -0.005423835353416099, -0.004873873523058639, -0.007616897485074456, -0.0035320036397471703, -0.006916984363770931, -0.004753124143636167, -0.005278522732171343, -0.004429058090381474, -0.003505075076399263, -0.008314354077068174, -0.006501403229555214, -0.0069983963844811575, -0.005297583363451706, -0.005050809093563541, -0.0081270067354889, -0.006537028128368446, -0.004601996913944765, -0.004966154965186275, -0.007006465645211642, -0.009959773462525155, -0.004355707021537464, -0.004031921782349678, -0.005845123486330552, -0.00666018898475813, -0.005049025646136832, -0.0034658299055852705, -0.0062910436791298215, -0.005966131191887449, -0.004142035936403307, -0.005740584846781407, -0.005833979457997501, -0.0041786354270587816, -0.004300276240045815, -0.0058985683766628995, -0.00496331994917398, -0.0065281240494832, -0.005924994723479551, -0.005801216205876074, -0.005845722386267707, -0.003573758843573056, -0.006354738715661415, -0.005867746047000053, -0.003572949506861797, -0.005296497410629754, -0.006772612874280084, -0.004876933511590527, -0.0051445619287136925, -0.003804805402072435, -0.006177304162748535, -0.008734686873561272, -0.006106913117594929, -0.004320529529960886, -0.004669680876882464, -0.003293651077747637, -0.006217320673975156, -0.004953073155422798, -0.005856542290924067, -0.0055645687505483776, -0.0065699324868002, -0.0077556667095315685, -0.005003713514641351, -0.006507748208714637, -0.006059101400854372, -0.006997413315219634, -0.005500562473300573, -0.0059814525562849755, -0.0035638138384552773, -0.00665579072052667, -0.004726350560640505, -0.005051171194399311, -0.006825529270005661, -0.005398589991301823, -0.005704212412843772, -0.004905194115877816, -0.004285062940623956, -0.0056373585590278165, -0.00410067929402994, -0.005149359944060571, -0.007397892665130012, -0.005706127240601334, -0.00777204669752225, -0.006638091911594264, -0.00623430387858544, -0.006145125241112773, -0.003985972436035246, -0.0025281592878300175, -0.005912824271827132, -0.00464053275807737, -0.0067472698295733815, -0.006080031661311109, -0.008682414067946257, -0.004580705358493333, -0.007018623785959713, -0.006407191768130385, -0.004976674219311211, -0.004899226176968897, -0.005088857627776143, -0.005485178448323781, -0.0031862655566078117, -0.003781188514674005, -0.0030413478489849884, -0.004993545296011228, -0.006550561444585466, -0.0054693265748728395, -0.005420546955789399, -0.007861677636241246, -0.005349337192594567, -0.008883924316865464, -0.0015356030221660006, -0.0035584983204269543, -0.004836633202139181, -0.004618780227194875, -0.004166126341671671, -0.005568596095295791, -0.005583313064710682, -0.008304664482582342, -0.003717058607708269, -0.00570777695615164, -0.0029228752582960565, -0.00439814324726229, -0.0066345062338874, -0.004689899606153061, -0.0045511991689399095, -0.005444479163225631, -0.005682599115184271, -0.0053393434633367915, -0.0043085980608737915, -0.005699613839635404, -0.005057243381184304, -0.006073994798942187, -0.007696577345388112, -0.006192744456356535, -0.003875093939597567, -0.004715170780934159, -0.004436257342138906, -0.006274843963464207, -0.007539920799478631, -0.005637809762790165, -0.007468268333271732, -0.005603337534662184, -0.006095228328265278, -0.0057678621882021365, -0.006010700937280216, -0.005211635531057836, -0.007295543192245516, -0.0056445402792963326, -0.007991485301412898, -0.005001350446294453, -0.006005885544811359, -0.0037818521525110078, -0.004414954903967019, -0.00528685381300794, -0.005362154686257079, -0.006354595646474896, -0.006407843647917715, -0.005918394396862283, -0.009118740017224753, -0.009036535547109485, -0.008587310721936482, -0.002468035876580597, -0.0071221405829993475, -0.006316034644237, -0.0037299652397310124, -0.006051318248112338, -0.004879751034338358, -0.006125279663624768, -0.006155704427529654, -0.010441196310938183, -0.01288858870340257, -0.009944827589519416, -0.0058841145020734195, -0.0014010046740718846, 0.003308488296575062, -0.0013805816834175947, -0.0026811497960882147, -0.003784504647389344, -0.007923273829123365, -0.008795574980628667, -0.009362529251342254, -0.006648460494656833, -0.018222005984938342, -0.013273417984829896, -0.0004543418461633159, 0.004108817995694588, 0.002922285014493152, 0.0005992974000871115, -0.005924291990879013, -0.006869013818864462, -0.00904084003723386, -0.009685593421500438, -0.008148619463461664, -0.013222947328771158, -0.008878367401471575, 0.0014702423752599159, -0.007805875271210394, -0.013064585189230312, -0.00909703858075159, -0.0036982241975646187, -0.007021723059892332, -0.00682642444305191, -0.007026580315618241, -0.005238964766981586, -0.007181927037894825, -0.014242126976446553, -0.006166334521973475, -0.015765238453427182, -0.007237217956138936, -0.014428717153550192, -0.0055169114079532955, -0.005950998459901327, -0.00479662628516075, -0.004677233083876503, -0.005474111572111316, -0.004111213978741063, -0.006222691401360726, -0.0028127517467363113, -0.01740291886243804, -0.012169516682185055, -0.011408357171828132, -0.012670645547621168, -0.010806274587163881, -0.015891523513861472, -0.006363895743375114, -0.006536781799485085, -0.005327072849696084, -0.0049146865987030495, -0.0005355639857836745, -0.0066162390794279775, -0.02130559058799979, -0.011312737034957892, -0.017919777070796585, -0.014019598378300042, -0.011495738235078044, -0.009590854744092703, -0.006313616787735564, -0.005780832424538023, -0.005057255320563842, -0.0039607553362139905, -0.007973109842072949, -0.015067426111416217, -0.007177857103140975, -0.013095175588349942, -0.007716235556593782, -0.004596987261260969, -0.011514618736876437, -0.008881650425245212, -0.005463483628027127, -0.006715230048168753, -0.006994520255724324, -0.006575958796270043, -0.0006891199358490909, -0.002144731319248907, -0.005800190080291007, 0.00016258351226581662, -0.019922370232791874, -0.020274774531572882, -0.011082596434450623, -0.005845272086308749, -0.005541756234824711, -0.005739482173235424, -0.0005245044795445225, -0.01499595670189773, -0.007215588580295491, -0.0035673488914096697, -0.012724288879029953, -0.0059297599838780204, -0.01088159118572521, -0.011933594068554178, -0.004706201753891045, -0.004502929031011209, -0.005441737626437653, -0.006535704838290184, -0.008266938148915319, -0.005265075739429629, -0.008856787163770887, -0.015028233260080317, -0.009595621634414632, -0.009182737665348276, -0.006748913336257992, -0.008533777716575078, -0.0067399009836931045, -0.005769575966437615, -0.004351866736351895, -0.005560551263567758, -0.0020599293249413714, -0.00256445824503126, 5.009331028368051e-05, 0.00050677041143328, -0.00027966291281915405, -0.0026269328622029985, 6.46062739506481e-05, -0.001015858007824875, 0.00014589065309307121, 0.0006672419335341424, -0.0002590695576534421, -0.0012585846137631767, -0.0020817752353737757, -0.00029481373636092454, 0.0015607429406384523, 0.0015228743078726911, 0.0021327720815528628, 0.0024983960336495484, 0.0017273050018916404, -0.0005998809965925115, -0.002900107049730095, -0.001286283971158337, 0.00041010471690139274, -0.0011781237679177761, -0.0005535513629242761, 0.003312292127370908, 0.002035083381612433, -0.0008450930849934319, 0.0014823530460186518, 0.0005784961606089016, 0.003160538295359399, -0.0009577350071639452, 0.0015667052053834288, -0.002591380809172717, 0.0009112942085582916, -0.0034215545011696677, -0.0012334868070482893, 0.0003471117014280878, -0.001804552041164557, -0.0025106105308627925, -0.0008994256507064381, 0.003684517522207065, 0.006295916043899359, 0.013565708087255733, 0.01291520860142357, 0.01725914076597613, 0.012334186169152049, 0.0012866498073601396, -0.0008321518713273484, 0.0005313271117388851, -0.0005270264701765631, -0.00013332117145171791, -0.0004451759431355894, -0.0055527854463937884, 0.016533351233156857, 0.028936956806269256, 0.03249128762385008, 0.021723148857198102, 0.02122810161909337, 0.0057052778526053526, 0.0007146097590680534, -0.00021934226568351583, -0.0028937029457020225, -0.005282631012142021, 0.001150282844013403, -0.0006742171393308343, -0.009135475049704106, 0.01203922184944206, 0.010580766211358538, 0.012896365177910764, 0.004307410861246211, 0.0047864532498795255, -0.0006247090210314716, -0.0040924867884356, 0.002412604941149708, -0.005199895387524419, 0.004690768652688341, -0.009238590720655943, -0.010503857346685788, -0.0009191518357671982, 0.009094572715272357, 0.002319800799659555, 0.010049999219261498, 0.002456945999156431, -0.0002241316188507967, 0.0009029608271592529, -0.0010919645224950968, -0.0002621845426023489, -0.0016273098950678822, -0.004523049339638924, 0.0033637346242535743, 0.005801625829490641, -0.00019478089783232517, 0.003124532132806718, 0.01507870529439613, 0.002513637148237384, -0.0017279467429014087, -0.0026182923976810152, 0.00016614969574378166, 0.0027398820994580203, 0.007291842852875394, 0.015007914239512664, 0.003068056703562124, -0.002930496195338108, 0.001664704629480195, -0.012619766576083907, 0.007389839578510642, -0.0001891246902055633, -0.0014639113369501937, 0.003533730031999241, 0.005747667507834557, 0.007674689370094904, 0.015151185127207202, 0.005853532727307868, 0.011413156537855757, 0.010661145025979077, -0.0007355426138491136, 0.01079307079776559, 0.00225463719485736, -0.001265670841832701, -0.0009175307697949376, 0.0015436334546952827, 0.007932084926124686, 0.024955965101404857, 0.02804618408666297, 0.018585899026562658, 0.013070664251521417, -0.0046716720636148235, 0.003100719152068477, 0.003261859892501435, -0.0071494724450166715, -0.0021873267754092445, 0.0012303766653303416, -0.0006389104832365004, 0.0024894219786064722, 0.0020900578085400606, 0.0018169358231325803, 0.007558366858109416, 0.004006538638271465, -0.00785013057722732, -0.004156929145739254, -0.0016261798859881307, -0.002604091438387411, -0.003650797526052148, -0.006452068342667501, -0.004557698460248855, -0.006375286186584778, -0.004427655613648984, -0.0062746601044210365, -0.0052759944153739306, -0.003714812560330417, -0.006991573613309135, -0.0065213856047061135, -0.005083482367251424, -0.005185636525258176, -0.007978417436135019, -0.00602409836528163, -0.004945259301783291, -0.004856221701081034, -0.005539855660190163, -0.006410967395353294, -0.0066521891692435334, -0.007566023187851038, -0.0046147304775114055, -0.0062917342798235265, -0.0060227789489358495, -0.008411327697818972, -0.006992118751204056, -0.005891583476735535, -0.004595772646364175, -0.001400127739185941, -0.006183511218765209, -0.004107779911140502, -0.0069372514009909195, -0.0061437491382153285, -0.0062070604443009965, -0.007825377489168851, -0.007130884258453483, -0.007081278331593825, -0.0058305927134612275, -0.0067211525986676, -0.006166201671199468, -0.005218535814615392, -0.005340695632022541, -0.0035190116261553475, -0.004713818229071196, -0.00690008667448152, -0.0020605469888909833, -0.006301796450635863, -0.0070925112941767655, -0.005300823214804914, -0.007451309265704057, -0.004822521072938263, -0.00657918921140205, -0.007342775701871142, -0.005852656621667267, -0.00702443042553269, -0.004919167734403648, -0.0053865307608732035, -0.00446774947319113, -0.006357507109366938, -0.008363215374431198, -0.006127235605896665, -0.006569934965801635, -0.0026961814613509385, -0.005961387738907225, -0.005324103201374514, -0.0062420468610687235, -0.008070083970221626, -0.006110331080034523, -0.0063378548411749435, -0.0060286955398490185, -0.004981777416486047, -0.0052593898996361995, -0.004863059818290925, -0.007081102774776296, -0.004488173189038021, -0.0037905548220247367, -0.005907550118348499, -0.005642721974478943, -0.004737947804225442, -0.004776345487422272, -0.006836147334863956, -0.003932996014200284, -0.005290362860137844, -0.004085462692150103, -0.003667354249114852, -0.008533712309814439, -0.005103841864479659, -0.005723475840984318, -0.006332822862701493, -0.004732199565041089, -0.004258954594304352, -0.0063407748640666025, -0.006241140570083985, -0.007040207422505444, -0.008562142382369298, -0.004383360503989498, -0.005192217280371135, -0.005821121138241262, -0.006458842543457912, -0.007663315373700395, -0.006446848002566185, -0.004407312420719019, -0.004608732339758148, -0.006492251872284682, -0.006925150278937098, -0.005637383128369034, -0.0071032761394742, -0.005357866024486942, -0.0053920497175611965, -0.005480865101883313, -0.005751258360014942, -0.0031751864307991923, -0.0061012901752156646, -0.006813048674491496, -0.006833314784839341, -0.009461270524715052, -0.006514334963535552, -0.005130657387703875, -0.0044449461848261, -0.006669335102849082, -0.006042299304433819, -0.005685600628236461, -0.006204027343343298, -0.003537878027388774, -0.004865329614240575, -0.007048163124370236, -0.006258662591636818, -0.007053162189931613, -0.0036753200813672946, -0.00985602528957745, -0.007408786446935947, -0.007214614461439912, -0.004382957009098886, -0.004054062882624436, -0.005793905827217553, -0.007072642881948116, -0.006334680498880017, -0.006238482804668842, -0.004640310118615705, -0.005603388384953673, -0.005234462550961513, -0.004709782621991506, -0.005486781631862043, -0.002995601023788594, -0.0054753651773924075, -0.004459242036560834], [-0.0008629196753612428, -0.0021863244748506487, 0.00035235920948904125, -0.000563642926407568, -0.00020931435709192205, 0.0013728580921701788, -0.0015902748139433231, 0.0017337660568233128, 3.473195498161801e-05, 0.0027444556060340726, 0.0011686099329233962, 0.0008343107006309194, -0.0006512369951775514, -0.0009740704475143604, -0.001516848112563099, -9.889932342243543e-05, 0.0012492380238134258, -0.0007858696734657402, 0.00018762375879675667, -0.002315978521507286, 0.002142647093808129, 0.000176249538484449, 0.0019225792563245464, 0.0015554021753672758, 0.00025522631648922816, -0.0019261281013851698, -0.0003685446560490248, -0.00034524486264729504, -0.0004528059858603015, -0.00024312551078635122, -0.002156269687201285, -0.0010304087488826243, 0.0006995755027362895, 0.0007387421833408006, 0.0009021566356837945, -0.0024843353293793726, -0.001170879923127039, 0.0008833754688414874, 0.0004923836953830744, 0.0015955100361160718, 0.0025475862037766216, 0.0008380835718771957, 0.0010504546471517423, -0.00021861499689017545, 0.0026926622522592415, -7.132915886286105e-05, -0.0017153995724101848, 0.0020498995242315804, 0.0008887043473440645, -0.00014007720277810933, 0.001439884973145253, 0.0014943522617803366, 6.028173876897499e-05, -0.0009672103010032261, -0.0013596727127036707, 0.0009652709030062222, 0.0008051989099671394, 0.0033383330216431523, 0.0012546217214969067, 0.0009762729616080727, 0.0008971775820131499, -0.0006553274224117203, 0.00014173902062614643, -0.0020203193747487195, -0.0013433999438170596, -0.0009351326995000235, -0.0004454108192953487, 0.004540374853620769, 0.0027204781281227725, 0.0006947341924688667, -0.0008987453378809433, 0.0005395378828505271, -0.0030032996314204785, 0.0012881929079437198, -0.0009537160050217671, 0.00011337507993315118, 0.0020277936803890077, 0.0032692506147595137, 0.006022845797653683, 0.0009768184423242091, -0.001971960834202509, 0.0001398745084648664, 0.0011846982670535911, 0.0030426451079784136, -7.349092593331455e-05, 0.0003166264130921496, -0.0018621355730217791, 0.00024405153618059844, -0.00011842883428931694, 0.004256009651752572, 0.00032456733539456916, -0.003997599020442663, 6.486376388719378e-05, 0.0014324156401149522, -0.002314205407891703, -0.0011582721242216017, 0.0005632642058713042, -0.0005264392197248098, -0.00047361570916185515, -0.0021905035453955862, -0.0020769408178060718, -0.0005440678379025704, -0.0031159236841657757, -0.0014788722009625305, -0.0015276381555628378, -0.0021375223008419935, 0.0026094783967242074, 0.0009393657238758868, 0.002370171666527125, -0.0025458380423930152, 0.002216545810019705, -0.0010852437536579005, -0.0018825094344285536, -0.001227728004790837, -0.002246499313598936, -0.0008676594756666328, 0.0003495645684119453, -0.001690237268226347, -0.0003951249320678664, 0.0005036486392537237, -0.0007163287870150911, 0.00045046483210640546, -0.002197599380275341, -0.00028116593564945044, -0.0011429817626751745, -0.0008556212525289071, -0.00044781291566754105, -2.618580154566921e-05, 0.00017515490289934279, -0.0006418098983360534, -0.0004974964940190967, 0.00019966675368947396, 0.0008582214765356611, 0.0009283165386372546, 0.0006936989074736778, 0.003186779547230756, 0.003764482328768954, 0.005371294190390202, 0.0032648440843550263, -0.0006214283966941182, -0.0007232238944039306, 0.0026329181013701576, 0.0007052876278796447, 0.0020664222612265396, 0.0011857812729564419, 0.0017052812657103126, 0.0001772095899377671, 0.00013171077152695197, 0.0004145076124305597, 0.002355070582705065, -0.00020488796119960814, 0.0021342205772593597, 0.0006554875555512334, 0.0016018765294230197, 0.0012924617401939265, 0.0013677140619547754, 0.002578824970497712, 0.0036045249558002397, -0.0004887696321774549, 0.00027438174786830323, 0.0013223967729377934, 0.0017542516348535435, 0.0008483719517441057, 0.0018781502378607063, 0.00037793863458165347, 0.0027865132741290584, 7.377238363993534e-05, 0.0019967707440164215, 0.0022251749577835785, 0.0033953249765903636, 0.0012712860514624703, 0.001156030216789443, 0.00020128414630889112, 0.0014662591572608156, 0.0004928529871493502, 6.368297744304801e-05, 0.0014868620032642882, 0.0026507310638806533, -0.00023936107803364292, 0.0012357483402198795, 0.0012501491527892397, 0.0023898138361619224, 0.0004888111692055062, 0.0012800577596248787, 0.002269719156245725, 0.003278134143331866, 0.0017643762042849368, -0.0009235800863877222, 0.0004659742699121005, -4.197410300541274e-05, 0.002310603537456994, 0.001364511027494073, -0.0008467170115770894, 0.0008060233660512399, 0.0025595415994716488, -0.0001431404487016819, 0.0012819864755437473, 0.0005756953916664175, 0.003714413606902156, -0.0005322760608223602, 0.004205385805348076, -0.00042101458542233105, 0.002063101504492054, 0.0012912439707074071, 3.150843418054009e-05, 0.001080334551627514, 0.0011953812515788792, 0.002083984221546907, 0.002473161815392048, 0.002713013101636175, -0.0002764248723104731, 0.001409973303515099, 0.0016617630983195395, -0.0005978983203704211, 0.004628537522252392, 0.0022994189590713875, 0.004411246921279887, -0.00012071905465191776, 0.001870491426880012, 0.0018400168479206591, 0.001371624356685838, 0.002279027937437592, 0.0022721708956419976, -0.00011901312461497325, -0.0013532468948905918, 0.001059783505020873, 0.001561895564919567, 0.0036079341103915246, -0.00034739013698031386, 0.001970475767165583, 0.0027441099766722515, 0.0004196726280519944, -0.00043754148343897907, 0.0013298076963454534, 0.0027999138881561925, 0.00010750562879914888, 0.002871225695745368, -0.0010655459478311332, 0.0013086203030265667, 0.001677124257735737, 0.0009657487666080211, -0.00030780750575214145, 0.0015305176597169407, 0.0011292549481273567, 0.002033873366563008, -0.0005279830274977959, 0.001988818285603689, 0.0012582709340806294, 0.0008902132256204465, 0.0003030540634732449, 0.0013841401167243156, 0.00032343452820293174, 0.0013724894566309624, 0.0004561213066979872, 0.0018342623725469299, -0.0001585517406950123, 6.591893160848849e-05, 0.0031139142788078828, 0.004098814091905764, 0.002667252095226449, 0.0014470826962825715, 0.0034592908738498543, 0.001730201511842827, 0.0017696782228398462, 0.003014726664074778, 0.002763242997106818, 0.0011379223521603152, 0.002747447214431715, 0.0017705398385800281, 0.003210150115073019, -0.00012373625784232913, 6.003996592231527e-05, 0.00355523504452965, 0.001404233324880808, 0.0012758913653810049, 0.001423719982027509, 5.719292770314442e-07, 0.0015043695740396643, 0.002743024972928972, 0.0006377824548359649, 0.0021140334839183385, 0.00010859558778897876, 0.004220486999065333, 0.0019308226264005777, 0.004043877264304192, 0.0005032778816690093, 0.00039629509573472057, 0.00037337846273787206, 0.0023555690290083596, 0.0006769327872085201, -0.0017032688381242976, 0.0010118200455757132, 0.0020883726731754535, 0.0012370204260936928, 0.0011405099793431004, 0.00238321551813451, 0.0015864230758704811, 0.0007071341340351471, 0.0016395812584187285, 0.0019276388161744984, 0.0024399182345789215, 0.00021350547556134967, 0.00030363275450565156, 0.0015008555107762034, 8.647139437926406e-05, -0.0008647137490708249, 0.001836197509299286, 0.002459771869018426, -0.0008075100641091741, 0.002835355105555136, 0.0028228149010448345, 0.00012647343637096225, 0.001530122154852898, 0.0010391262696694227, -0.0011375338175309056, 0.0011972971875368098, -0.0019653554764558134, -3.8782747645779145e-05, 0.00388742401024494, 0.001330326502941954, 0.0027125749522637103, 0.0034302370595291234, -1.879702674831109e-06, 0.002121740399667832, 0.0010036473385053653, -0.0005501310214203574, 0.0015109363629166603, 0.0005608494579728253, 0.003617983709374428, 0.0031277886285521533, 0.0015577274480651309, 0.0014643757741414198, 4.371020319790946e-05, 0.003075158541249015, 0.0029992301056446665, 0.002127822615544017, 0.0016355163105088812, 0.0001228942806366383, 0.0009567825524552518, 0.004395233452838892, 0.004113807729247411, 0.000816820028870714, -0.00541180552819449, 0.00013229009533909222, 0.0012747760332294988, 0.0037930690135899846, 0.003226565559399865, 0.0020116156922625594, 0.001026507518682989, 0.0003913800330094147, 0.0006011159402024886, 0.0011763261402775952, -0.006714658983397687, -0.007951266647024198, 0.0017657419586102183, 0.009114838489132585, 0.004755536357950346, 0.0028002998944579895, 0.0018870169304782, 0.003877085270722695, 0.0008985953092120934, 0.004136619741409387, 0.00548012210234638, -0.0002664809333590871, -0.006708539926168983, 0.0017033864407630865, 0.009368541923040255, 0.008309351249337554, 0.002410550979136637, 0.00023539097230276313, 0.0011167705014324205, 0.001250453049084754, -0.0003526974899001624, 0.0026745141317224236, 0.006274300906391139, 0.003432790602929948, -0.0003444491689327543, 0.002650091809005535, 0.007546794732724915, 0.0034485533028846015, -0.0006741051016686825, 2.5358997111462306e-05, 0.0028513850507539073, 0.0007280540045469019, 0.001285734386161588, 0.004540514486743314, 0.004352420998071854, 0.0026637115725203714, 0.0012134810221173218, 0.0012689659119847047, 0.0024521953999297997, -0.007290287427064276, -0.0005122236339522175, 0.0008489055949998596, 0.0016843997039559862, 0.0012544067758308423, 0.0014887217288111927, 0.0026967390280080335, 0.006817264680575072, 0.004874605741826084, 0.003920774142253978, 0.00046214785121302156, -0.007948524253878021, -0.009464526125746341, -0.004779329238465726, -0.0011097621023642538, -0.0001503362933017762, -0.002312518863040871, 0.0037333097059138805, -0.0006699570534612267, -0.0037853123726598343, -0.0033739997346029205, -0.0005213775546451646, 0.0011968774525939099, -0.0042222036377752925, -0.0029962945027217657, 0.0023749339055401933, 0.0006226502518583212, 0.0034430548732132175, 0.0026178713878887193, 0.0003379540569265348, -0.00037949636791246845, 0.0041591504454611345, 0.00172140616803771, 0.005063325861159586, 0.0058127218628701805, 0.0016442557337165604, -0.0018428464427001064, 0.0028013458250642836, 0.002452449815213062, 0.0017591347394389173, 0.0018512915208907129, -0.00019025280404895548, 0.00047888452236326316, 0.0017265040731502701, 0.0035632259283585473, -0.0013108876035396806, 0.0011138845938045332, -9.393969839103514e-05, -0.00021133556512851015, -6.321982326501143e-05, 0.0006380036947007113, 0.0007933712936499654, 0.0018139360241954232, 0.00177909080410098, 0.00010785236113245163, 0.0016002463988548338, 0.002831135739805404, -0.0019232233153289046, 0.0015809169620793551, -0.000487352340391588, -0.0030287730247152075, -0.003294397341849517, -0.0011249267316933613, 0.0008396231139054788, -0.0012979349922990556, -0.0005914611698492207, 0.000863355463714698, -0.0005265655158882299, 0.0012415040868144211, 0.002247608871539432, 0.0012092517978941318, 0.0009714915533075171, -0.004144067444728015, -0.0017956661670164593, 0.0013229080518255434, 0.003039569437474661, 0.0005313069416634773, 0.0034305996683070606, 0.002706467004714516, 0.002265816823231859, 1.5161846596387091e-05, -0.003849535633172957, 0.0012737710449622099, -2.1000714662945236e-05, 0.00027057832558273194, 0.009630014230441415, 0.007813237313499258, 0.005995903122351202, 0.0040142015084138165, -0.0022233648120458093, -0.0007276088273895575, -0.002054899949513224, -0.0007774111770663489, -0.0003898897762107954, 7.15108566290848e-05, -0.0023220516566210326, -0.0010637661667484888, 0.005382063840896523, -0.0008215072685160903, 0.002666609937025452, 0.0015810397069734292, -0.00020343080066939376, -0.001616091743036532, -0.0009540607314468706, -0.0037360357866261036, -0.0014718875359259877, -0.001389919759906663, -0.002783829288743819, 0.002440161163090615, -0.004537205538829467, -0.009859184658127703, -0.004303145514976979, 0.001320178660776233, 0.0009285293752605982, -0.000780174563593286, 0.00035736460044949827, -0.00648577108172955, -0.007260551478512324, -0.0006972876233228621, 0.0025524973978519852, 0.004478481912114718, -0.007149137983592748, -0.005606453565191012, 0.0009716633311300508, 0.0027435044188860603, -0.0013797309024115184, 0.002408094830813419, -0.00012872405263559037, 0.00042128300305481535, -0.0026747828056359457, -0.007237767143362136, 0.0037194026347032, 8.967115541565836e-05, -0.002010518834255901, -0.0029468597802790645, 0.0022012389816607153, 0.00218044705354067, -0.00021323381515952092, 0.0009548221265826732, -0.00011724149361637737, 0.0003680840658041388, 0.0006975207911410247, -0.005536213828357643, -0.002443379773100673, -0.002167755768905628, 0.0021877209095189313, 0.006241357291047886, 0.005655516552762529, 0.00022554241638119465, 0.00021991211618979084, 9.919009954896036e-05, 0.004850918944890531, 0.00127554958579038, 0.0009085468110570696, -0.0040808890832491895, -0.0030339825196936494, 0.003787730683566757, 0.009350640671237082, 0.006009412109208143, 0.004170595396409778, 0.0010266073901932767, 0.00040847204642888613, -0.001149920984619188, 0.003378541346503889, 0.012604700828415265, 0.009918504799169552, 0.00603044875238661, 0.0036767819679398997, 0.003806515922627134, 0.00043213547841417725, 0.004240842932717809, -0.0004233088889425174, -0.003070720742417188, -0.0004210801033385166, -0.0017085432931853066, 0.0007686321850212756, 0.0005572669612142481, 0.0008712922389087801, -0.0011156525230115947, -0.0045911467231260425, -0.005151484238249042, -0.0020685246639435034, -0.004252476633497177, -0.0004637755150431536, -0.0014790623001946434, 2.3658194991158663e-05, 0.0026317939907935556, 0.002866552744375158, 0.0011944184571794486, 0.0007632034875420674, 0.002039201949166671, 0.002602582361446124, 0.00048263270961939323, 0.0014873508447656848, 0.0027808226439171558, 0.00022362647532253363, -0.0004468955935097997, 0.0009213426312838374, 0.003112484615656766, -0.0008644594270443541, 0.0010744559143922915, 0.003100034458888757, -0.0002599296386107695, 0.0012026918319236529, 0.00216792436624841, 0.0012144390172552717, -0.0001502499156447792, 0.003313899607086328, 0.0013800756473121582, -0.00026260551126655433, 0.0015188038499074565, 0.000658337965045418, -0.0015183019407675274, 0.004209383437141502, 0.0034449856996086057, -0.000860691226699252, 0.0014956766592932084, 0.0025065189667554514, 0.0016072761607952729, 0.00010539771315246333, 0.0032365963509542444, 0.0022195751386598953, -0.0008974386644932634, 0.0009773508808706246, 0.0023640859900375196, 0.0009047737360990164, 0.0007754997938517197, -0.00032429731614070533, 0.0035153166016499643, 0.0012072832266018273, 0.00038709335703969797, 0.000848846113642964, -9.930467768874003e-05, 0.0019005791576977335, 0.0011837007987956657, -0.0004896697154417454, 0.0029136934729903415, 4.190966594939903e-05, 0.0011558589151348156, 0.0023279908081212924, 0.003027761594367092, 0.0018351911070084799, 0.0005908076102602821, 0.002567254783590712, 0.002256875403399267, 0.0009505968489073793, 0.001915749838895809, 0.001001842937779495, -0.0029351547849332956, 0.0019229012753583258, 0.002460409239298761, 0.003433567292806043, 0.004073722707276787, 0.0002550129667470836, 0.0006841533593899526, 0.0008439720117073001, -0.000753600981603051, -0.0002607510350546234, 0.0029434931490734183, 0.0025672888010752613, 0.0014161955469197153, 0.0014403403168273426, 0.0035536921783339876, 0.0007975708076582432, -0.0007749511636267248, 0.002381216416362293, 0.0004699778017470861, 0.00016454261519083995, 0.0019310216830670543, -8.961755706108043e-05, 0.0005735957117561486, 0.0019153604088665646, 0.0014831506048155897, 0.00038324123780035296, 0.0019942468182790486, 0.0018965574595179837, 0.002185700104645533, 0.0033638345535516494, 0.0011596785651769436, 0.0012656231198424934, 0.004762119377776834, 0.0017870735591607638, 0.0001818873678396216, 0.0005756925103299662, 0.0013983750966608773, 0.002911308583040876, -0.0010569587472029575, -0.0002428682358527954, -0.0012602962792867245, 0.0003280935295148931, -0.0012232340734213633, 0.0033774925348086402, 0.00036977172698488805, 0.0007048032122478102, 0.002810643459554352, 0.0010596360887353423, 0.0021129108184782027, 0.0020229988442651953, -0.0008418441136834083, 0.0026355661766506496, 0.00033089746588595484, 0.0007298424888458764, 0.0014139115878575913, 0.0010835282531584639, 0.0009659039834535503, 0.0025077965994361757, 0.0011779798045827004, 0.0024396957375902293, 0.0011953356318847872, -0.000950992068280941, -0.0002251295747601526, 0.0014419536776944253, 0.0023036491462925654, 0.0010276682819353494, 0.0012535475991378702, -0.00030854629418061686, -0.00016025438907646912, -0.0005163217214628137, 0.0014602573596333515, -0.0009871673568494972, -0.00038941160384392114, -0.00046837900237057346, -0.00028396504258124366, 0.0007281102696487381, 0.001518655399346497, 0.0015766011956798592, 0.0027595422786690364, 0.0006749696955739165, 0.0016009914021950342], [0.0014424912687939593, -0.0006995500303261094, -0.0014863030670299077, -0.0004648536468043767, 0.003008601656426426, 0.0003977808610304129, 0.002827630947254327, 0.006999572008947071, 0.003169404520111145, 0.0006564000918490939, -0.0019778682853704667, 2.406222122272801e-05, -0.0003702141906413139, -0.0036066656098483444, 0.002569709941231562, 0.0029289505098324792, 0.0021303367402440688, -0.0008085461341155202, -0.005900665207017796, -0.022328890327106464, -0.024543051034493238, -0.011089396650833592, 0.004168905135135731, 0.005308190866160421, -0.0006742419959391497, -0.0038529995476819837, 0.009885524868309611, -0.0013232500652525022, -0.005049201768968518, -0.006336482161610479, -0.01913182633042987, -0.012448939362472697, -0.03009462498942374, -0.013623034478139739, 0.014590397212383326, 0.007586220648627331, 0.0022180560265836606, 0.0035277845118840937, -0.004258073659086363, -0.013534896001098718, -0.016844902186633093, -0.025700530549148354, -0.00820654503078867, 0.013530443266932425, -0.008157679631058574, 0.0010781408862558476, 0.003001162743929919, -0.015038297093322358, 0.000314429613967897, -0.0003013967454755332, -0.020314927007799122, -0.023084077390810108, -0.005320863119377447, 0.010071315344910261, -0.018156850352414062, -0.012316516470898814, -0.010816585476420996, 0.00936687859428289, -0.02055629635712198, -0.021583662867806493, -0.000618907019957262, -0.004653472105513572, -0.006273560907104782, -0.007617203751567141, -0.006460586448029204, -0.016514334962038576, -0.029247933046722286, -0.03157791816214127, 0.007992393942756972, 0.03978074090305159, -0.0008436733430784292, -0.0029798609927391955, -0.0010030473303581679, -0.0025125402888429866, 0.004725974725929389, 0.005631062904476194, -0.013576484039495426, -0.02374521013610968, -0.01858799357872955, -0.02268437506747199, 0.016495381831006534, 0.03182252548860035, 0.006486010584967659, 0.0014238360112413737, 0.00033519642549518445, 0.003561130458580503, 0.022519719909147917, 0.04080254149745303, 0.028149281954451495, -0.002335536928370485, -0.01245557602143955, 0.010246148283791046, 0.03170179352937742, 0.006736633471650691, -0.0021539824878799656, -0.0011439057015814606, -0.00092855844624784, 0.002952590068132105, 0.031591038858534363, 0.045037050551927325, 0.027744083886257057, 0.0010589035325865494, -0.008059508729308393, 0.035587116253801836, 0.013827276179844137, -0.014893247249910523, -0.011232441964468336, -0.0045958159004864324, 0.00012059792464984412, -0.0007680251852997385, 0.0036114067003934617, -0.0030372141155537353, -0.02951186528467508, -0.032930906608702654, -0.009931920853383765, 0.0037253576410511075, -0.00952148784841153, -0.023075127972168204, -0.015633603350779932, -0.006432041505092804, 0.002639027811457795, 0.0003497201113080884, -0.007982548786194645, -0.03266384008215524, -0.06053447849624893, -0.036349813035889314, -0.016831007440729722, -0.010564422090821248, -0.015469989147175952, -0.004379678229793179, -0.004812727620592312, 0.0003914608005129241, 0.0010866956343427733, -0.0009141319895731665, -0.0022317674045139032, -0.014527079126609305, -0.013426313141823758, 0.005457616627753741, 0.012705612628159566, -0.0008619329949992747, 0.0045941013258431595, 0.0025292463127148342, 0.003374976936232692, 0.00034249106900265623, -0.001869132536428116, -0.001379176331618994, -0.0018429390790713652, -0.002016147147345307, -0.0009155076382924779, -0.0031850032565078706, -0.0036784490351552106, -0.003005989611151656, -0.000633580423363443, -0.003608046516350198, -0.0012995000976200365, -0.00022153702129955926, -0.0017301466881424774, -0.0030454146720911425, -0.004515708313983661, -0.003945376967542581, -0.0013997837579017179, -0.0013211292100399083, -0.0023884845936248244, -0.0031197130801127243, -0.004433746411669619, -0.0021319677796956854, -0.0020907471760820947, -0.0004565132293993287, -0.0023198509747798337, -0.0023449565233922593, -0.0024120251154405993, -0.001205958154726582, -0.002085942154346752, -0.000512158732684886, -0.0011427384898007053, -0.002330541438579901, -0.003790279507006058, -0.0013499529574875528, -0.0037080166854524107, -0.0010465988883212286, -0.0033042314756303046, -0.0013163007872932925, -0.0019474076957420922, -0.002282235454018044, -0.0018371957515988717, -0.003506701061884673, -0.002433201610522366, -0.0034104314676438167, -0.0036952615260671105, 0.0004031864135839677, -0.0025529879580236405, -0.003575525058720761, -0.004635656046192634, -0.0038509172208607075, -0.00282620928925953, -0.0028899513220172536, -0.005290373725261434, -0.0031365538839663878, -0.002627005830961875, -0.0059881288393169455, -0.0025118600706346243, -0.00407253682502982, -0.0038221868766970426, -0.002766297711769378, -0.0047826182500474886, -0.0032023321740814264, -0.0020698940200353797, -0.002673426365082411, -0.0004268521407430624, -0.007120847302580744, -0.0022356311962183043, -0.0027669997045106248, -0.001691061987153477, -0.00165409353571109, -0.0022105484034272605, -0.004357003682517518, -0.004925804022199512, -0.0027475759302342424, -0.0010612923191841248, -0.0015758941744568938, -0.002114396509746718, -0.0027886655933265477, -0.0021310601759766826, -0.004958310440396763, -0.004468464236087894, -0.002799924179348176, -0.0007437401676601951, -0.0013730094605577997, -0.0024588060857786897, -0.002282432586864693, -0.003093463907141931, -0.0030439959780855894, -0.0010871352458106612, -0.004006569801745173, -0.0025875317194630192, -0.0032035988691861243, -0.0015274918351645237, -0.0007053237703699736, -0.0028787568875735443, -0.002387940229294331, -0.0031055166531795343, -0.0031403626690497824, -0.0029981025561755825, -0.0019990711976312515, -0.0005867716483065507, -0.0018172985565364716, -0.0018742645558123552, -0.004224217188805272, -0.0038075772875136946, -0.0010468546593936227, -0.0017724330668988776, -0.002830629675696535, -0.0013640047657057282, -0.0026060921807670038, -0.0020451585202974527, -0.0036300515316448623, -0.0020556679732679902, -0.0010534796569054371, 0.0003209734125175502, -0.004064565802305278, -0.0014790028266449178, -0.0012702215305888619, -0.0013401869370474704, -0.002057577544184607, -0.003661203799845547, -0.0017826289816372926, -0.00283375852272914, -0.005689439429405136, -0.0029380708447437694, -0.001545931363376059, -0.0028450405142646682, -0.000504393887553189, -0.004374800341653705, -1.5969536163830743e-05, -0.0021953545183827253, -0.0027929045365459606, -0.0015593430779909732, -0.002027096175334518, -0.0026786493994550575, -0.0013052376977620446, -0.001311506016346745, -0.001529160966939058, -0.0018635591073264191, -0.0024508785372613215, -0.001459686284715303, -0.0017071873034049882, -0.0018958864880823571, -0.004833760800941974, -0.0010874265025989731, -0.0017215564665699636, -0.004477438616797495, 0.0019379926193501935, 0.00170707042834398, 0.005113698322092188, 0.01651853606354679, 0.018208121508470242, 0.00995220786397902, -0.003606595988836856, 0.00017433306224218015, -0.0020648140723881496, -0.001499589995065031, 0.002034501295774432, 0.007399674801493556, 0.01556628211388367, 0.030696147522057432, 0.054323536168543955, 0.1085730273328994, 0.09242903293290165, 0.02173933449168987, -0.002602473472225946, -0.003520841428189607, 0.001321834781906236, 0.0001932501225208446, 0.00028705356671879006, 0.0242208490445662, 0.019894190949427275, -0.013673535871269753, 0.07791021304186638, 0.10676897383905795, -0.00823809726274643, -0.02517805083452119, -0.02888240902043058, 0.02376994129414296, -6.870067125263409e-05, 0.0027418514383061483, 0.021273184626681884, 0.010613760170950602, -0.06819941936531365, -0.019192435319677615, 0.07775771942095128, -0.02039462300488736, -0.02154934056905182, -0.06485289587188599, -0.07896109922087946, 0.004648104065305808, 0.0009541500258851381, 0.008781897348040139, 0.02358484929139086, -0.05869904414368875, -0.08141498288287201, -0.014897112605486956, 0.02754650151502068, -0.005660837711195202, -0.04422988174881604, -0.1396519193327424, -0.007984384778107789, 0.0033883899352107755, -0.0017699738549888271, 0.002181236820632677, -0.0025841737301989347, -0.06464123587048913, 0.0009806593714964977, 0.021365674475881034, 0.06355819255354443, -0.009395597346912574, -0.2253985805593836, -0.1345014364962105, -0.02072525837501068, -0.003050344069547411, -0.0009039460405731491, -0.031135521208414178, -0.04829210793723505, -0.11221654229361516, -0.06839558084880579, 0.043484919843793816, -0.0033583628384553452, -0.0072952951032296525, -0.13934236042012746, -0.036895247785818874, -0.025877900811018498, -0.008300998779440062, -0.001815345416239345, -0.003781670740349301, -0.04123773481486571, -0.07825310056119747, 0.013756664785965479, 0.14097694301128422, 0.015188831805105595, -0.011737649891344229, -0.05369922631188818, -0.030311737048039807, -0.018887748309254666, -0.0013254374234836694, -0.0005345684695593417, 0.0009654603441353915, 0.001457749279674599, 0.07663388914797147, 0.12638232984335163, 0.09209215547827206, 0.0336259728437843, -0.059018508924334905, -0.04566111158067802, 0.03404788512152897, -0.002806786751466214, -0.002847064712236994, -0.0025654432774325883, -0.0017155113778777912, 0.007067050884507135, 0.021347133897622106, 0.06875229839031881, -0.0073279813999822165, -0.16651195114024342, -0.11368985911202893, 0.018808328118292868, 0.029571656899987003, 0.012711531219002143, -0.004633993364773827, -0.0033048778219166063, -0.008509306684903578, -0.00019095557771701, 0.034857489473712325, 0.0037706784598089318, -0.08871849718748685, -0.1846053292245489, -0.005883201841323942, 0.0018733038805651108, 0.012961675386455209, 0.0023355312608376445, -0.003101833696354233, -0.0021141254203978456, -0.002462728703743291, 0.001000605312601019, 0.0038500387773837356, -0.015095012020239168, -0.09884100861230141, -0.037362137074465326, -0.006498799038084485, 0.0018934508307559925, -0.0074154053190929855, -0.0016856999551240373, -0.001663125661605778, -0.004257638570474692, 0.0014140679686699957, -0.0005769539085841305, -0.0009330688613513404, -0.0005932109819777252, -0.0005891226677299885, -0.008788872020750845, -0.0030017597614874, -0.006554232959819359, -0.0028447937545936874, -0.002240210046936439, -0.0009550300146861537, 0.0005296366532206224, -0.00242360419247392, -4.4105274844981015e-05, -0.0015320815040221088, -0.0076888116439505095, -0.016442618836170583, -0.04001440503839868, -0.050336785780317535, -0.04794725167020104, -0.06707774500838078, -0.04753906387902659, -0.011435154230868654, -0.006094840799604154, -0.0026503312739249887, -0.0011480873289580642, -0.0007919564664357071, -0.010041524960046132, -0.03922816462056914, -0.04755250105152352, -0.03807078539578107, -0.023846957764983932, -0.02737741252833862, -0.013359296323153823, -0.023440770367467376, -0.028089579973946004, 0.002916317951526389, 0.011719029339031413, 0.01278937827214977, 0.03366763153245236, -0.006361033106134935, -0.024843817068719683, -0.030564374735544915, 0.04260600268980299, -0.04518497638736468, 0.021994043859945033, 0.08225549938068061, -0.06390237761819269, 0.0007336665126815045, 0.01570068807812513, 0.038809775647387475, 0.01096674615062781, 0.024502423297028997, -0.06217641871573699, -0.004851792230348228, 0.095343568841043, -0.05044525426743574, 0.21085448199843335, 0.11793815382395659, -0.026671990846143315, 0.000556304409864364, 0.018103896938972852, 0.0203286932949793, 0.039581877282695264, -0.03444461701662088, -0.11478346881763866, -0.02732145680691339, 0.03223601939852962, -0.031431920107329474, 0.28177733609289507, 0.08164992289414702, 0.006996239189713302, 0.0008011956309929339, 0.042365531286514144, 0.059204519065182544, 0.1082018059387717, -0.0031885155817036404, -0.16016830877375898, 0.03739613640023983, -0.029353505965348022, 0.11540916365474031, 0.15172880915009102, -0.021764465167096004, 0.03798556143826457, -0.0019000025742384023, 0.004396547642896885, 0.04902401372660105, 0.03463077958146387, -0.04480072150291711, 0.06931376041777286, 0.03992499404675492, -0.07352670183783722, 0.12383993019317846, 0.022832813289636884, -0.11299190683549958, 0.02469287014963988, -0.0011995492014820772, -0.0006796317400545785, -0.022728455459664846, -0.07401392902149923, -0.17220739987447234, 0.00928206513161932, -0.11258405423544951, -0.010398780235120798, 0.1185812385723108, -0.05214408374826853, -0.10440472904295643, -0.023112504655749124, -7.987676329694868e-05, 0.0030722860619518313, -0.0236009197373896, -0.07441028949293334, -0.06637347107279977, -0.1254777139103328, -0.09632563120200908, 0.03594430112853844, 0.07436996395161462, -0.012828056303394767, -0.028064299453139305, -0.01647786353292218, 0.0013621150960455145, 0.0012789623671106214, 0.01359814807591931, 0.033040767404825554, -0.009248561758566524, -0.0791622162058112, 0.030022603268741583, 0.12482982382277576, 0.02995144677532366, -0.0027950216888255313, 0.01039959254887074, 0.0053155957691751405, -0.0010088327543260503, 0.0010648940875693158, -0.022604300083948346, -0.01237066586566131, 0.010608498179850753, 0.030463856391861794, 0.09322842105460727, 0.09522701067775578, 0.0816156233848038, 0.08118339864307629, 0.012603312522206657, 0.007436131662840986, -0.00310351249198848, -0.0020747447871129936, -0.0030701355892768538, -0.002279928479053659, -0.0028218072995266114, -0.0023084440962271922, -0.003977842218361989, -0.002537394797873877, -0.0016515790615015326, -0.0023310971353050986, -0.0035961124512790994, -0.001908017288643341, -0.0014029450879110095, -0.005072017013458814, -0.0028209909514321924, -0.0031728359623104, -0.004962403852883191, -0.0020953397827482034, -0.0036715763089228853, -0.00030725287659972124, 0.0057702620553089085, -0.0020290370540042182, -0.0008405501544280103, -0.007018655533318709, 4.2375060917631684e-05, -0.0019278328859455075, -0.002742963333699782, -0.0016581828050075843, -0.0036413682758795903, -0.0015141303417251569, -0.00011009840215777902, -9.655189901401347e-05, 0.00024382861207175515, -0.002119927895877812, -0.0031609452298129942, -0.0024273020671975523, -0.0020988247401278353, -0.0010764025734518153, -0.004533532701262158, -0.0012858821610034655, -0.002393201302952414, -0.0009360695012570578, -0.005350994678833214, -0.005382712156087581, -0.0006640630124882827, -0.00241192295902988, -0.0017022935905069906, -0.0023934726112704234, -0.0036281951288762815, -0.0036247460806461923, -0.0034348654290075114, -0.00421222585197212, -0.002394338067486717, -0.0034939377447980326, -0.0004465387354127548, 0.0032392963839121955, -0.0023359207372855664, -0.0016991955171077907, -0.0027447269560296832, -0.0022618758230163907, -0.0008372076526224029, -0.0018855519975965072, -0.002259498638534931, -0.0008736951804245769, -0.004764630849753733, -0.006044599478266422, -0.004942796560474978, 0.00015345319144131336, -0.005106698855716238, -0.0025851498520706537, -0.001660617046863841, -0.0037371542399058737, -0.004639880253236075, -0.0017452384869140413, -0.00301878362661935, -0.004103557929792703, -0.002704408679476136, -0.0060242679190376566, -0.0007878377815362914, -0.0047854853900585834, -0.002073973588924291, -0.0009400782258070271, -0.0020274661091239507, -0.003499087574940291, -0.0015304220362001492, -0.0034635740925451166, -0.0011344814251520398, -0.003907818536138055, -0.001683099961040106, -0.0015388175071193875, 0.0007480834760352649, -0.0010868970908486052, -0.0016839372047466985, -0.0018505243275837376, -0.002807722631215877, -0.004269932122065977, -0.0023147869324784266, -0.00138729748420528, -0.003381211007658386, -0.002692699771905843, -0.0005065671825065435, -0.0011256953880043356, -0.001968964900025361, -0.0024959590885327257, -0.0014978022691495357, -0.0032933533238288302, -0.0015112236305759035, -0.0025638783212701207, -0.003026454984126945, -0.0012821856583358732, -0.001611969352843165, -0.0035699463384734546, -0.00197724468076442, -0.0005190570684316599, -0.0023742317828581985, -0.0026391566016832606, -0.0011963769554877777, -0.0006922112330276276, -0.0005451105175538541, -0.002445928594453838, -0.002971644195820989, -0.004239811707455722, -0.0030434245610207007, -0.0003829364025791862, -0.002613231986029328, -0.004675670374258769, -0.0019688190823033687, -0.003328665936574841, -0.0004235034392841959, -0.0020328420721835963, -0.002070108064378191, -0.003984040924635319, -0.004024589406232044, -0.0012009654903417206, -0.004666529137753373, -0.0012263939711473835, -0.001400402948094645, -0.004218028884097668, -0.0019225603449018781, -0.0009715934240168937, -0.002742454249320244, -0.002358010419996113, -0.0034921389647971863, -0.0009964990098613271], [0.0005099791044312243, -0.00046185329875025665, -0.003132235119497588, 0.0007976097501494118, -0.0011371063770767578, 0.0002739140450142183, -0.0013177534646926106, -0.001442168510977515, 0.0011577921733012212, 0.0007371620737779532, 0.001502580891580738, -0.0004124489821131958, -0.00015776747854849495, -0.00200295518407098, -0.001514557975158711, -0.0009678864556927334, -0.0005870228224099154, 0.0008325574107416999, 0.00180829506416475, 0.0016959642731803426, 0.0005624068533055985, 0.0012311142702712105, -0.0006096161210795011, -0.0005828702399926568, -0.0011309406120681195, 0.0007499179442107182, -0.0006603990510425501, 0.0008071493164364013, 0.0022686412090932124, 0.002293035052759063, 0.0022585285937693662, 0.002008020173903913, -0.001600559429108248, 0.002740008447600934, -0.0009953163308719388, 0.0003154801870732122, -0.0033328093789111125, -0.00048643538615051593, -0.0003048560625908114, 0.0011949609432989493, 0.0004394453350438968, 0.00361173397947821, 0.002207470235871378, 0.00011662650857253525, -0.003145604049930512, -0.004365744815607523, -0.0030764447724269356, -0.0021272332574343673, -0.0010347674205957958, -0.001362442363494416, 0.0014423467090772498, 0.0009604165726718321, 0.002766765861798994, 0.004083412088557313, 0.0018417663655699661, -0.0005921811945775831, -0.0024440485421532514, -0.0035697956106868463, -0.005327464304607711, -0.003246156468140435, -0.002756804256224921, -0.001085491412929963, 0.0012895579501952152, 0.0030587633948418974, 0.002387284581861988, -0.0022830746100100194, 0.0004396368405660827, 0.001064733430793238, 0.001242123679714451, 0.0005626833163703571, -0.00159769952793535, -0.0001792775217484702, -0.0025502565423417044, 0.0003590549573790147, -1.771420523220373e-05, -0.003732304600470254, -0.006299068879121469, -0.006495167843183414, -0.002633792434716015, 0.001486413057866859, 0.004512312459822543, 0.00033934992811947404, -0.0008546746321344996, 0.0002993320985809242, 0.00040364994587613524, -0.0014904201062036283, -0.004065846183664866, -0.0016139729949061045, -0.001301748890854545, -0.0005658851114247635, -0.000845614727616265, 0.0016454860206292692, 0.002055901542436259, -0.002923489131012066, -0.0020677046298196006, -0.00017403478088779176, 0.0011041670898270966, -0.0005762059217614822, -0.0030624466769054604, -0.00044847273733052373, 0.0014730204481782085, -0.0010634548181014663, 0.0030505415752060936, 0.0003048849771700578, 0.002122379338692026, 0.001214859023338617, 7.328604681830074e-05, -0.00012086705862434155, -0.002144470385057642, 0.00037074883299011255, 0.000162312865178608, 0.002511241250258368, 0.002497918822777809, 0.0016057820740017184, 0.00029637477407474014, 0.004561323496039606, 0.000778815448324585, -0.0010391072039659774, 0.0010927484769574756, 0.0020899698763399465, 0.000798204935381356, 0.0009624240892783252, 0.0024998513809090083, 0.0031751509394128425, 0.0028091925995188025, -0.00043196462603649566, 0.002272359916241729, 0.001651650066215224, 0.0017363460023230365, -0.00011927920057152161, 0.0020795788730214467, -0.001486137193557839, 0.0006809445568656479, 0.00166078752868141, 0.0012286870062199475, -0.004170933615696045, -0.004001468238528829, -0.006830415734169999, -0.005707065589064853, 0.0001191347642084917, -0.0025321451974226862, -5.037868822348521e-05, -0.0007856234108607774, -0.0009090299605280382, -0.0021733738600567386, -0.0016333291887484541, -0.00283031962021846, -0.0031138410978452697, -0.003914183034800119, -0.002465802758654414, -0.0035129167261320248, -0.0015227371637598183, -0.0022956927580232898, -0.004249652581733912, 0.00048179552769391545, -0.0029707124655230016, -0.0037135865481543167, -0.0028625376094938157, -0.002296186057620845, -0.0024235379915038646, -0.0027043087563146896, -0.003430828489549907, -0.00214619445095283, -0.0034401092136503815, -0.004702974964365023, -0.0026743738843874316, -0.003486120500806473, -0.003936051431602396, -0.0030154786927764276, -0.002840094551014881, -0.005728251915532712, -0.0025739905565932276, -0.0024700647980147945, -0.004682378713939592, -0.0033014734084028923, -0.0020553924977131104, -0.00486308525788694, -0.004080840783598693, -0.002545062209512664, -0.003436839858134446, -0.003922797031975649, -0.001941158514342011, -0.00495910864375993, -0.004844296216978878, -0.004442517645006148, -0.0009932581491064912, -0.0022516442811284718, -0.005337798241162028, -0.0032818288265716897, -0.0035293023626837626, -0.002798442865764494, -0.004523700481244705, -0.003782904268814726, -0.0038338828985533123, -0.0032186609257024417, -0.00526797704967301, -0.004359007483473362, -0.0032005218396829573, -0.002170246638960806, -0.002901176463094083, -0.0014761701961082886, -0.003214352811185933, -0.0049251122119961625, -0.0029352739609821406, -0.003429324875619183, -0.006467203574675324, -0.0014326094332665687, -0.0033723029351347316, -0.005742744836849758, -0.0023467997601703773, -0.0029919957079348114, -0.004042049231987827, -0.006574673147504206, -0.0030613789097025178, -0.003606906626476102, -0.0036148330386415145, -0.0002963866965535787, -0.004397216576908706, -0.003657952921770511, -0.0018907060908677227, -0.00270712399980526, -0.004223105042554531, -0.002261666442508389, -0.004066806265452258, -0.002367318978606549, -0.002933273400943511, -0.0011976772317371725, -0.0041692550544749725, -0.0013425601205783533, -0.0012091233773729544, -0.0030168551262085425, -0.003208174244248439, 0.000505337620016966, -0.0033812855218313537, -0.0031437751703341514, -0.005071659157520476, -0.0025552270900033804, -0.00028296356397047254, -0.0013445431900914876, -0.0056747251165304, -0.0029054915901755665, -0.0030243909240683484, -0.006123238069783637, -0.0012661872335678474, -0.006588748809221343, -0.005114510611812625, -0.0030960664883105333, -0.0017937889701004801, -0.002904408832764985, -0.0029108594288672434, -0.0040431911149523495, -0.0032117816322384746, -0.0019280550384560796, -0.00501734738453491, -0.0018402141919463487, -0.005291967510609035, -0.0026583141477022603, -0.00512027914128735, -0.002877613548630535, -0.004512586400259176, -0.0008008887230856962, -0.005492272479355131, -0.0024319015848634413, -0.0017589018941976979, -0.002128695632932524, -0.004409600301013531, -0.00012794619864834063, -0.004664693315388161, -0.004524342719235794, -0.005017949550908947, -0.002538569415550013, -0.0026732080282365687, -0.001756520023725133, -0.004095155865629136, -0.003154445173327961, -0.0049444631510218795, -0.005649944132901623, -0.004340191785382246, -0.0024551802105385145, -0.002030354205029119, -0.0014273566242709802, -0.003316678561673056, -0.0047000198970469365, -0.0022130451788322336, -0.0028888967674065074, -0.0038091610978305958, -0.0057147985998651915, -0.003540715686142801, -0.0019129565684279826, -0.0033545654451405064, -0.0044512272229155206, -0.003579459751269282, -0.004149794340932091, -0.004425785190230897, -0.003049509142866209, -0.004418663776410829, -0.003849320874062038, -0.006376231494939102, -0.0025436790539874804, -0.0028093958451816505, -0.0028720277400704273, -0.0031630788249246322, -0.0025878466362269674, -0.005999609435431625, -0.009272125036894513, -0.010402167203613855, -0.013508385843940464, -0.005682357491374043, -0.004016142763908739, -0.0022974182217943787, -0.0018898745179232127, -0.003927497481066018, -0.004826516919725412, -0.0039901926090329136, -0.009567259724468044, -0.008300931229619049, -0.008315150434521405, -0.0042004878976998105, -0.007184405721345849, 0.002034137447470733, 0.006969767377673711, 0.007575765743725443, 0.0030045826676151086, -0.0031960948916820377, -0.004984088460735514, -0.007247180739835021, -0.007092981093005635, -0.0034479350735613593, -0.011456673428043155, -0.01718059653400472, -0.0009905660174776953, 0.006389605581047327, 0.009285442087339918, 0.006899102319680007, -0.0013014118155528808, -0.0029506280351469312, -0.007019390211277879, -0.005114238097078277, 0.004862381774620667, -0.009817389102219782, -0.00811204188446145, 0.0017588308426003238, -0.005041742418744182, -0.002535474047706242, 0.0072699490371693895, 0.0022872588538985486, -0.003939127627738809, -0.003579900251404279, -0.0044612976252555395, -0.0035366037294929935, 0.004315472787979399, 0.0012646670936691214, -0.0003038593259526345, -0.008237288879537952, -0.01869648537674958, -0.026103364746365654, -0.0004108735363192374, -0.001760078442347035, -0.0028478172639181338, -0.0028605328329478624, -0.00030845284072151413, -0.0015273684683129811, -0.005120752359629185, 0.007824868273203797, -0.0018692018610238603, -0.008605903022539167, -0.021719449729120884, -0.013972333070066277, -0.0052276849227588145, -0.001221243367531578, -0.004725456176124599, -0.001977183331430273, -0.004108337780008934, 0.0009239887434261838, -0.002417499854764826, -0.001963584687887495, -0.0033803487805737224, -0.004201364033636009, -0.013435264387982926, -0.003532129734360873, -0.001687342205416075, -0.004311232181230521, -0.0015196430121867908, -0.0025338031515634418, -0.001965550429605289, -0.006000874382224319, -0.012335140611305783, -0.0008742352749284116, -0.004172581884404024, -0.010582240589742468, -0.0013425940443073916, 0.005721550980679397, -0.0002732925560001008, 0.0018474072339364294, -0.0024252088580054157, -0.003469109528192515, -0.005695495332364636, -0.01173603679444256, -0.010846748122157059, -0.010279574326432998, -0.004136432881243727, -5.6091188087326125e-05, -0.002276559876293494, -0.0015235493257797635, 0.0013716194484577557, -0.002161377201855085, -0.004144671909522508, -0.004045675433910555, -0.0009208086214332479, -0.0048094390306115285, 0.007631771297544142, 0.011825450774060234, -0.004284699790616078, 0.0003361927815860629, -0.0025456890324283446, 0.005782947012300474, -0.002321346165445681, -0.0034490130773944605, -0.004668200499594811, -0.005163653618070342, -0.0019870512743211236, -0.0003525240004370666, -0.006701428831613831, -0.010197983441427992, -0.01465193424490853, -0.009324975919689041, -0.010267508687551155, -0.005834502917850385, -0.0037297987316141394, -0.004108080686614843, -0.0022463920815769737, -0.003902246197107117, -0.0005538699546581295, -0.001696406667341168, 4.572673576995507e-05, 0.00034034699576734174, -0.0006338775738824459, 0.0004450529302144457, 0.0007153590872134814, -0.000984334124957028, 0.00063740556228993, 0.0010215397137359212, -0.001482837525774135, 0.0023175273962659807, 0.0008176815333420005, -9.249276176449958e-05, -0.001922044821191281, 0.0017419155889706946, 0.002064243108903503, 0.00183641963393552, 0.005273392312356293, 0.007932831772564755, 0.005849581210019664, 0.0036403666182238665, 0.0022067213839110297, -0.0020100809686855584, -0.002415509214139584, 0.0007154518905476716, 0.00045324988714063534, 0.000241312504457437, -3.289923871816576e-05, 0.002250441328688402, 0.00498944156873744, 0.005776940524529174, 0.003663630086117443, -0.004403523368693335, -0.0038797969666647595, -0.002419359504907804, -0.0002214479308072881, -0.0019203238652808685, 0.0015543688756987871, -0.0003858107543320375, 0.002180990626944092, -0.0004823013964738353, 0.009710907709404913, 0.01059645106949916, -0.007924435737048183, -0.004125192606741144, 0.0013130715598912459, -0.004215190459049471, -0.002321271382240661, -0.0007168236242894171, -0.0014392330703175283, 0.0017390601081646614, -0.0029414673700049105, -0.011144805248796331, 0.011282665083910362, 0.01655809683708506, 0.019493805443479954, 0.01576176679477138, 0.0035243392070461437, -0.0021579223009865083, 0.001090019769352396, 0.0015713955342392819, -0.000784655381038831, -0.002277938417413756, -0.0045496900552391, -0.00762615807955616, -0.021579085161167574, 0.0027630362009093542, 0.014670830563997024, 0.02292982814994651, 0.004204352880037026, -0.0012039916408088211, 0.0020983357557676566, -0.006754574764314123, -0.00783013703687683, 0.0005753214942402149, 0.015341713787469511, -0.004378759402934272, -0.007665617288330869, 0.0010599798125543304, 0.017267024724797787, 0.012189349237231951, 0.0026631408184856443, -0.0045093817104025205, -0.0026808625905841784, -0.002766397329788051, -0.00884595200831633, -0.005821370736920173, 0.007735435561577909, 0.01395719050359748, 0.006508781925511708, 0.005414075049441494, 0.008332518535569662, 0.011996604180592117, 0.005560457970724243, -0.001436185389984478, -0.0012913293324704645, 7.555564391507205e-05, 0.0007000235286939212, -0.0009713606293070383, 0.0030788258337477218, 0.012177514288617729, 0.012419230370776656, 0.003386260666821653, 0.0018722011979022037, -0.00657927623292902, -0.0005625202810801262, -0.0005758011262513857, 0.00034042177275107026, -0.00010332085327470346, 0.00244537268195455, -0.003923058961563034, -0.007635931711837657, 0.004439465741430742, 0.005630972171428335, -0.0015120311745581785, -0.012105379590172743, -0.0009012093414605841, -0.004841432220404632, 0.0019382405491621597, 0.0004389088621324475, 0.0008008600063873861, 0.003610655543193061, -0.008112016613613066, -0.01575680467686496, -0.014342838457999578, -0.006406122230936873, -0.01076308651998897, -0.004948471974219617, -0.013660978145086544, -0.0042701513710500846, 0.002443088568885413, -0.0016038114207089819, 0.0008307238886786759, 0.003269661014042693, -0.002672673486971517, 8.191294402949749e-05, -0.0003225895998965995, 0.004960689896959611, 0.0007740617114200243, 0.002426189075701473, -0.007187381974565363, 0.000565374961856395, -0.001322609113539749, -0.0025440888565490993, -0.0024497069080695036, -0.0006924943994436996, -0.00530561526518749, -0.0035125987202438633, -0.005214442371167355, -0.003288363455696008, -0.005350793717348683, -0.003408011817676503, -0.004325585717571545, -0.0016914374710972487, -0.0054040161232694365, -0.0047753153983678305, -0.0025002423671974133, -0.0031158053654482326, -0.0031202480319465213, -0.0025627077993819313, -0.004315249229805094, -0.0017652720646183242, -0.0049096668976285705, -0.0027157972855370353, -0.0019598058152725693, -0.0015162772715183479, -0.0031774392241972218, -0.003746321697135093, -0.001088967183285522, -0.0021529385129836795, -0.0054658181296379305, -0.005007827283650454, -0.003345643216480357, -0.0018283408163419594, -0.0021767857125815767, -0.003495383421876157, -0.0032615758115243664, 8.191277095768755e-05, -0.0037177272426458094, -0.0015373978815144713, -0.003438409307334065, -0.0013333260601327591, -0.003301928653043363, -0.0035123420096103454, -0.005069627417742501, -0.0025516091493975354, -0.004445059401099122, -0.0001295068563821744, -0.0034022693099421747, -0.003163087435915528, -0.004544445360820119, -0.003808279993794072, -0.003806228893041255, -0.0012327403617127207, -0.0026214653766531426, -0.003154798161726818, -0.0028399625417871053, -0.004082970063630472, -0.0041880092004419585, -0.0016639460015116514, -0.005870594380016684, -0.0017212212307875902, -0.002712672548744294, -0.0013423977039721475, -0.0017490283511385784, -0.004000597716409009, -0.002320613305761848, -0.0021847635352200655, -0.005434697259752683, -0.0031083877541432754, -0.003931752852485609, -0.0037800679502970154, -0.0022009920308983964, -0.0023971121467019573, -0.001968891144059722, -0.0032240940136438693, -0.003085595544000087, -0.004096027780716895, -0.0033374616324425748, -0.004861659796469292, -0.004554111465953206, -0.0016224232894900702, -0.001507940682023695, -0.0037939341025301524, -0.0019509013171983209, -0.0028716056661552717, -0.004821352028696301, -0.0037997749912130063, -0.003695025017606365, -0.004184198180664532, -0.0023356302995980777, -0.0030279304242415398, -0.0044071119564771735, -0.003525011177923008, -0.00634846459165683, -0.0032241347985572, -0.005120099542451127, -0.002855849402727415, -0.004451372374966447, -0.002705506009100831, -0.004148006238638102, -0.004133839755861313, -0.002136185158558294, -0.0026139554382373816, -0.00433186099351061, -0.003911119963969398, -0.0025910608563464205, -0.0029744055075329487, -0.0030691099819260006, -0.0056943245032987045, -0.001855814704186394, -0.002790570155744687, -0.004906568519474647, -0.0045950660204296, -0.002210449354989859, -0.003149050224467095, -0.0028140576481462108, -0.00017508693632266973, -0.0036668887829149274, -0.003013527746863373, -0.0007865917429751892, -0.0018992938753915908, -0.0036316180278793218, -0.0020622698777671136, -0.0019912803575679846, -0.001834460283764822, -0.0029190208518769575, -0.0019750591511617324, -0.0012727852817765587, -0.0037967688890131433, -0.006301737802756793, -0.0029597706919609725, -0.0024000242165825867, -0.002737903303371053, -0.004185771238587872, -0.003533974795350412, -0.0014012363692692004, -0.003439501837568893, -0.005786807375951475, -0.0029188177370635497, -0.003269890698678969, -0.002836158140586193, -0.004897510889099478, -0.0015074303577108101, -0.006183537305134681, -0.005971301482187903, -0.0050898032098093664], [-0.00046881287377034377, -0.0006012488570521584, -0.0016975748931849228, -0.002319523909029811, -0.0011851715515852831, 0.0034947002807709337, 0.000770318435753598, -0.00046988634702610927, -0.0030165138621790844, -0.0031834015834481663, -0.002975546148104324, -0.0028682242930280163, -0.0011473403766697878, 0.0008552389772223708, 0.002976552902830794, 0.0023446768438724597, 0.0022094089392030395, -0.0004138310657425379, -0.00019934303416520551, -0.0008377508392519564, 0.00011222560216801314, -0.0007096976993873364, -0.0012172680985810978, -0.0024600471364718585, -0.0023499751047762803, 0.001269483175347937, 2.90099275977534e-05, -7.495097270628346e-05, -0.0036116396741996213, -0.003220775105097133, -0.0028107894942575855, -0.005855668088937696, -0.0018964854368057789, -0.0006294516205885216, -0.005648112992337829, -0.002818637682547595, -0.0010695711049119657, -0.00017732666170324965, -0.00040987619074679536, 0.0008920752692011823, -0.00043719323000855517, 0.0017373647702156538, -0.0006355925779684825, -0.0018872802836018899, 0.00037574669940438634, 0.0028231284902362442, 0.005651926296340335, 0.001814681491380829, -4.628242148648221e-06, -0.003026632066988034, -0.0001283368261213932, -0.0006337326931851132, 0.00190042932774566, -0.0047107814395485025, -0.0005597831819352727, 0.0012118068583716899, 0.003598651582492019, 0.006224576970866913, 0.00433701775555575, 0.004320915479027055, 