{"0": [[-0.005535542990044161, 0.0030424107353432864, -0.01548182763847263, -0.002985729406995179, -0.006936841397391285, -0.020906047931707066, -0.01998870494110711, 0.007382539470927264, -0.013315538490275862, -0.008218184720077622, -0.01894232003308279, -0.01569032163855905, 0.0002151618266146679, 0.0027552207715700523, 0.0028899369810716446, -0.005894902701329347, -0.006599706449724056, -0.010566267326043181, 0.004391943453595019, -0.001310089687590148, -0.0300072367563749, 0.001207746960761111, -0.0063281666658951295, -9.662534641194191e-05, 0.0012363217930120266, 0.004424160334236931, -0.003921371673339834, -0.010547861346720012, -0.0055304679385199396, -0.007672618961231711, 0.0036698756840590147, -0.012111071640446176, -0.00919018817985045, -0.0003142769248407951, 8.704961524971246e-06, -0.006044689414342062, 0.003904651657532917, 0.0063599646497296955, 0.0020947297241239453, 0.015840586953124087, 0.006325544371652238, 0.010455355359054229, -0.014059136222160911, -0.008998555638061567, -0.008472236031791796, -0.009326604170771344, -0.009499611326549048, 0.00693135752529899, -0.0036022541503953026, -0.006004644443075496, 0.007785815796962391, 0.0054848715822854565, -0.01969753846900989, 0.0010065829514837744, -0.015554001935757013, -0.011123438053440392, -0.01353532476993748, -0.003663228014862462, -0.009547740704263955, 0.006948763553183054, -0.013372922778642786, 0.013471452037422426, 0.014939250470736382, -0.004839975836485636, -0.004283340447040355, 0.007737518127576061, -0.020475839584588686, -0.01010097406615776, -0.006490895969912524, -0.004425606463729894, -0.006273161570106892, 0.0008970029957323895, -0.01387501486444517, 0.008130497666399358, 0.003519128654801279, 0.0005119424120058831, -0.003017701039234095, 0.01851972847935658, -0.023678926680613145, 0.014556224171785663, -0.002130367481568947, -0.013315740661700248, -0.00037121917525968014, 0.0008292325679635697, -0.010125294263376813, -0.0024989507579969298, -0.005500875094112759, 0.007146993141648468, -0.012859937317683463, 0.010245088147926856, -0.03429584348778761, -0.00864774408308688, -0.025763147887006937, -0.02720176525570969, -0.018573497630617674, -0.004974595089236092, -0.0008008234969035175, 0.010356984541751277, -0.010576918703828908, 0.005082766349062828, 0.0005295267235880855, 0.010399631265786196, -0.010596367332496958, -0.013896741438341508, -0.007773775379251944, -0.015292873159747094, -0.024774921469745213, 0.0029900200133830255, -0.01011133567540766, 0.0017065972726956883, -0.011508985352782872, 0.008480234049603231, -0.0032342562153369757, -0.005624322417997766, 0.0016137498728593042, -0.01665268449950163, -0.021261974705646284, -0.015300952960658547, -0.030945994616995147, -0.00820853602540457, -0.011975332430939269, -0.0013709217261464652, -0.01083089108144748, -0.003981420611248505, -0.003486409700573666, 0.01642015588346035, -0.003411980008306099, 0.0077757487568425295, 0.0032976442776621543, -0.012186350257923216, -0.018520134803316296, -0.015390678960762358, -0.010584592409103009, -0.004090077543372114, -0.015010360280664908, -0.00892165677732038, 0.0003986471529588648, 0.011040630813811693, 0.010428504658275321, 0.017785676583546912, 0.002140149024961994, -0.005326970701109799, -0.017080943493849348, -0.017871769515288554, 0.0032706086765566123, -0.0031442974131389227, 0.0015407923161390232, 0.012224612177335111, -0.006544052431973868, -0.016414605066064535, 0.005670620699518591, 0.00996796881219137, 0.0064731114003564755, 0.0016147526381975357, -0.011506138516110688, -0.002219011017061096, -0.009850907985481556, -0.004968069374881557, 0.002351363387492775, -0.000869692206692294, -0.00704146120481499, -0.013787470459069244, 0.020461864812371167, 0.004738148365455468, -0.023436903245901378, -0.0144407646042946, -0.009308204763186802, -0.005761552334040638, 0.00046219299733260923, -0.014204202069080168, 0.001670391676250864, -0.009067288205186893, -0.004312615715032899, 0.01813548402073629, 0.013075143740977832, -0.010181756808927096, 0.008587333828784082, 0.00276762426709698, -0.009892146195283832, -0.010814425949011653, 0.015712049411426204, 0.01440882819270276, 0.001163104165673119, 0.011918608331765257, 0.013266572360902347, 0.0028185208412007446, -0.012701479504155764, -0.007908347871065003, -0.005049395549494232, -0.005321231907832497, -0.0019892248426178717, -0.0016880334294972687, -0.0127353554148969, -0.027211417134422676, -0.008252558214432036, -0.0019698064882519278, -0.008859253402256082, -0.01731247626681268, -0.004716712776086022, -0.0016192269365584559, -0.007281572942454245, -0.01487404639610801, -0.017074794753895492, -0.023985223862237764, -0.006952216148442917, 0.003428635381034475, -0.006970926969268497, -0.011600647314345597, 0.005684657805410613, 0.0006043348430081387, -0.007091716922249848, -0.00758613761813531, -0.002256456057378164, -0.006701512166640263, 0.006243790360762985, -0.012535156734954579, 0.0011974437786934735, 0.0012087891164332153, -0.013590324675296988, -0.005880384315025573, 0.015739913338556795, 0.0157377584432171, 0.030056718681522033, 0.04108884381161195, 0.020362175885095594, -0.016390025071741213, -0.014667609022668516, 0.004217433005337118, -0.015258098720819664, -0.015770882664822943, -0.010901845291783407, -0.0010792189864173485, 0.011824165066742713, 0.010726156006089694, 0.021794613756232463, 0.024004524408804757, -0.00492349154919872, -0.01459906933563997, -0.018292379523621567, -0.037567399395220094, 0.008408914966101919, 0.003626112467074146, -0.010847109721245023, 0.0032430690006467863, 0.024776143746398405, 0.007936467595144549, 0.008478929050078325, 0.010328709971343893, -0.013680624247568059, -0.02374114806869278, -0.0013932682742325247, -0.002682970646715896, -0.012765691611509145, -0.015578378079107563, -0.010742117366524232, 0.009350300425361639, -0.004388937340565332, 0.012940779249158105, -0.005582411524701956, 0.011395682466054003, -0.003354008267212548, -0.0076424740690339684, -0.007879474869268259, -0.02592939486507119, 0.009640367155656856, -0.0024608193620577878, -0.005006455691103807, -0.00824294752638727, -0.022267300870666935, 0.0002081266940972132, -0.021251780480417457, -0.028403977642906874, -0.00975053392061966, -0.028368184839143246, -0.018067618910974474, -0.005868792918414511, 0.01194233163734831, 0.0075506825197284725, -0.006936222323871321, -0.004715686011114955, 0.01440871705292995, 0.013234934232862086, 0.02151589251150807, 0.032491051101679935, 0.002350571999792836, -0.009532284507839113, -0.0033069625208921745, 0.00999418511898966, 0.007836648358118512, -0.015778168425852654, 0.010820072160087374, 0.012288631715442512, -0.004059974937943934, -0.005936544481995204, 0.02675786269507464, -0.004641461146188724, 0.03279774463789901, 0.01334363307014243, 0.0037076890503632844, -0.0042564121616004025, -0.00993177326761166, -0.015430290446125164, 0.006467911691919204, 5.1092168605744415e-06, -0.006659829202045983, 0.006979419568130832, 0.016029429714024705, 0.012782861538089158, 0.0173693211075511, -0.002708785060241249, 0.016380083351777482, -0.003588470404670094, -0.026035307816156504, -0.009110809111848705, -0.01924687542533237, -0.002204541615163212, -0.0006656427600098651, 0.021838872715669064, 0.01594019328730183, 0.016073378579293116, 0.02034738358341504, 0.011492205596723875, 0.0044220246704784055, -0.00288510261147474, -0.009032683238163277, -0.005948541566156648, -0.02621393539134329, 0.0022753099355812645, 0.005301378547919109, 0.01620412251326198, 0.0076834512210017525, 0.018178637416975316, 0.011093383885713445, 0.015176830671649834, 0.0052366270669839884, -0.003480860213079994, -0.014451947437788529, -0.03291503851398093, -0.025017395746490954, -0.032822190003345485, -0.01351894556471063, -0.017650881410846673, 0.012235671013590058, 0.01613920986333137, -0.003027339488800094, -0.0008010115952569907, -0.019584186654188148, -0.032112928777474646, -0.00533323038435456, -0.02140963457895692, -0.03478936412248329, -0.03724640089967277, -0.016622474697803546, -0.015059853576849561, -0.01578466303925248, 0.02686118247430871, 0.0029501855385562605, 0.0013065108085501375, -0.005977160873775391, -0.015732275209638723, 0.0007150432829353907, -0.021390339018212887, -0.02311781415338811, -0.02873308457557077, -0.01235364626891256, 0.013536333458755441, 0.026053616302294677, 0.06617833231214112, 0.02995656962731629, 0.015017948014523889, 0.010753579730494558, 0.010478079204825467, -0.002721406976570072, -0.024408003892987373, -0.040098081004728704, -0.017739579771155815, 0.002377938005646126, 0.012456466766912243, 0.07281276489477971, 0.07371906687103925, 0.053006247902526636, 0.0550825085925755, 0.02429753398155355, 0.014260677139343082, 0.0027112896841396538, -0.0026401388535270114, -0.024072722598781734, -0.011154773076205724, 0.015086744065534756, 0.012479761236729543, 0.055918704893378336, 0.07218979457850351, 0.05512174935470417, 0.07139015981684824, 0.04222320082173553, 0.0314613671713058, -0.004663799969872991, -0.00029015943709629206, 0.001923998036481641, -0.012594425258372328, 0.009524301591121978, -0.003072983507874311, 0.010271097486793588, 0.05872332138309883, 0.060252667863971536, 0.060663448100918, 0.04946450253997886, 0.027306074512170167, 0.027306007844800594, -0.00308570591189353, 0.007564324434530866, -0.0245062349407719, 0.011406265935824236, -0.02178391340600665, -0.02871371541944206, -0.007865949667188824, 0.01521570926949584, 0.020286394038692483, 0.03954779481053964, 0.049574856916321276, 0.026401040467287945, 0.013343086356374014, 0.015029723755912947, -0.002941146540042083, 0.0165673754920825, -0.027389741615846265, -0.02591011723517926, -0.00651353283973706, -0.013266668202419065, 0.001612657356957214, 0.027986800079039472, 0.0572621765847123, -0.0009439713957635199, -0.014333731976895336, 0.007982991290519867, 0.009985062134559455, -0.011363647720652738, 0.00011674542431916072, -0.013668582551870586, -0.023696227341910736, -0.023771159927226452, -0.003946061927770635, -0.008604841627329718, -0.010909409383294775, 0.00025149077018370256, -0.003549638407999855, 0.016157566470004447, 0.0026118790219871327, 0.007348331545320069, -0.025194726344823216, -0.03395874922071491, -0.010437561239258876, -0.025427066659415, -0.009745347665601839, -0.006224519017880077, -0.00947265101472619, -0.008871451356586495, 0.0036598159093134915, 0.008663818630500345, -0.012119303730015386, -0.004705009092694203, -0.033205607374338704, -0.018521598109407376, -0.026919092134250835, -0.019082580482369927, -0.025455885735109998, -0.010060957311540913, 0.01662667631722807, 0.005706559313544988, -0.004214496255592537, 0.015191482654249739, 0.007035607599081584, 0.004900496076637739, 0.0022794900628364456, -0.00681383285665671, -0.0337857138872761, -0.03166225022679889, -0.005263998322938723, -0.012357086986808367, 0.0029771655272797376, -0.013960342628432387, 0.009165381177935389, 0.01703684955464193, 0.021437180143942084, 0.0422023991594334, 0.0018143834259105988, 0.01621263638511323, -0.02962469810283323, -0.0274778553071708, -0.02845812939038662, -0.002125379867305103, -0.0020891640370367687, 0.011172999601459779, 0.017729976264609842, 0.011282869219762392, 0.03348323451055065, 0.06252670698989395, 0.028135858375496817, 0.045405426224081974, -0.029422947646516977, -0.05718667129680903, -0.0343948812437726, -0.009485285962323705, 0.0026114747763229026, 0.007254514330891581, -0.001630607943104427, 0.028395266631779905, 0.038213634973775834, 0.024245420724620072, 0.02224598553426548, -0.001265358625386948, -0.07587928958141087, -0.057830078173660614, -0.03773688317086226, -0.039805167598219296, -0.017245087747133552, 0.007321148659070982, 0.008474108328735339, 0.025062493112119492, 0.02555891006415595, 0.01456279905208298, -0.001869768911899884, -0.011258729624607404, -0.06060987732617801, -0.0837834259394354, -0.037684293337610364, -0.027364971032685356, -0.030626532796130108, 0.004426574172847871, 0.012658404782514817, 0.014406643316628604, 0.0015778608973859042, 0.02041118399377725, 0.018124208373472585, -0.004621502410624132, -0.042898905846267134, -0.07498548221499772, -0.06371066642406761, -0.04422625926788427, -0.03491450357741745, -0.015838520823204062, -0.002147272702021576, 0.001449603637848711, 0.003867288205153465, -0.0006899166341190435, 0.03890259934948612, 0.042534602491669536, -0.0220357843814998, -0.039012163770351514, -0.03902561976907176, -0.04564017496754226, -0.05055160002663738, -0.014349134939929535, -0.009030389674706187, -0.008602261748946483, 0.0015375226233952837, 0.004517365722103572, 0.019189679286721783, 0.05529677137292447, 0.037723354558117934, 0.027339929793195425, 0.002735942230394615, -0.03725167131317207, -0.049136270323608754, -0.009491883493338219, -0.026193634113459104, -0.0008992973148893587, -0.005090092253792353, -0.010259732843218758, 0.000801331011449485, 0.05800605614610375, 0.06526494150057842, 0.03970619592116948, 0.028366215928690795, -0.007307527500674207, -0.06610914042008827, 0.0066713507627978695, 0.01490398767971856, -0.02102153063761045, -0.002148333191001633, 0.03396097134395275, -0.005510960050663205, -0.03143991121192871, 0.02160135840695997, 0.0039616392633830076, 0.031750281184736814, 0.02694459758736551, 0.010936357391374324, 0.004291064041871098, 0.00046736566681922806, -0.02090365363046213, -0.01306851002516352, 0.007914134212752366, -0.025569688879799348, -0.02685760652233148, 0.034639442984957525, 0.003411544194093543, 0.0267084937493744, 0.02044579450735789, 0.015612280328352985, -0.012140410020093792, -0.0030268829780500696, -0.004327296446780647, -0.01747047928670969, -0.0024138603407450566, 0.0027003025543641166, 0.01569460476447864, 0.018908685878250005, 0.008140952059288744, 0.014059853104725167, 0.016387052782197438, 0.022477701479387834, 0.013961137074678458, 0.002127183727761243, 0.0017135502158115738, -0.011169333364335293, -0.011330851688186793, 0.025416122368600937, 0.0035715865492601485, 0.009585840267796424, 0.03056867497518576, 0.021344267765433456, 0.023062597099428123, 0.025471240404144748, 0.0064496151873095035, 0.0031373383243816643, -0.004739143243922361, 0.0035252021704019914, -0.02504258651018929, 0.010953305887169409, -0.007269084836936798, -0.0030648512867558777, 0.014008313154333854, 0.010092256244999934, 0.008042673640901315, 0.006056957403414606, -0.011551360123284903, 0.009558384030501667, -0.0037117084675123975, -0.014393526529692145, -0.0476640593408751, -0.011817755272311848, -0.0318192477275593, -0.0352131631337053, 0.003172495735432143, 0.004179771461954351, 0.018852922838154745, 0.0016650567538132228, -0.011560477108793245, 0.018064260660772886, 0.0072857482539362885, -0.0272672758105613, -0.03769274729745741, -0.009208368540381843, -0.04848131043955831, -0.012038130364924085, 0.03754207458378348, 0.042844804741553534, 0.05094461720171423, 0.049076572583365737, -0.0103925736665742, -0.003834812753752988, -0.005850508466798831, -0.02055751198459591, -0.01192452765336279, 0.0010373117221370528, 0.009874128798151258, 0.03827313041884559, 0.09238981013886628, 0.07479886170169799, 0.06049458923981008, 0.05908343209068285, -0.009688473524423757, 0.014125023105957526, -0.018950338220858093, -0.011954453387506465, -0.005868727920144784, 0.018112232064626546, 0.009612900968523849, 0.04595346620013629, 0.08340402225529756, 0.0744824001466475, 0.07070594405651019, 0.066168116284678, -0.008180866151324994, 0.01644375292499633, -0.013496642978707363, 0.020960375509903376, 0.01587289671310065, 0.022807496228029862, 0.03094907034127056, 0.054827187943330136, 0.06747631260878073, 0.07722411139339178, 0.07184815985602064, 0.04971323322683943, -0.022801907370460686, -8.819975592649134e-05, 0.00744195837025417, 0.013633166484253764, -0.003935191549780882, 0.03971615277015217, 0.031802265827731845, 0.010597792918412358, 0.01711473419009265, 0.018668924685320967, 0.011242357374624205, 0.012327161741291304, -0.003994713157145458, 0.023657859709383677, 0.023610747956094386, 0.02402055253853259, 0.013572506334119796, 0.05740360545538945, 0.04158793015888469, -0.01578502823381353, -0.019784662432159737, -0.016140217580076485, -0.03948966685648295, 0.0037168778110696233], [-0.0007139943912955815, -0.0032872682445365155, 0.00016026680330772893, -0.003321787709947817, -0.0032082419159479686, -0.0031747979315084676, -0.000677400909829589, -0.0010901869052129527, -0.002598735261220599, -0.000902647581307604, 0.00031160114041038346, -0.003087704046121416, -0.0005053953068701732, -0.0005416412867328841, -0.0016152461124123144, 9.087079496897954e-05, -0.001856727673532251, -0.00027640801451896406, -0.0007018988070301373, -0.0032215075278607605, -0.0013062982400289976, -0.0009308182915733412, -0.0017922463646728405, -0.005067140980399759, -0.0031489639334381023, -0.003507331911395028, -0.0005267649102225465, -0.0035400646764793555, -0.0015963489277379828, -0.0013875376935059951, -0.003140599767703015, -0.0023986620802386787, -0.0029631142644835156, -0.0016881655614312168, -0.004540424341459122, -0.0005828907469965126, -0.0028265167919677555, -0.0008856303783032728, -0.0021430550226039305, -0.002563127441971845, -0.0028850848921789306, -0.003878068416178147, -0.0022720384185654983, -0.00168987426725395, -0.003438832300984825, -0.003150640922394054, -0.0009371227870535863, -0.00011617345701599617, -0.0016626299085200377, 0.0008399701580245949, 0.0003808433043006023, -0.0020032654728377123, -0.0023929405317991426, -0.001548425960707159, -0.003173021974490255, -0.0005615031073379067, -0.0004167017968236717, -0.0019260284773160745, -0.0013963947042574221, 0.0009483686603905954, -0.001778239815021062, -0.0016540237525764971, -0.003828009966714749, -0.00356839259458961, -0.0012519356411881128, -0.0028815813357710666, -0.0016204307786748056, 0.0009028392992352315, -0.0034341766931872708, -0.00115673999905199, 0.000388211794334398, -0.0033363608507214456, -0.0029072741464163817, -0.0017478130448209154, -0.0007151063937646841, -0.003554127480629492, -0.0019955921904612726, -0.0027895479380768287, -0.0013419395302515518, -0.0017964503223078443, -0.0019097614906737293, -0.0027042449664739995, -0.002463203685740287, -0.00044122929420305635, -0.004684725633581602, -0.0038399401848182198, 0.0016372740997239366, -0.0012034103318171398, -0.004006990639891226, -0.0012343607630387714, -0.00444912947548859, -0.0005109455296107346, -0.0005592020243369102, -0.0011350770596937798, -0.0008801480985745854, 0.0007136208738002409, -0.0024436574421396336, -0.002263573261724344, -0.002217194738239933, -0.0026136016346636863, -0.0025300063669680337, -0.001671194086956396, -0.002358994572711209, 0.0002453129231827861, -0.0018311824354290305, -0.001420203393504386, -0.0004572558998902153, -0.0011927825028538047, -0.0019156907354125092, -0.0018125356226965969, -0.001316859576580101, 0.00018592389142286155, 0.00116812589518601, -0.0004871203034940457, -0.001124041827957279, -0.0023957230443832534, -0.0027199707928842807, 0.0005328809078762799, 0.000727240704205544, -0.0036082163027266537, -0.0017375794284988008, -0.004752338649065837, -0.0010719044735880451, -0.001787992022279827, -0.00018169828421653713, -0.001676012309969606, -0.0013956564361411888, 0.002559088009212024, -0.002271210462688112, -0.002651450460768301, -0.0017390454582539112, -0.0017706953415008364, -0.003288565668649996, -0.0038637638334238777, -0.00011641542346065129, -0.00037639537941723224, -0.0003676325225286833, -0.0014578409134856879, -0.0014207409748656485, -0.003658836458920729, -0.001317453370823116, -0.0023014831475770396, 0.00023811996468995646, 0.0015374209148772745, -0.0025927512104654085, -0.0022031592360228576, -0.0015912283727661696, -0.0024602727744429706, -0.002501727055610392, 6.0387377450354856e-05, -0.0022818239061731457, -0.0003277746225287881, -0.0017019424940533, -0.00208475249662279, -0.0010308063133939289, 0.0001964109547358553, -0.0021139129931904816, -0.0024508738052633964, -0.0013564643910043848, -0.004484849406263793, 0.0014444524783303774, 0.0007316666252428932, -0.0035959028703246485, -0.0014606359127026726, -0.0011586167942096517, -0.0008472217331252771, -0.0018175404681303232, -0.00179253040652139, -0.0012449099437449927, -0.0015262042648778984, -0.0018119456953375535, -0.0012723812560951513, -0.00049099673786491, 0.0005448775032888951, -0.0011013341923901837, -0.0004597321833022598, -0.0010296596194032843, -0.0007101069972589567, -0.001830543269072747, -0.002562334907086526, -0.0002127137857966069, 0.0013639171715555491, -0.0013932098692226436, 6.17536514894272e-08, -0.0010862717742977882, -0.000996773912529091, -0.0018306413994179393, -0.00038589598357093924, -0.0023207559091879665, -1.1584508848910068e-05, -0.0007889958133673633, -0.001763075905477505, -0.0018163153694067667, -0.001539644529939242, -0.001263963160404499, -0.0008982023127990525, -0.001959288408686804, -0.0014042662391924394, -0.0021570046625050757, -0.0006203640579955259, 0.0017979794271097227, -0.002186571470690199, -0.0037700084157148888, -0.0011389975965944601, 0.0007510607471227998, -0.0032634118301299664, -0.0011951354500148845, 0.0011073014167235346, -0.0008572531515904363, -0.00025967386045122495, -0.00017582418365308725, -0.001551067815167677, -0.0017605665473871062, -0.0017510890135207465, 0.00018861793293126124, 0.0001140555744742378, -0.0014671823719177295, -0.003264921325029679, 0.0008047655094057715, 0.0008477860091707153, -0.0013033603495368844, -0.0032159472899032397, -0.0009886007888455358, -0.0027288051258572018, -0.001150135520199679, -0.00293039555972684, -0.00024018925569214581, -0.0021438730115368333, -0.0014944987352272408, -0.0002132312932341186, -0.0014080788597345874, -0.0007368944561969615, -0.0035906835381264318, -0.002513921820212124, -0.0006912800765085008, -0.0028711327053835157, -0.0006408773181960567, -9.111834439812707e-05, -0.00033782025376618197, -0.0008037571883512698, -0.00016060366312985254, -0.0016794233927953685, -0.0006718138814913085, -0.0043421559552260375, -0.0021870893319848243, -0.0010288517888373773, -0.0023571945594899127, -0.004798016448041818, -0.0033769304909324798, -0.00169482620972157, -0.00017208651545615148, -0.0004993973336445182, -0.0008601737862441526, -0.0007135741755458014, -0.001902971783309232, -0.0006118317353974005, -0.0028533763410700914, -0.00010862051174925484, -0.0031322311152019028, -0.0010853631163857888, -0.001898160888753708, -0.0038114509387670303, -0.0007472008220383912, 0.0008434845455442119, -0.000998259627142401, -0.0011099354447626488, -0.0027356065800683673, -0.005032918880893027, -0.001589596447591877, -0.0013933363552483375, -0.0010951490305797923, -0.0036259459322579572, -0.000615760304948497, -0.0039344370111922145, -0.0015188859367036784, 0.00213958510507096, -0.002218446488454308, -0.0012988633507215205, -0.0014450035844174238, -0.0011737991997938188, -0.001965943496538949, -0.0029857372451739667, -0.0015881264728724123, -0.0008886716136002589, -0.002299435639800545, -0.0020329402467265524, -0.002620592324591609, -0.003256467735429396, -0.004140458992389565, -0.0017215368584047245, -0.0015856263614282386, 0.0011394802962302977, -0.0030975079085810418, -0.0017245366629670157, -0.002272812888769083, -0.0017041083186282505, -0.002161474613562407, -0.0017180013172687183, -0.0003184812126018903, -0.0004652949253576148, -0.0018326039973601536, -0.001435317676960658, 0.0011897578299503683, -0.00110842666412059, -0.0018319854827691568, -0.0017983240587589233, -0.0004641031083905168, 0.0006828931283486596, -0.0030494395792899642, -0.0015473894561406105, -0.0028694552794535245, -0.0005053283773827472, -0.0008251902822389545, -0.0005082256989896151, -0.0016353244083300827, -0.0031807410939139035, -0.0012037513800191712, 0.0007227247919308274, -0.0023894469338615622, -0.0008713940820030416, -0.0019617215207005335, -0.0030841218421324324, -0.0012012695124391502, -0.0012631738060210375, -0.0024870543715813966, -0.0017716098459606515, -0.003116387209434113, -0.001382903757657325, -0.0011668688236774374, -0.002900509984460405, -0.0007621916562313494, 0.0014491084547762554, -0.00114467411392355, -0.0006469130405828007, 3.7856580191407077e-06, -0.0028328683687745835, -0.0011751216416626842, -0.0008996841979104109, -0.0024927783603251627, 0.00040971363029209074, 8.789436359383167e-05, -0.0005329526178105146, -0.0022943918402757277, -0.0012932783994407246, -0.004078082309062422, -0.0007010960568724451, -0.000643325149618558, 0.00024101050929118984, 0.00036858475229899895, 0.0005626116234088004, 0.0018669450141116043, -0.0038101880454912314, -0.0016190616715856432, -0.002444132638942708, -0.0023546220795537254, -0.0015365100224050557, -0.002054469947951384, -0.0009428760379123133, -0.0013676583608467543, -0.0017542453439768038, -0.0009820143336333222, 0.00012901870720903447, 6.366975808903811e-05, -0.0008254634213474774, -0.0016396050667857667, -0.0025045534155998025, -0.0014902365928782715, -0.001067623277048705, -0.0018889554782451211, -0.003921663205759404, -0.000210953105827815, -0.0020202559076543725, -0.0010508329956844108, 0.0009906331961732388, 0.002102789925367659, -0.0038137020647821237, -0.0006262181265093708, 0.0011722253125291257, -0.0017926345015875928, -0.004844443060248554, -0.0033994486897995805, -0.0024025372125537504, -0.000784627453977894, 0.0018208896313813415, -0.0024200171721064406, 0.0003372455091057174, -0.002017412320770239, 0.00023482668763564321, -0.0013803741943132959, 0.00032430636382910254, -0.0018826569873671049, -0.004332343121255158, -0.004610495204262741, -0.002374867308569062, -0.0006822202629548473, -0.0011228381187892008, 0.001942732938325795, -5.216180941535324e-05, -0.002858372501856489, -0.0031412894145876873, -0.0006577264658990698, -0.002696168696795302, 0.0011728531967607158, -0.0034377996290363417, -0.0019512805282520904, -0.002379585108360662, -0.0013370238778419262, -0.0011349288986402474, -0.0019636380981646498, 6.132562612610894e-05, -0.002741335001079956, 0.0002781701527300868, -0.0007260197731637812, -0.0012522870386919946, -0.0017189709115912894, -0.0029272625635448865, -0.0010701649476676327, -0.0011022181604830828, -0.0019577245380314858, -0.0023747963960674616, -0.0009004751011998219, 0.0017042111828248097, 0.0015033329043601781, -0.001755291046322191, -0.0018072774891003405, -0.002563565660189049, -0.0018878955152940194, -0.0013782019504714172, -0.002780951178130207, -0.0024162601444527314, -0.002639526266347511, -0.0022094847332326693, 0.002032035011546303, -0.0008005292897318579, -0.0007543261591343179, -1.0890738431627501e-05, -0.000665855366900534, 0.0012352607204722552, 0.0008446737110665226, -0.0010293601649130559, -0.00017672957139480366, -0.0007269857576961145, -0.0016650723439252015, 0.0006387782205338543, -0.0006956795571193042, 0.0016245555246123798, 0.0005427886632167253, 0.0017121657451240734, 4.198761564321105e-06, 0.002111091683229744, 0.001800745629580865, -0.0015143963585634108, 0.0009718820016884588, 0.0022484833923426904, -0.0010422399355003845, 0.0009592566898014553, 0.0009431599406927588, -0.0011344458262297645, -3.522901820261517e-05, 4.97424370355961e-05, 0.0006766375396362615, 0.002638991475055113, 0.0004382336863348906, 0.0008371479425019636, -0.00035330251539702345, 0.0008511758811044211, 0.000781274549040785, -0.0011540126218735328, 0.0010619965256184246, 0.0004836326009063084, -0.0009686832451913471, -0.0005897216738539832, -0.00013213285675425516, 0.0009254100721358106, 0.0018586029765765568, -0.0007155282611705534, 0.000306264388249114, -0.0026126198488357704, -0.0009466206782494453, -0.0011446261929508393, -5.216053729383174e-05, 0.001190268142747068, 0.0002010840671742498, 0.0001871476995295084, -0.0006332431444885786, -0.0006985314398414387, 8.799166798129413e-05, -0.0011780789747214751, 0.0005248350507712841, -0.0025397200431959846, -0.0021627786510060596, 0.002788608384266331, -0.0018156196584076482, 0.0004366900316170391, -0.003075511345812236, -0.003470252551862412, 0.0012795830835995589, -0.0011060685611888645, -0.000679331537986792, 0.00026934013724939774, -0.0009459743276949581, 0.0006016454790083793, -0.0010253612864425587, -0.0017404696995127614, 0.000547007242206342, 4.171689632013296e-05, 0.0002691451044570658, 7.639931136455711e-05, -0.0016164956072692383, 0.0008377615536012369, -0.00029037339653363315, 0.00018747831884014844, 0.00023712146522040972, -0.0010016582368394058, -0.0018590256597742908, 0.00151755064411908, -0.0007093130557622913, -0.0021029529862433664, -0.002994610961343075, 0.0007751465792418919, -0.0009788707809702554, -0.000581709672734106, -9.893275089981059e-05, -0.00024340418443348884, 0.002253863374843208, 0.0013917998488205622, 0.0013667095915670649, -0.0021633341384203674, 1.8739145822457532e-06, -0.0016819783326559772, 7.646634153257449e-05, -0.0016860989518767005, -0.0013759752342329076, -0.00035327902268907405, 0.0003084776729939609, 0.0010550091338019432, 0.0010708660397148973, 0.0032198636048200832, 0.003245312892060158, -0.0005774500466372605, -0.0007854246573156407, -0.0015608102054504198, -0.0006249015756622005, 0.0004081519252080202, -0.004354755200879573, -0.0016075920223413355, -0.0002590687812910218, -0.0007860580396909573, -0.0019109318161547424, 0.0014039703172303872, 0.0037049343196575027, 0.0018526522893492743, 0.0022175923835332173, -0.00030220357481058023, 0.0019179868193532595, -0.001431678889150053, -0.0018110422871331546, -0.0007409331620607921, -0.0016042044217643076, 3.766000034878353e-05, 0.0005414968032778031, -9.61107853417413e-05, -0.000439330945764632, 0.00023194235489435358, 0.00028922897520647676, -0.00250506289594479, -0.0012501586840661402, -0.0022815985383521243, 0.0010142188126448734, -0.001988170719372433, 0.00036484858061392345, 0.0004968870042579923, 0.0009541567563667488, 0.0014138861701599604, -0.0009306449018948607, 0.0013259305426208093, 0.00012633468898880207, -0.000920945302925834, 0.0008049123927900985, -0.0023798979746223036, -0.0006969222646278938, -0.0023628690725252545, -0.0018367872238836793, -0.0006967425238889647, -0.0016041378469914534, -0.0033199486619601517, -0.0002944917035598512, 0.0016065473853555366, 0.0001298592251521608, 0.000521484650278996, -0.0012847356218296938, -3.167622136187133e-05, -0.002497355346680176, -0.0034349890019218943, -0.0018574582746415619, -0.0010662820853760263, -0.0019740781151581094, -0.00016679275651051309, 0.0009041798219216372, -0.0011682372887560763, -0.0005011926667469078, -0.0024116676560437004, 0.0009192226787807992, 0.0008899861004362649, -0.0014060701880162024, -0.0026836505614680757, -0.0013255810682124636, -0.002067037698364524, -8.514900577261906e-05, -0.000978313947316722, -0.0015981581042550394, -0.001871750783888695, 0.000776755004839305, 0.0003184959608960175, 0.0002397493781208846, 1.4540376381269217e-06, -0.0019372544598439815, -0.00172861967759672, -0.003642158625387498, -0.002411370801361081, -0.0026194079216429827, -0.0026425613679576447, -0.00125502655617092, -0.00420212962680464, -0.0011499183961752337, -0.003054358193601918, -0.0007951624824959544, 8.66636824305681e-05, 0.001648477862417636, -0.00200949738819206, -0.004147098363991908, 0.0003227555397717587, -0.0016606551193510388, 0.0008257991472114165, -0.00035692254996798556, -0.0009626340967710938, -0.0016695937026186475, -0.0009968893150200937, 0.00039246354657851803, -0.0005267273811336398, -0.0018674719842320653, -0.002769724001921955, 0.0010691927343624331, -0.0006082209812669294, 0.0008197711641541264, 0.0007889879085973148, -0.0015273597658912931, -0.0015802843134764969, -0.0002984601049636324, -0.0008607930851835655, -0.00015632284122364947, 0.0007677320793812965, 0.0008336775165318405, -0.0014649214800031285, -0.0006196536973566849, -0.0012499307942284133, -0.0011089575911505793, -0.0019321199954640859, -0.000861752040538488, -0.001337168318644293, -0.00030495977709210854, -0.0007168089064737527, -0.0003204368566872992, -0.0003825455005603404, 0.0005573900918098135, -0.0017216673859198428, -0.001622477241917534, -0.0015055122613398379, -0.0037746265837851813, -0.0019998047389262756, -0.0028504011223821255, -0.0028967334921082377, -0.004532851048263064, -0.003239700410941472, 0.00038068797029332105, 0.0001902619775288857, 0.0009387116891248998, -0.0010055010503819029, -0.0011434046054052726, -0.0004380935071801185, -0.0013330602924906403, -0.0048157429178676825, -0.0015648540531250676, -0.0033628317787002308, -0.0022888886789150836, -0.002935323930735289, -0.0011968159396011655, -0.003934394403891495, -0.002326642214370803, -0.002422328783565864, -0.0022062221924100656, -0.002470911950623411, 0.0011030536825883874, -0.0034940361740480263, -0.003253660117392928, -0.002908871936350309, 5.950057427877549e-05, -0.002145120835630585, -0.001954011837063489, -0.0005375104912730275, -0.0003762555981808467, -1.531603612145914e-05, -0.0009632175819189515, 0.0009671638190750644, -0.0033647099176296502, -0.0035768953952540197, -0.0037904489480534245, -0.0018224670220498645, -0.0023224484699182917, -0.0038621909786763944, 0.0006045691834565886, 0.0002570517127539142, 5.2710778231451634e-05, -0.003965476089144005, -0.0016130740474887154, 0.000681795690804424, -0.0015648113613878712, -0.0011027289461199494, -0.002421009362838689, 6.0809313462305044e-06], [-0.001592911427989838, -0.0027211153122713477, -0.0003137838175561401, -0.002664203975716758, -0.0010033197432144023, 0.001182745044967706, -0.0011989633959827897, 0.0003015291964781075, -0.0023780066533462653, -0.0014368227251599724, -0.0017347332105663493, -0.0014834361361328837, 0.0025818768787836187, 0.0006488316138390797, -0.0030481360221164986, -0.0009670276318871709, -0.0011622520572641063, -0.0008658624472436445, -0.0003248242413061394, 0.0009146974526332823, 0.00024315014482010423, 1.2744468436467865e-05, -0.00019640854668878947, -0.0017391838191695588, -0.0015339398073611, 0.00024521854627265483, 0.0012266312450951963, -0.0001697751471000929, -0.0007310999553794743, -0.002952816232741022, -0.0033279080656972333, -0.0023520456791324452, -0.001769557033683538, -0.0010704666967174031, -0.00021198155446191743, 0.0001910846067209231, -0.0014249875978240456, -0.002471494811854118, -0.0023086328656841625, -0.0019255758846757603, -5.326372555534033e-06, -0.00038063073685436617, -8.721089897148765e-05, -0.002193711381934054, -0.0016460644231493387, -0.0006277291400452249, -0.0008480271851114322, 0.0001044498007008197, 0.0004834134203092908, -0.0005800003589679808, -0.0030012511821292994, -0.00015439407170229417, -0.0007371765420112712, -0.00037926604237278314, -0.00252421517363729, -0.0001608468412183335, -0.0006695659455934575, -0.0017011157075092415, -0.0006660702380070098, 0.0011980054500961084, -0.0023268727875046915, -0.000653327696347252, -0.0015186774563404754, -0.0013560426383554417, -0.0007005502043383, 0.00035172031334820635, 0.0004607398359705512, 0.00019791482102129887, -0.0003345195665419229, -0.00015484908929256844, -0.003815133460943834, 0.00046334602745575057, -0.0004115700896635553, -0.000191157362466376, -0.00021431507056207249, -0.0010026101984100416, -0.0025885295740568, -0.0006605863156911267, -0.0014155494785954273, -0.0012633889367143754, -0.0013844960359783135, -0.0012787904261521476, -0.0027290968491906057, -0.002291094333235673, 0.0004539487516824017, 0.000147564272954245, -0.0011469492240604499, 0.00045164559920250606, -0.0002761216208057247, -0.0016600255074780159, -0.0041185673104854196, -0.0023231766507874245, 0.0012443602341070316, -0.0016809847579674591, -0.0012672408648331595, 0.0004480372797451889, -0.0015726905152359417, 1.653455686230066e-05, -0.0006224668199517425, 0.0005731019745179362, -0.0023311706550897897, -0.0023595992582137976, -0.0015010758884191867, 0.0007188957268464068, 0.001075661321048252, -0.0004604513485090744, -0.001953778596774412, -0.00012861424768973993, 0.0007185955914659336, -0.00024444660442814176, -0.0035433977522997106, -0.0029536940349399886, -0.001669865255368316, 0.001556483661286282, -0.0010562422457760811, 0.0004305240162205573, -0.001584916327589077, -0.0016487506074835928, -0.000454107789664493, 0.0018633926438913337, -0.0005656420034341836, -0.0013822844142966318, 0.00045141643491522835, -0.0016207740159764673, -0.0016174346932929613, -0.001874388913262137, -0.00020611898241131246, -0.0002578973649514555, 0.0015124156285773432, -0.0007548666955478938, -0.0002981435257887287, -0.0017090329762762403, 0.0007513454064131885, 0.0004704011297498159, 9.429310821838842e-05, 0.0011627156738314654, 0.00041896241847117697, -0.0010053926577025132, -0.00027930143540290245, -0.0011704270039839884, -0.001213110817899651, 1.558801408739038e-05, -0.0033318808113048416, -0.0034720262780376355, -0.0006946856665656137, -0.0005855841912404773, -0.002239853239558476, -0.0010500929503595834, 0.0010995121259536286, -0.0012575226249479845, -0.001214612492637375, 0.0016262723089093991, 5.1129945653776705e-05, 0.0017087257036364058, 0.0016012452607578889, -0.002006351403224575, -0.0035909674764421497, -0.0025094313452785947, -0.00035613758417886497, 0.0003935550614787537, -0.0016463996869079294, -0.001786471759145043, -0.0010940694646059301, -0.0010244722102313378, -0.0012647490751667102, -0.002005898614709393, -0.0012028103854250286, -0.0021635188128068315, -0.0010591546319004288, 0.002396251416251579, -0.0011738619032280937, 0.0008550998003724444, -0.0009366871498595644, 0.0001239105008081662, -0.0003919399470411477, -0.001285732915029819, -2.2665553847542875e-05, 0.00046073841302747044, -0.0008012733309947517, -0.0030678887257633188, 4.525544212999595e-05, -0.0006267527762770575, -0.0002263079680605482, -0.0019875074306209472, 0.0004035959026461585, -0.0005104165284291728, -0.0009925298010692383, -0.0015915834533847255, -0.0016979264440189492, -0.0008012579526929514, -0.0037656432464673946, -0.0013463911035956086, -0.0018310155257327688, -0.0018277195698889561, 0.0006091154603410025, -0.0006637939757441505, -0.00023366464937695734, -0.0013728118257791961, 0.00010179937183305078, 0.0014857647737894241, 0.001042786733523369, -0.002029760933777286, -0.00014239828630507992, -0.0020085092500444993, 0.0007933533960947822, -0.0012153355859930981, -0.0004018112390926085, -0.00043767092499556466, 0.0005014394425733646, -0.0015609004634534898, 0.000521397556676436, -0.00018802220719657344, -0.0009737248990997309, 0.0004524709596268366, -0.002748209805268645, -0.0006706299995481216, -0.002362885001311465, -0.0005481022056488416, 0.0025176993955215157, -0.0013298798576023483, -0.0008263113742457497, -0.0005578739620838249, -0.0018989701204008447, -0.002206496571363291, -0.001508682654873769, 0.0005950006450070626, 0.00028571328057839834, -6.444573175351691e-05, -0.0016607945079694655, 0.00032802181033845477, 0.0027333103568734233, -9.74773519263186e-05, -0.0026700887597427385, -0.0013834444313385475, -0.0008366063107337273, 0.0008948001535987189, -0.0008887890723198545, 0.0015045505696978485, -0.000737338231861361, -0.0013610200924353841, 0.0003578546844377733, 5.461028822395545e-05, -0.00040506444279416023, 0.0011581217103986865, -0.0014412187397325365, 0.000727513811374687, -0.0006870360521515922, 0.0009864515978699904, -0.0016991491835974713, -0.0036086790888869152, 0.00011061153428198252, -0.0036350161824475202, -0.0006375813982178828, -0.002994121375125535, 0.0005896235203726221, -0.002781833802174268, 0.00041997810197429413, -0.0009673394126112007, -0.0009160604567772052, -0.0019276038232869733, 0.00103948362684298, -0.00022563795669153992, -0.0008882223009082768, 0.0018990058858915286, 0.0009664613197378017, -0.00152246911037317, -0.00015534737163952706, -0.0010702368695106052, -0.0013621952919489159, 0.0005218771927627188, 0.0011723113944376758, -0.0004626593260000182, -0.0008874950902588034, -0.00018820956912841903, -0.0007870784826003904, -0.0017798267341126903, -0.0013498571953481126, -0.0001811520574581139, 0.0003719915697887821, 0.0005566728988111713, 0.0019522719327934826, -0.0012590775171736537, -0.0018160597880790804, -0.0006778777115372687, -0.0024669401307399197, -0.00014110360809379887, -0.0014067791572351803, -0.0030605079561620754, -0.0014573184186038135, -2.709884616794013e-05, -0.0019157523967501461, -0.000495119152610336, 0.001429947442332585, -0.0018142492567726498, 0.0015641748302757164, -0.0011126496295675117, -0.0009502951039770513, -0.00046699817896154913, 0.0004993859905483574, 0.0006111189283223261, -0.001193723731251344, -0.0012912905156248172, 0.00023971548753589638, 0.0019234750144908675, -0.0036869859813450636, -0.00039064494383096493, -0.0007950590148747257, -0.0021892949502173675, 1.100079753877944e-05, -0.0011677344577350939, -0.0013743792748750797, -0.0005860057055267107, -0.0008265248901331308, -0.003113462479936692, 0.0029672877918412964, -0.0010224070959118402, -0.0004195295962508476, -0.0006927488702391493, 0.00012319746218276184, 0.00023308711646336446, -0.00211452993554378, -0.001551698303917939, 0.0002117255389081136, -0.0003366535507079652, 0.0005066957768435282, 0.0009635674857186614, -0.0024504702005284443, -0.001619172387369765, -0.001257568420720673, -0.0014140917571291453, -0.000650154818287247, -0.0009986514659306915, -0.0008934187553716842, -0.0016921975567296434, -0.0031380085162006654, -0.0008760054986442992, -0.00029446490572332905, 0.0008987142360670723, -4.524773010646799e-05, -0.0008929211824602938, 0.00022480393682630927, -0.0009028285967315337, -0.000973491388829168, 4.415557528850913e-06, -0.002008556424272849, 8.582074497879274e-05, -0.0007818342398838407, -0.0021515715044362516, 0.00016627956941135983, -0.0024422078898016864, -0.0009767323021963174, -0.0001096127629149728, -0.0014241968013608338, 0.0014218005336227508, -0.0007770893401584174, -0.0017575824880405836, -0.001835871847216914, -0.0005901392673605896, -0.0005466372683707291, -0.0009907710162220247, 4.9593586041198985e-05, 0.0011357634235201577, 0.0010743656288931137, 0.0019438053699461849, -0.002353980420682491, 0.00022453654426775297, -0.0007318996108323823, 0.00014130160837968816, -0.001694915367934255, -0.00023100743793231764, 0.0010533206716872962, -0.0011632120158229068, -0.0009300988363116868, -0.0022221002620251827, 0.0009335207481793819, -0.0018523193611568638, -0.0006268950741960117, 0.0015880521094181822, -0.00019290456897558063, -0.0009331344730138086, -0.001077874859604987, 0.00013969480654788574, -0.000989890294299647, -0.001980632631715118, -0.0020127990149494675, -9.893574706618118e-05, -0.0011644173588234625, 0.0018885745808334363, -0.0005909005658363281, 0.0008336570681799448, -0.0012164000171787216, -0.0026367943903376012, -0.0014591179579812516, -0.0017379840432193523, -0.0033015745052568353, -0.0013998503762602792, -0.0007866486013011026, -0.00156386576825788, 9.621181605475264e-05, -0.003936855260396304, -0.002330660542894622, 0.0002809341887899309, 3.1994505222178315e-05, 0.00187240911542501, -4.226318521970536e-05, -0.002161504156443679, 0.00018852191460120863, -0.003177510594609099, -0.001018016368674654, -0.0004040783573899475, -0.0018207435918123707, 0.001336156811473755, 0.0024757636154008615, 0.0014026858769604677, -0.0009203069640599973, -0.0010487867920857842, -0.0010750311174837093, -2.7801422673729188e-05, -0.0010829420019366383, 0.001033758969553929, 0.00010464382972142173, -0.0039328821903079555, 0.0003923526076669159, -0.0019449296430604846, 1.2070143086110917e-05, -0.0017152192131770743, -0.0008358874740357371, 0.00023219140245990628, -0.001358605965999771, 0.0003776565154993493, -0.0001532471319192137, 0.000828820271865799, -0.00022399066352121882, 0.002276412062295101, -0.0007067926064064363, -0.0016704340585783851, 0.00030807844545135407, 0.001181923899752587, 0.000479461903036119, 0.0011561143841777703, 0.00045209993187373255, 0.0010340297136541361, -0.0014806075129643473, 0.0015454541648548272, -0.001003928007425211, -0.0007646643262779109, -0.001575031938505255, -0.002385160498585953, -0.0008879812278857306, -0.0005652923646822366, 0.00035471998661670406, 0.0007447351840770145, 0.00141554041258783, 0.001768362450725911, -0.00020408725450505815, -0.0009406602170841497, 0.0026683716845787315, 0.0019833175855741765, -0.0004960533440232609, -0.000651330204561737, 0.0005806784959469176, 0.0005381882444603711, 0.003912184848612905, 0.0011873434936412585, 0.0019019745538527441, -0.0016097949497606043, 0.0002931285525702466, -0.0005112652909426374, -0.0021796310767489033, -0.001303147424036498, -0.001198362519821282, -0.001323612291051937, 0.0008525629439462633, 0.0011267475714935476, 0.0004071838265848661, -0.0018442835925082423, 0.0010315257753515644, -0.0006377302697052292, -0.0015844201038960834, 0.00137510884716205, -0.00019806040230820805, 0.002463817403823258, 2.212078048750496e-05, -0.00017605904182423505, 0.0022237000366742607, 0.0024832981708305226, -0.0005713397758645195, -0.003685280582079518, 0.0008435963491189699, 0.0027131283462252676, -0.001163973513695039, 0.002703845527086781, -0.0027418473645937163, 0.0007970726089457906, -0.0006728490421878666, 0.0003113222250748466, -0.002832682961272825, -0.0011980591082218406, 0.0012928328607638498, 0.001391988479571844, 0.0008599335011596624, -0.0002844781837063924, 0.00036361270903296735, -0.0010139567214158085, -0.000508154603621816, 0.0006948496652821575, -0.0008924715006873738, 0.0003223094747555211, 0.0020745379280555985, 0.0014687812272849718, 0.0010156467027455424, -0.001202520731182319, 0.0022920252946490383, 0.0006074911042852348, -0.001047346302950905, 0.0002424372190857687, 0.004318523825330867, -0.0020456071842372774, -0.0014663870529976917, -0.0007125692066103627, 0.0009202404784904324, -0.0012190234429193096, 0.001320662218356514, -0.003186065409136038, 0.000272066588691097, -0.0023050162600933336, 0.0020695570261130124, 0.0016919448042229542, 0.00043923017418377876, -0.0008607928808969228, -0.001590725532489345, 0.0009126868403644574, 0.0014035933104890798, 0.0014139623903449523, 0.00044380329654438035, -0.0007446437184905618, -0.0005910336443144165, 0.0008490856461726045, 0.001110898206196025, 0.0011773701751488467, -0.0005903284646925265, -0.0001574642158358294, -0.0023300325194624692, 2.9727057902864905e-05, 0.0028168189899917414, -0.000695858156209928, 0.0007544655942284078, 0.00021816394614487412, -0.0012566208760620768, 0.0011077756161965396, 0.0020219275694248516, -0.0024762611281050327, -0.0015294114593366853, 0.0017641263027175665, 0.0011415157160904077, -0.0012156364842487988, -2.6904584915076926e-05, -0.001346979008308211, 0.0039734481688178955, -0.0001568370645378955, 0.0011305050624091995, -0.0007216514429760798, 0.0002551997870458265, 0.002967716167410677, -0.0006447179750326022, 0.0008221122981390625, -0.002033804516393373, -0.0011271619779054571, -0.00020788257802957684, -0.0007462384211231741, 0.0010261238706469574, 0.00022778054050900693, -0.00019140461192049743, -5.3893214433288936e-05, -0.0006491774804269168, -0.003178409589979204, -0.0015114088422751668, -0.00266245412143873, -0.001083605479992673, 0.00024855331135057286, -0.0027214136695834904, -0.00011051646418760277, -0.0014580534344376145, 0.0009307070946080329, 0.0017234698885062846, -0.001966578453101925, -0.001456760989463513, -0.00046242906321369425, 0.002077195707629764, 0.0008162830861561089, -0.0011247148388243407, -0.0019202766136014497, -0.000579944265813123, -8.781339935808508e-08, 0.0021433826975638544, -0.0013855920348081281, -0.0010494450426732536, 0.0011973535009011911, -0.002648177578365632, 0.0007060152726849467, -0.00025192190697432876, 0.000732374213874043, 0.0021272182149564907, -0.004190888822863203, -0.0001684067323674449, 8.009548512013998e-05, -0.0004428828375014957, -0.0038720090764758973, 0.00037222079364144963, -6.063589954863888e-05, 0.0018678885098735581, 0.0013824058655027502, -0.002004940840481798, -0.0008468923814882267, 0.00031470892779038675, 0.00019645822113255497, 0.0009774248203640507, -0.002351059696337726, -0.0016830277904999118, -0.0005398348462050475, 0.0022666634638552896, -0.0020085364999595243, -0.0019085305369178627, 0.00012013785083101512, -0.002111312659405709, 0.000103505323356522, -2.712339909455843e-05, -7.690056376789525e-05, -0.0002233345974339113, 6.319488113102932e-07, -0.0008599222964827904, 0.00029792144047333325, -0.0013614981065171762, -0.003722513435780919, -0.0005612716362696246, 0.0003731052165469111, -0.0024745523323452304, -0.0023172265018128026, 0.0006448080062630776, 0.0026580204943224828, 0.00029227870964343287, -0.0021606173958210128, 0.0013884744315626754, -0.0016413623980320023, -0.003679214606630742, 0.00017557343468704067, -0.003091933293865141, 0.001238818344600586, -0.0006556071169045648, -0.00253976091914368, -0.0009261572762122426, 0.0006492104882408983, 0.0004649305200613998, -6.25009188716718e-05, -0.0009566922373883816, -0.0002703835421998764, -0.003516085092126921, -0.00106901722465755, 0.0005819120229154379, -0.0018367165770614353, -0.0026069699576893386, 0.001059229240714713, -0.001833381732692081, -7.279486452007004e-06, -0.0019890416406818947, -0.001120027790850321, 0.0011711719531964473, -2.164019923357227e-08, -0.0010465437227880753, 0.0021210288394431717, 0.0006700565665951957, 0.0007509163569491467, -0.002466528095046722, -0.0009408329629067955, -0.0021156649586493853, 0.0011277813214058236, 0.0006057520249156435, 0.0005299002710325048, -0.0013870087219688947, -0.001338111538914579, -0.001358976586096416, -0.0015141923961412935, 0.0009006412808104907, 0.001328516106561031, -0.002878434708337383, 0.0009050030406460886, -0.0007496240744097468, 0.0006756115375264674, 0.0005349502732311518, -0.0025166574357042473, -0.0008812770223043841, -1.855964255270078e-05, -2.1434628133205743e-05, -0.001586763482022332, 0.0005188814368588613, -0.0028013349351387737, -0.002891849782150282, -0.0006316528402689977, -0.0010659523216312934, 0.0013173987308891472, -0.0009513004194423735, -0.0003559772002010553, 0.00048817267085653193, -2.548053054408221e-05, -0.003435302520188958, -0.0019014590969821667, -0.0015625234512857452, -0.0009368676575621869, 0.0008054586643563042, -0.000769339559528304, -0.003871106381656666, -1.0881701475226038e-05, -0.0021309232924094446, 0.0002687614925674729, 0.0022752192937043826, -5.905321454129298e-05, -0.0005895641920396243, -0.00044109058385187797, -0.0009935469872766757, -0.004482475461696663], [0.00023899375608780617, -0.002393696910253582, -8.528746153388515e-05, 0.0020357993164264406, -2.801794203637944e-05, -0.0016646278301860808, -0.0015114834001557704, 0.0001291892597294246, -0.0009455485012083595, -0.0009121944071680004, 0.0010773251809018053, 0.0005690410089282912, -0.001076072298501126, 0.0001835976276116544, 0.00027617130748735933, 0.0003380417538799083, -0.002035145897323379, -0.0005339371710667966, -0.00022919158202748172, -0.001692427522867931, -5.6158802071363855e-05, 0.0008076311317528712, 0.0005158394024523338, 0.0016134008892311215, -0.0010386525274279788, -0.0019537696970493615, -0.0002167940616540301, 0.0008627829089615049, 0.0009359694187551052, 0.0005170676507428141, -0.0009059984457173341, 0.0003331356845234546, 0.0017226974284399127, -0.0034702979292522617, 0.0016854281149766164, -0.0007758399610721837, -0.0034318275064338186, -0.002696081212722344, 0.001560079667494305, 0.0022590775551374876, 9.757797828692919e-05, -0.00029365748492611186, 0.0006228215235135389, -0.00122133438334332, -0.0027603669511461594, -0.0010368504404847068, -0.0020627586823103623, -0.00037209282781238383, 0.0007129981115713182, -0.0007822530876821745, -0.0019222394140891992, -0.00012629891695885062, -0.0013857152985394293, 0.004188519683302733, -0.0021580145113239356, -0.0011432716127456385, -0.00013402613436006315, -0.0013822593182636672, 4.8429418795783554e-05, -0.0009594950807279585, 0.002493268548520937, 0.00021931895239165556, 0.0004815187067483947, -0.00035392631248670986, -0.0006604558736535512, -0.0015824011597994445, -0.0013191248446014195, -8.383086646159602e-05, -0.0011953622577350659, -0.0020203392959751874, 0.0005735549844190918, 4.387162807256054e-05, -0.0021925890220753285, -0.0013818383133583543, -0.0010707212319345254, 0.0018075015141921973, -2.0659058661273714e-05, -0.0006068051738455189, -0.002552509592188801, -0.0011337776795698731, -0.001599088919041319, 0.002412275507557002, -0.002997254988491399, -0.00012241165585046595, -0.002414448759329832, -0.0019503432913430994, -0.0005337671511565845, -0.0006800139717623351, -0.0014627694199744867, -0.0012363098760452113, -0.004079524012717564, 0.00038315181973702715, -0.00056976415942351, 0.0008970920553004127, -0.0012599048476032819, 0.0024650104444193, 0.001485362814231615, -0.0017255093890737362, -0.00042293482860659775, -0.0005873513171026643, -0.001536405540082299, -0.0013022735301591243, 0.0013936549512405215, 0.0006441734807465614, -0.0031127229151849322, 0.0025859954244380557, -0.0007506784094591301, 0.001277133786117357, -0.0019413295674037346, -0.0011628266293960997, 5.5118563837205966e-05, -0.002220125636764492, 0.0017927816994428131, 0.0004339875958656644, -0.0005606697184149098, 0.00048826191581705824, -0.002273296426256345, 0.0024353013778491976, 0.0024744851998005153, -0.0008850488436864226, 0.0006546376077540799, -0.0006423912695894688, -0.000588549642744395, -0.0003109203331379421, -0.0003949667137866647, 0.0005704597291963118, -0.0014170485183306253, -0.0018051957861641326, -0.002655650237122461, -0.00020564913481011784, -7.897061952061687e-05, 0.0005625472153063729, 0.0003279553253800856, -0.0003936023392189784, 0.0010749822268229755, 0.0005277198585283778, 0.0004864433096973736, -0.0002155442184262041, -0.0017426034257476035, 0.0003599016537263823, -0.00022572781385677765, 0.00034695920598049355, 0.001216538684479919, 0.0011827218083140148, -0.0005536727075316214, -0.0018852581492133714, 0.0003894430789417324, 0.0009485831055490033, 0.0014482685837649317, -0.00016061208572313017, 0.0010240655325442732, -0.0012608215572761413, -0.0015953037067986183, 0.0014306007879840324, 0.0020037949854017243, -0.00011298321624860615, -1.049441801311817e-05, -0.0005992549548735377, -0.0007675293804043535, -0.0003600462094798915, 0.0009696171025482943, 0.001411417399863546, -0.002460381762398195, -0.0030737325557833014, 0.00017666328479991843, 0.0002300898757766849, 0.0030114880837035915, -0.0007851734066829972, 0.00014909164828112018, -0.0005723041431779604, 0.00029127335173617305, 0.000909123064729567, -0.0001454615758828737, 0.00031511532179087827, -0.0006841803267643859, -0.0004316810058482085, 0.00019604899140453742, -0.0022322392635021533, 0.0008423151153139748, -0.0022570859427667326, 0.0015077973489885192, -0.0016582441907172828, -0.0009034348360513207, 0.0013293079844572037, -0.002044991028638592, -0.00048304318148658564, 0.0003978836198320443, 0.0011756977510593103, 0.0008794561714812341, 0.0006973873555981137, 0.001040103786990213, 0.0009452249912190008, -0.0020410301638753114, 0.0005639114180804567, -0.00024049299068314934, 0.0005101138482624045, 0.0016246359122273192, 0.0033649223319105535, 0.0010293473094393892, -0.001043188926342369, 0.0006438081404334673, 0.00017388832482512808, 0.001252234604537868, -0.0005496416602221289, -0.0005247433995903791, 0.0023169624617142334, 0.000999061296114064, -0.0010299928404269236, 0.0022848385055367353, -0.0004157910157345237, -0.0006002254026264771, -0.0001548790274136119, 0.001331390565617593, -0.0015381671129503119, 0.0006668310306572168, 0.00170353704106138, 0.0008018203176884462, -0.00032912709645032166, 0.0005413079456687716, 0.00035612729266382425, 0.0007444323485394932, 0.0006229449922728954, -0.0005196045079361013, -0.0005957067567777595, -0.0020398749057418323, -0.003221170888825142, 1.3413571273516277e-05, -0.0010785453931514261, -7.481537257325973e-05, 0.002539336209299868, -0.0006934058383445034, 0.00021572068289613079, 0.00034581413071137007, -0.0019848980164903617, 0.003482130437484287, 0.0006259296203925672, -0.0011737015694624684, 0.000538439285443131, 0.0017307987694147524, 0.002075388092117529, 0.00030368018242452456, 0.0031583677026268443, -0.0016092036199629029, 0.00203864598087917, -0.00044267383716360654, 0.00011852941311640282, 0.000121989732491108, 8.948944030781725e-05, 0.0005231762313020538, 0.0018532933349737332, -0.0013430361600647155, -0.0014325151105210642, -0.0001850506323435848, -0.0007420077809371541, 0.0012041502299667138, -6.255709864246276e-05, 0.00027869821105235525, 0.0007295020275494364, 0.0003284372949263054, 0.0008710196241559475, -0.001398340481612326, -0.0017207162387089738, 0.0003893070355367075, -5.1394782169901205e-05, 0.0015048900538218318, 8.885165969141271e-05, 0.0006961142617451903, 0.0008127920620968215, 0.00029720685445309736, -0.00011255110315604196, -0.0007582409834970567, 0.000545872173396345, -0.0038044222041737352, -0.000552345024503845, 0.0003922781856148227, 0.0007622541357625177, 0.002476611598563828, 0.0027778201776207704, 0.001208217377743161, -0.000718309414184247, -0.0015958065647020123, -0.0011433622594511793, -0.0009219817299639668, -0.00011807842955244814, -0.0008637507208788162, -0.000842976047208618, 0.0002902157466504826, -0.0013151972073582048, -0.0016390647246049233, -0.0012384669959679608, -0.0003430153453090789, 0.00032310686099616047, -0.0007626009712665525, 0.0005210790357365463, -0.0024662202766426358, -0.0006193285091627734, 0.00020283068321189904, 0.0026178358883119745, 0.0006935573180342388, 0.000597109036333816, 0.00027481353644570345, 0.0013640252498572818, 0.0016472946599143871, 0.0008713287167191865, 0.0022142346616773755, -0.0005160101468824908, 0.0026783949243311743, 0.0007741289315669924, 0.002456645601667395, 0.0001557540402386752, -0.001283988595555931, -3.484407441310714e-07, -0.00043046228206339933, 0.0005964807576040885, 0.0004302105842317841, -0.0025279350532783473, -0.002175373678369393, 0.0018671430241552355, -0.00035975167396457567, 0.0018899095739134694, -0.001193011931826328, 0.0026585088377424986, 0.0005306089735116489, -0.00016070006454272344, 0.0028057595423861266, -0.0023177105439164234, -0.0028659939525761797, 0.0006144775453582042, 0.00251967310307319, -0.0005538221920424676, 0.0029340877872993036, 0.0027684036369352255, -0.001269563993861837, 0.0015818770103996278, -0.0002908142596949994, 0.0014349053551894768, 0.001964796535067353, 0.0008254004315090832, 0.0011812225798606298, 1.6785907123110534e-05, -2.7711404661086953e-05, 0.0012360904037060597, 0.0009405087291725579, -0.0010108374025207072, -0.00021634895340601434, 0.0012626614850236202, -0.0011138112896487444, 0.0008595790033871636, -0.0007531662855228321, 0.00041692606980438414, 0.0021128523408250072, -0.0010333564887148809, 0.002189753310886427, -0.0009815092652044695, 0.0032075059870258315, -0.000503523155977438, 0.0007996214316747984, 1.03171073483594e-05, 0.0028201935150055316, 0.0029675737210425016, 0.0015576395762877402, -0.004685131102840953, 0.00010183313360335027, -0.00090105416934352, 0.0016047291579593377, 0.0024036772338670884, 0.0013508487705272245, 0.00200696774554349, 0.0009874645943063558, -0.0006031323488512703, 0.0002853201873037236, 0.0006242191653286161, 0.001281518509073998, 0.0024315507709479238, -0.00335488226930758, 0.00036773497031453866, 0.0012372898158088006, -0.0020742155550727815, 0.0010238026062986743, 0.00027534283673673695, 0.0005735999837178007, 0.0007608836952675435, 0.0014275550066425208, -0.0007382431426986029, -0.000349902829968449, -0.0012950028051941292, -0.001648853172453843, 0.002319886997721165, -0.0012089312167290068, 0.000843843292332381, -0.00024638296104998136, 0.0031112442448247186, -0.002129129363621993, 0.00013813337288122714, 0.0003924283663997859, -0.0007997827165273061, -0.0006333183249019925, -0.0011876531597590065, -0.0013035794533921205, -0.000367351731731127, 0.00010151484570677848, 0.000364846040123703, -0.00041915516858037876, 0.002535973510247749, -0.001935710597937438, 5.95983659637941e-05, -0.0010523604502297782, -0.0002126482596475137, -0.0013680472396376039, -0.0003677899237607842, 0.0011661868863669558, 0.00033557189449753957, 0.000576072533819004, 0.00031281838216043825, 0.0024318030106069235, 0.0006682827019902678, -0.0009226737842231821, -0.0005125521027942908, 0.002120920758408596, -0.0009565611687629871, 0.0015519380903430636, 5.644062324902292e-05, -0.0005072463992867388, 0.0003615514480277036, -0.000703244914704399, 0.00042265001581225873, -0.0016604506512858824, 0.002608418020111482, 0.0011821209321403508, -0.003087583693451057, 0.0006141219763214126, 3.577748029492836e-05, -0.00041199335924160476, -0.00011882780176696615, 0.0007267659278141419, -0.0007350193641331709, 0.0018988190091862346, 0.0020665828270041583, -0.0008723749676131823, 0.0003104335358597454, 0.0009955293152573935, 0.00022623457663061236, 0.0032507768237863793, 0.0015091128036637186, 0.0008903823774986695, -0.0004599512845501034, 0.00037273377524904344, 2.4589412754464387e-05, 0.0001608522114506325, -0.00017544381004102407, 3.9180136871244835e-05, 0.000594830260060854, -0.0015111881190166053, -0.0001528031716567375, -0.00021011781110156526, -0.0005667969807325516, 0.0009430941041040671, -7.001514509366979e-05, 0.0015079744625381118, 0.0011489076559450958, 0.00020902591798372923, 0.0003240144176018254, 0.0004958013384300467, -0.0031184498570162623, -0.002114083586266974, -0.0011692417539418195, -0.0012137196043583043, 0.00023287032509903914, 0.002029879653254916, 0.0013269654577265002, -0.0017100477414426737, -0.0025822915713392455, -0.0019781838730647864, 0.0014979397055748217, -0.0018235194463492785, -0.0008166672069201023, -5.6120166991572674e-05, -0.002959850406850167, -0.00017304630128711027, 0.0017449231099986016, -0.002136722098486442, -0.0008861376896047306, -0.0004448597896209302, -0.0004190512342594332, 0.0006738502318220579, -0.0015320133875820715, -1.2028327867964561e-05, 0.001369811924321727, 5.085509541366029e-05, -0.0012707656818481984, 3.0106476766396978e-05, -0.0009822221856479515, 3.058602764051686e-05, -0.0014916210785684812, -0.0010997303597676004, 0.001112534439448529, 0.00033789025692100984, -0.0028201756447363982, 0.0002563146757994265, 0.0011527864976988717, 0.002945669319835233, 0.0018104331135191185, -0.000845513584598392, 0.000672035466825841, 0.0014572388700457262, -0.00228014444038012, 0.0008178631023518858, -0.0007345836235452124, -8.672336701537494e-05, -0.0007296447770962708, -0.0011409437153370716, 0.00028261669906921464, -0.001427138810246056, 0.00021401922562077364, 9.822363151040972e-05, -0.001911371178492032, -0.00023458689915025694, 0.0035936597788348377, -0.0003360161058155544, 0.0019375241699210208, -0.0004885608647297361, -0.00021072081608631318, -0.001166462849491739, 0.0019311813605183991, 0.0006259589691049711, -0.0003889186369720505, -0.0017535092712272487, 0.0029056789126557, -0.0007065675736409417, 0.0008474891048498776, -0.004078650341981651, 0.0006018015224814964, -0.0023550475536163753, 0.0006142514841030935, 0.0011315061690754004, -0.0004579042184390798, -0.0022238206530233347, 0.0019542601835623266, -0.00046784605276195643, -0.00011957604069949118, -0.001184318316530001, -0.003737377045547675, -0.001468513310530856, 0.0025169080944061157, 0.00020855696436072906, -0.0006680701042802957, -0.0005453846856500301, 0.0015980494611313463, 0.0001382209937538742, -0.00016305861005145575, -0.0015342983086497229, 0.002094830593579189, -0.000575585242211762, 0.0033839067384953065, -0.0015930086424659094, 0.0012805211506885926, -0.0013797674170234941, -0.00039006979757966035, 0.0009442483859697278, 0.0013727243797949482, -4.5630001699961246e-05, -0.0009352720413647789, -0.0003496512944367198, 0.0014217250151875337, -0.0004309024543696153, -0.001154478185672251, -0.0004733123615127149, -0.0012256699557565444, -0.00021517190380959984, -0.0010147225833077383, -0.0012160527832089235, 0.0007095665417749444, 0.00028703253399874914, 0.0003790584676277345, 0.000663294026600881, 0.0017794221283530733, 0.000994339653124694, 0.0006640125409542059, 0.0012273846229532465, 0.001014369021499642, 0.00029807233992601824, 0.000726728751810314, -0.0006956042447495644, 0.00019994368043704228, 0.0014962270602183578, 0.00048528008976513493, 0.0016597791350151305, -0.0006965747357428213, -0.00031537319325757344, 0.0027299590494315224, 0.0005020883848098389, -0.0008523264796680338, -0.0004944578133346307, -0.0005238746599844071, 0.0005022298453536925, -0.001590507654989505, 0.002038318919628693, 0.0010309679502494469, -0.0024590981546336837, 0.0010441809545981718, 4.041556621130187e-05, -0.0005842189473655713, -0.0017476241908706695, -0.00023044646908841374, 0.0020504531008758535, -0.0009310330535571342, -0.0009415911762919737, -0.0009276183069015823, 0.0007666160802852374, 0.00016491872660685415, 0.0019150150750304336, 0.0032768076054359636, 0.0007531198370469761, 0.00011723621485543099, -0.0011576926541548248, 0.000630567496539614, 0.001056713277448238, 0.00018763538123176926, 0.0013859001034749654, 0.0006255538927450782, -0.0006660777718915658, -0.0012205778287197628, -0.002073368013306271, -0.0002261428865934336, -0.0012949309011786756, -0.001604470106842276, 0.0007152520845490482, 0.0005303557242003708, 0.0018521067005493354, -0.00011121124300728701, -0.0019247075350554833, 0.0004994957985324252, -0.0021996867847825854, 0.001316598687317879, -0.0010181591360676353, 0.0018557338972296316, -0.0010953041163369224, -0.0003536352323102383, -0.00026435379847806036, 0.0003039577655723657, -0.00043839810036360284, -0.00010450906022393201, 3.288669695475781e-05, -0.0017882686627956695, -0.0017483419559460403, 0.0013048606775871436, 0.0015625814536892706, 0.0018948360480387013, -0.0001673996026738441, 0.0016361477890766082, 0.00046848864089613193, -0.0007244000652337334, -0.00036969657077333314, 0.0010969388440775722, 0.0012477762742852505, -0.000525762638811754, 0.0008806516217481223, -0.0018733812181808693, 0.00018789549374973057, -0.00206706750799924, -0.0006019097316126392, 0.00033900986162599904, -0.00046749430663229393, -0.002183144635373671, -0.0009422972367418945, 0.0005079596165026036, -0.002663793102664079, 0.0009727716469543195, 0.0016873748228368266, 0.0007619784139452462, 0.0006192576822901467, 5.317164531866058e-05, -0.0008753458471748556, -0.0006240270209667687, -0.0003182193581894069, 0.001327447772155329, -0.0014512656069115917, 0.0005806838164680041, -0.0010442119583718957, 0.0007137348287162274, -0.0002681970780160191, 0.001847614793920375, 0.00022343382258957213, 0.0012643579654374366, 0.00022642823206951493, 0.0008384227089509683, -0.00024051207036075692, 0.001042427592015111, -0.0015449813641105197, -0.0021101979751476023, 0.0008134986594167374, -0.0004434233855886167, -0.0012568514936693402, -0.0004930638458047275, -0.000878596089615384, -0.00170631670845875, -0.00011352581054380458, 0.0019799570778542253, -0.0001838020187259208, -0.001563601506355584, 0.00016795536115375516, -0.0022426522307076044, -0.0006929347160117405, -0.001062677737599882, 0.000744480121759066, -0.0004612392962262521, -0.0017804530263139757, -0.0021693092899954186, -7.222830884038777e-05, -0.001999410722524063, -0.0028834813464092743, -0.00042781399323243383, -0.0006486857703740555, -0.0015379160596148973, -0.000610468120034508, -0.001568365385249913, 0.001274916117334081, -0.00012103709612704153, 7.603597703863057e-05, -0.0017822146890574566], [-0.00037366506290604877, 0.003102472477019804, 0.009165747847213931, 0.0004882157598775097, 0.004818826661644191, 0.008005667071595274, 0.004692224443894517, -0.0057216872326286295, 0.003731559576939143, 0.0011295900174887164, 0.011296214666887527, 0.00036162205231505667, 0.005541490521038613, 0.0017167593412456977, 0.0014433066313283907, 0.0042972877369831936, 5.128760510234753e-05, 0.012904719741619473, 0.0019309613318286376, 0.005149860795619499, 0.006579598453421147, -0.003956949615494675, 0.0005937241492719368, 0.00017558082513824522, 0.000741438070823747, -4.979685734871997e-06, 0.0008942137393960492, 0.006350297781880922, 0.002918070760862059, 0.009607436203806378, -0.0008870866344445373, 0.004695233063160555, -0.00254309507022359, -0.00046486637437526915, -0.002228229166021567, -0.003957475997530939, 0.0007019693817598395, -0.0005836547103727644, -0.003506171400938734, -0.0013909605701834767, 0.00031014165628797443, 0.002670880183556411, 0.008233253424876848, 0.0016565137129196969, 0.00016676857452678625, 0.0008819359391839844, 0.009215311894252188, -0.005125000511138504, 0.008730842106364099, 0.003879124472783047, -0.006444068111916569, -0.001455693367672305, 0.004678385361194853, 0.0020932986950084236, 0.0037196079629497236, 0.010537659074835826, 0.0058666323553159825, 0.0037284455606862677, 0.002668845151236289, -0.0017165435032722878, 0.01097865334031858, -0.0050172545777495275, -0.012154216045568801, 0.0037083212407381405, 0.0010564452786030038, 0.0020811110320155296, 0.009229526866396566, 0.009914209225372742, 0.0062652893840479465, 0.005092202528141908, 0.0007296049801006018, 0.0019837153558235803, 0.00013947426551246537, 0.002146388117251386, -0.010913710773333522, 0.0017024810614621147, -0.0016344005490774541, -0.0036629439837448682, 0.009016341644662989, 0.002857771667710843, 0.010236838242162243, 0.0001500919347219963, 0.00894719135414882, -0.0026308259873503025, 0.0036984539832019304, 0.0010004675229591479, -0.0012387737697871423, -0.002727146284882547, 0.0012392812429878504, 0.0034921725973985898, 0.008799443140706336, 0.007187833774007768, 0.017078555955420387, 0.015376642344317274, 0.016911325555864058, 0.004549072452018698, -0.003666316352283653, -0.006494162631988065, -0.00018088217928342176, -0.004672285784119445, -0.003374461668438076, -0.008013817843474375, -0.003276261688623185, 0.008724304433536178, 0.009535610574138202, 0.006894149716025128, 0.012517074661124733, -8.733720170912303e-05, 0.005305332442001357, -0.0025140214833377765, 0.010694802348762604, -0.007747969403438566, 0.0040707746997119066, 0.0011046151257675238, 0.005803143335033917, 0.0128756485439509, 0.009159719348146468, 0.00756628403791354, 0.010829921909570446, 0.009905187833237341, 0.0011972153986831266, 0.002361894117258731, 0.001508289038999723, -0.002193314472233773, -0.007006591327928511, -0.007790131180859564, -0.004210187164547454, -0.0008937204332672398, 0.003913287894694396, 0.012237759262841525, 0.001018951278999721, 0.006046321201367089, 0.005389126380127389, 0.004095321583172886, 0.0024547576949480758, -0.000302139675650201, -0.003698306118145489, 0.00013227245111492142, 0.0012333585213374551, -4.212502824250914e-05, -0.003361928596313537, 0.0033599111741869623, 0.011155831978442854, 0.013772145149269565, -0.004264264818339483, 0.002963165649271797, 0.001740363977396333, -0.004270884013155086, 0.0034865472035162173, 0.0034321779099863122, -0.008184660766569018, -0.00393801807340284, 0.00021468537445070378, 0.007576797843915243, 0.00486255022937107, -0.0035523367608173077, 0.007914539207282432, 0.004883786213032327, -0.003544808111546532, -0.002509974595543496, 0.00034570515526927245, 0.0015795612664108072, -0.0020861559348150103, 0.006839109617917443, 0.0069285775485496215, 0.006396555456753274, 0.0063302917055208996, 0.01214796729716553, 0.003612964766040642, 0.0008944567098784161, 0.006846862280733296, 0.0061714933756877016, 0.014098100344142963, 0.006576610910842894, -0.0014772666640706202, 0.0072105318926504085, 0.0007189039991691683, -0.00014066889599572633, 0.0015359271363816662, -0.0007664939340081506, 0.0013268396965532764, 0.0025043674283314965, 0.001384076951608155, 0.0010943129014376683, -0.0065161907953634616, -0.008687909984151379, -0.00635938706252117, -0.005081847191879623, 0.002099697075391402, 0.007866606336126583, 0.008344164042606789, 0.004095980142516363, 0.009868290658952648, 0.009384292535379528, 0.008703997947521205, -0.00415792947442883, 0.0022295056326984966, 0.004219542574674205, -0.009636548381653297, -0.0009199423908996722, 0.01096638484968899, 0.013028386952375829, 0.00766350497271933, 0.012318495429304145, 0.008729646511835621, -0.0030264442904166656, 0.0022758014775716403, 0.006970333604338066, -0.0002753871719301186, -0.009192540824837094, 0.0007742264885191876, 0.004769574494983379, 0.003258543306650341, 0.013493220050282348, 0.005789619447436414, 0.003036279511886445, -0.0025885055190927354, 0.0010344082725164453, 0.006690878911169911, 0.005669764977295634, -0.010788457667491268, -0.007310247422495413, -0.004608280876660351, -0.007052289161233022, -0.0013143212822129913, -0.0006659711183895371, -0.003584014104696392, -0.0037479770707319693, 0.011979196636440145, 0.016042128229358476, 0.0074103412723979765, 0.0050340198918114466, -0.004574271926430432, -0.0065598713365176056, -0.010623476019772024, -0.012073589026034573, 0.0005826071752800335, 0.014812749289840573, 0.008765788639710375, 0.006486081349582024, -0.0008396528000335005, -0.00025558733301574664, -7.317352461879963e-05, -0.009765291470229179, -0.008181917625391834, -0.011515903455494803, -0.012924938848190157, -0.006829401423809177, 0.00825240643190726, 0.008627185424392125, 0.0014104523669362054, 0.005306781172429521, -0.0004386633635292645, 0.0037797838226541107, 0.004412675606686578, 0.0017737273583829578, 0.0014988858330073217, 0.0002590839000013078, 0.01170907528372494, -0.005609119502041489, -0.007062275837275591, 0.002248482561466243, 0.005779012804784839, 0.010216528390915802, 0.0014358495836232555, 0.007480978103582748, 0.0003101818484857024, -0.0035376274744597746, -0.002384127605868757, -0.008958109891290866, -0.004801543407328526, -0.0022321046383021216, -0.0009320525978953698, 0.012534350562619367, 0.009280836618418394, 0.006822741303995797, -0.0018384052497919631, -0.00021599250081372472, 0.0014233524154870884, 0.0057553042387401354, 0.0022699569955155663, 0.0004711160284244115, -0.0036860816119302277, -0.00570818566237031, 0.0001407683897146775, 0.008339996324927648, 0.010678212577187174, 0.013625462041011999, 0.0013504863460273827, 0.0008880797857802198, -0.00287398494057505, -0.00489750221588328, 0.004208021224407904, -0.0022598000268737694, -0.007892347662620324, 0.001433314893528477, -0.0008909484028667466, 0.015450802882800372, 0.008258640180444171, 0.008033910475686891, 0.008519686447142853, 0.006692365613000909, -0.009512866661613105, -0.0009360562201913604, -0.0025453894032362702, -0.0036153778273072252, 0.0009785037622172675, -0.002124213437916302, 0.006136024060844077, 0.00930519978651211, 0.009805416063152796, 0.018637134380072085, 0.009744212543302395, 0.011273070200794245, 0.0020331817611565547, 0.006566937190901511, 0.009334314459346425, -0.003807855010387561, 0.0023307174510360388, -0.00995209620680345, 0.007380443260295513, 0.006357393561118382, 0.01015638949763147, 0.0160083709443275, 0.005983924194675447, 0.010995207591592391, 0.003357649690631561, 0.0077003545303076446, 0.00041423711773143, -0.013589042210356136, -0.005243192075426549, -0.008649458873870718, 0.0016644841487617982, 0.006770625081311938, 0.021287294356521432, 0.019277364827459082, 0.006007613786481831, 0.020328335807647518, 0.011993760501470514, 0.01613781018865155, 0.0018272470553039241, -0.004718918954014663, -0.013027354299923752, -0.015576939629656379, 0.007669533428975363, 0.007317484546967984, 0.013256897290557618, 0.025537330357210432, 0.00803668558818223, 0.020178055000626787, 0.0178496387642551, 0.024152089496572243, 0.00168340830773261, -0.00512900658123224, -0.007287349105135601, -0.029946931693998913, -0.0014570840478579066, 0.0018631919689719046, 0.013355481167845767, 0.013441317940073621, 0.006332076934683658, 0.014710033671734655, 0.018961823502057724, 0.018161640889580263, 0.01081916367734551, -0.0025219364654315577, -0.016369423774285533, -0.031364182713899985, -0.010683582512812123, -0.01629232314747124, -0.01254806303807496, -0.003340500007897028, 0.017319057733791783, 0.01945163825476721, 0.026872359106044918, 0.01609201218333499, 0.013021245792615358, -0.000561508199709922, -0.02762305154690884, -0.03234304561133273, -0.027032047218811608, -0.022430777158794636, -0.021963131260139254, -0.012568394415547975, 0.015056607537541343, 0.014239773814745576, 0.016003794153207566, 0.015691239411751646, 0.002755938691248334, -0.0039411752317330415, -0.029774498689127824, -0.0336449858964072, -0.02728234128256393, -0.03177002250915249, -0.02481060151281496, -0.012421585295355145, 0.008510501537275998, 0.014201244173558223, 0.011204606742234925, 0.023490839704825222, 0.0027980127651230095, 0.01373052347883021, -0.010468769573898326, -0.032973948377206366, -0.03556269821017714, -0.028967874763719405, -0.024030237546426574, -0.01038893315869819, 0.004297737831634763, 0.010696910224799691, 0.0033085326851946444, 0.02290348386589038, -0.0005917725680356365, 0.010207062736871995, 0.002270001506512674, -0.01852475623153179, -0.016943778542174874, -0.01650853463991257, -0.01181604626875399, -0.013403836169657422, -0.004161854265686754, 0.0010007219966300823, 0.0038799066589434977, 0.015946801059103854, 0.008987685391210747, 0.013440219058009585, 0.013544553399014333, -0.005296908418356109, 0.004486167331658512, -0.008442693935343783, 0.0041907054123025474, -0.010475117714749599, -0.0011669245450282504, 0.003162673261190658, 0.0042585545708733125, -0.0008522669247026391, 0.012025599390310884, 0.003581750066434558, 0.0043808836523292465, 0.004138864291161597, -0.002794266562662134, -0.008068194754167141, -0.007281173991692406, -0.0005880663020784597, -0.0056517641911409434, 0.005132825759279039, -0.003329979304344431, 0.0003331856121769028, -0.0013090562138421981, 0.007177514806627867, 0.004624412911337173, 0.005423129454916797, -0.001291943623753699, -0.009143830117414958, -0.019125950683016972, -0.019175254656718897, 0.0020523866462077837, -0.0033533248558630336, -0.0013349462806425151, -0.0014748600517761603, -0.0017338994835051416, 0.008145021601295762, 0.011946089176645733, 0.013549916482642678, 0.010846226237873968, 0.007105649406415601, -0.011799228199200968, -0.03335212731415065, -0.0011135276844964764, -0.0010792999676712072, -0.00518415537137964, -0.011236525299631156, -0.0039402497200179, 0.006358275477627717, 0.01539727028338012, 0.025745861172114432, 0.006030344675506196, -0.008141504221423696, 0.0011271042809254217, -0.014627040874560425, 0.010384050772434693, -0.0026132989529841118, -0.003948970311838655, -0.012661248636737347, -0.011973445516709395, 0.011275638745394027, 0.012106022164860016, 0.023108600265762794, 0.007356811770997939, -0.0013368992105373535, -0.007021268608123698, -0.013828587399830932, -0.007798529887115045, -0.012113343735961407, -0.009813924269467604, -0.02276744365421714, -0.027719232975126618, -0.007043176603344972, 0.0033254549433463215, 0.02001855842136569, 0.024309046356924123, 0.011831514825753528, 0.0030509117302564472, -0.000557785707818396, -0.002415887200364551, -0.007350955029430571, -0.019879862062096375, -0.030489565309149605, -0.030501467916596133, -0.02289374156557706, -0.001061745056980754, 0.03055828692761135, 0.03452118954567212, 0.021484439566810547, 0.021989816629161236, 0.019326484528361138, -0.0034268384571294955, -0.014223883508489405, -0.018900638211782016, -0.026692199560852597, -0.017961791051792728, -0.011745009039465116, -0.002472115863540134, 0.02621449089852335, 0.024351505370398187, 0.02054127619951614, 0.01915847366875423, 0.021785365337968713, -0.004142747707427009, -0.007463603123699457, -0.015001406824541992, -0.014535213033671777, -0.022521939265915874, -0.02312514114313782, -0.0022249521927708463, 0.01751308278264738, 0.02866703171202482, 0.019182523986338414, 0.00960706596532491, 0.019235587932158744, 0.011243106023046848, -0.001732427363937662, -0.013802310493102958, -0.005908562096105186, -0.016691664071838655, -0.02898170761097554, -0.020761741126214327, 0.013219788805379053, 0.020909712368307264, 0.015864181894298283, 0.012745087190208235, 0.016175438682356456, 0.0086759789990023, -0.0036167574243611013, -0.014974558394174685, -0.013582213637270963, -0.01647440372483283, -0.023711751655667516, -0.024574554293918152, 0.002113851534878591, 0.009637696649269759, 0.0056769625055744476, 0.004422296121952314, 0.0037655624939435875, 0.011967834421387737, -0.0009456645062664984, -0.01599042108460419, -0.02131869152189931, -0.02229955526598643, -0.015608618865909718, -0.033601265255000116, -0.023236533194014614, -0.012183531010848266, -0.02777048049671227, -0.02353233715538393, 9.323976491271659e-05, -0.005411706774035944, -0.0025168136361825447, 0.01860754929979682, 0.003037683175557337, -0.015123051779145209, 0.0052823425863010465, 0.007929211702483329, -0.008854752225722386, -0.002479655248283158, -0.006545987533509766, 0.0021350729089682366, -9.729886351566045e-05, 0.0025648293737527894, -0.0010513609380994353, 0.00477145398385676, -0.0018799883402866673, -0.012387667768090855, 0.0013947535996375767, 0.004589963358434694, -0.006865845369370864, -0.005671630448712562, -0.00971727726953385, 0.0024654892155249295, 0.0013779325339321924, 0.004202702005550129, -0.0015473265967682615, 0.002149265928419892, 0.004245023240118165, -0.0011005151142592037, 0.004869317859859859, 0.0011112933269625093, -0.003909820166202898, -0.013751911132564793, -0.010701774230638282, -0.0023894429910398004, -0.002029198341737445, -0.011656357311543351, -0.003667621065232167, 0.003551789134229783, 0.004570782625676243, 0.008146586899105948, -0.0014687148682722563, -0.0014963515795688458, -0.011611043079717723, -0.021536365842928274, -0.013766861212135178, -0.009000079145839784, -0.003271901012140599, -0.005397079206115699, -0.0017897305588381225, 0.011624795839459676, 0.0010152131352964984, 0.00941292287079415, 0.0040416363136213645, -0.007123556487130355, -0.012954070818256051, -0.023930459062955777, -0.010850054086847796, -0.0056688889600137885, 0.007612959284374725, 0.005065384627157976, 0.001964640568980672, 0.005312670123275608, 0.00787872390727137, 0.01835029402698501, 0.006409920891983632, -0.004280766896557119, -0.0017523982014507273, -0.01680869017339247, -0.007997257225082544, 0.00044348313360275586, 0.0036885259192669844, -0.005896490369821224, -0.006655664991463728, -0.0023408504727803077, 0.018946721479625183, 0.0202929713210005, 0.01805816863608516, 0.014552050527904585, 0.004547309499783301, -0.02502163558664618, -0.019570316671677707, -0.014409710661224298, -0.01595623239236346, -0.004235541015334652, 0.002159143523438828, 0.01495490286249854, 0.02158388513068677, 0.015276905267878711, 0.018498043775009382, 0.003709190862929198, -0.009605281397206743, -0.03497063471018317, -0.03462965260904901, -0.01775315372657931, -0.03429101521192143, 0.008856881095094794, 0.0004884093461629908, 0.014756473304748049, 0.009320976882975665, 0.012299599476948324, 0.007951548873826118, 0.00218595404762092, -0.010638752262690615, -0.026931841987267325, -0.02888704725443747, -0.0263475533931252, -0.02926836972276814, -0.0009007313806041826, -0.008313396028638526, 0.01938377887247749, -0.0015823844304174817, 0.007784242562017631, 0.004536266842342875, -0.006627099260834128, -0.0064844534024304425, -0.032863410328782275, -0.03837002742253911, -0.041350886589095255, -0.033356081184164624, 0.00572472703032858, 0.0012620495447570588, 0.005976040755650493, 0.0025191042327713945, 0.011330534491252556, 0.002508920610270606, 0.0004663010004639441, 0.005381724889264103, -0.017831424887900273, -0.03239101691830599, -0.03482619138407925, -0.023802971831942906, 9.228649066094692e-05, -0.008779463322104487, -0.010283529645573341, 0.00011984549301109518, 0.0005244724208309858, -0.004642252229405811, -0.00048739718532294946, 0.019103229745005106, -0.010307301374504436, -0.020806243946253397, -0.015751122677433102, -0.01256592076660229], [-0.00043160018742755956, -0.0018888081362916538, 0.0020471386865285844, 0.002122075765183109, -0.0008831038417067479, 0.002402549036732435, 0.00014890464627498518, 0.0010156930506691243, 0.002167273183620073, -0.003172184836937924, -6.461577723580479e-05, -0.0015587996986781605, -0.0017618085242598173, 0.0010168354470497555, 0.0024785777819245442, -0.0008393246835028196, 0.00025762199605435654, -0.0032676754971592277, 0.00035529066457148304, 0.0020209770531874225, 0.0006203288643081823, 0.0013836011520823599, 0.0012263017664407012, -0.0003776831819275175, -0.0012056807966042253, -0.0008228782648026941, -0.001103948661422399, 0.0009617635871739505, 0.0006356210243454121, 0.0009461834930658034, 0.0014674686660468125, -0.0012412724666200107, 0.001313879121635514, -0.0007220753892449987, -0.0015706261102142883, -0.0005665349377299666, 3.8067276111944447e-06, 0.0011558619034392676, 4.671563369076146e-06, -0.00025325647805640066, -0.0031653492431124664, 0.0016348380255200704, -0.0011947935864146917, 0.0010313687338960968, 0.000593098069983975, 0.0009256033062361011, -0.0007290710193744266, 0.0002459231216912883, -0.0011359737747444097, -0.0008575657123506276, 0.0009408057505264047, 0.0010911987177671051, -0.0002182411780108186, 0.001833849338666071, 0.00208890123911909, 0.0023091232943915907, -0.0004882510204451436, 0.0012530177531571245, 0.0009143781966385723, -0.0019468318023191907, -0.0009701594576520944, 0.0005506772437338881, 0.0004612326958876667, 0.0008640313750020123, 0.00137718171370416, 0.0002528081344804714, -0.0022271281544213434, 0.0002495290314591571, -0.0022873470768991723, 0.0005726981801178604, 0.0009159595856885412, 0.0011401395347345525, 0.0011342826147798704, 0.001919648466134635, -0.0002906458064771574, 0.0007963883277176235, 0.000289672786581909, 0.0007204592181287424, 0.000362738924031908, -0.000782151155795371, 0.0008040079979187003, 0.0003585985328089827, -0.0013398586926786143, 0.0001452089778861603, -0.002911897936411812, -0.0009858009034883542, 0.0006960924350314108, -0.0002796501807594663, 0.0009047983975909958, -0.00041681293796829463, 4.5774510798958624e-05, 0.0004213876049418747, -0.0007050750430598902, 0.0019736886131618133, 0.0006481637203686972, 0.0005742716160947872, 0.0005010618784528181, -0.0019313360266211374, -0.0016263417480063855, -0.002531107437483598, 0.0008817446243033893, -0.00040381341690320574, -0.0002864523471126666, 0.0006414513323222602, -0.003480703313895041, -0.000186437890883023, 0.0006164949002966603, 0.0021436020905492162, 0.0004993522970417121, -0.001425751636933679, 0.000382622705675984, 0.0016318623079070755, -0.00029273481829597537, -0.0009443504010896872, 0.0008228276604999691, -0.0004716499046609215, 0.0028022025974804568, 0.00374087873458249, -0.0009670336990534839, 0.0002586447048975424, -0.0005149672132707209, -0.0012841314554526018, 0.0005692653893207021, -0.00011678420051024773, -0.002180565130737111, -0.00028083503184339484, -0.0005699541543079556, 0.0009735964383626824, -0.0006772743813400938, -0.00017807114227742462, 0.0007128033606661006, 0.0021435828514865594, 0.002220643480908323, -0.0004794539633662244, 5.406970498602327e-06, -0.00042888044876419624, -0.0013876911964831762, 8.248925778722008e-05, -0.002961631854746477, 0.00044124150462860023, 0.0017242390934848859, 0.00015950141054473638, -0.0001326836120501272, 0.00043306460216524826, -0.0005003148245910774, 0.002484029825884779, -0.0017398331369973805, 0.00010454896712269786, 0.00010765255623371606, -6.325113071175416e-05, -0.0004873324775819309, -0.0021707222850054714, -8.380679133610044e-05, -0.0010612223128488615, -0.0005096509219215365, 0.0009509328969883582, -0.0006139348982075411, -0.0007328370522523518, -0.0019922984458560404, -0.0009844541516828063, 0.0020826336182781986, -0.0006672746329633069, 0.0028711707423970567, 0.0008427740353671799, 0.0011040372775996438, -0.0024973025508351447, -0.0005056673495526611, -0.0029819559865348452, 0.00010914329318960897, 0.0007479288149436759, -0.0001072674750346188, 0.0022061268940079533, -0.0027083977183412333, 0.0006229957435514724, -0.0007134092082230215, 0.00028271712911499787, 0.002064012201055722, -0.0005093235750839824, -0.0005091824285658722, 0.0019900556870762454, -0.000393793146883039, 0.0003659228299314375, 0.0007078161048331474, -0.0014445161927264473, -0.0006831153444073142, 0.0013989321055455656, 0.0012120934260423301, -0.0007769984266669036, -0.0008968092861662518, 0.0002521319234100282, -0.000595382295509103, 0.003934706797586026, -0.0007988562919635267, -0.000501772638357897, -0.0020246466390438905, 0.0007559890246011298, -0.001561739611080144, 0.0034660646708804216, 0.0004286257656640088, 0.0007581214088425493, 0.00020477024546407038, -0.0034432958526159248, 5.548040690744211e-05, -0.0017764815496646917, 0.0006863103748783515, 0.0005230463059949109, 0.0001463787594744448, -0.0009767413033306535, -0.00020156652437169646, 0.000664340278165234, 0.0006706891748175935, -0.00046808709661418037, -0.001534196805942556, -0.0014332651192574106, 0.0013851274757695389, -0.00026677138175893166, 0.0011791339530393898, -0.0004256104842509393, -0.00040934385905206836, -0.0004154348394799578, 0.000408942842791434, -0.00015687225797674097, 2.2037715238193527e-05, 0.0012309712372503324, 0.00027551256005543416, 0.0008184554410627609, 7.089425652938556e-05, 0.0007796164647616831, -0.0006332977938104851, 0.0021330963834030915, -0.001120035291521961, -0.0009115276064339721, -0.0014797004323400227, -0.0007564051556205872, -0.0008724819329000399, -0.0019701760226824316, -0.002105121825993376, 9.637045310858246e-05, 0.00010374292126968651, 0.0023938596532680494, 0.0008647283548797105, -0.0003695101432763455, 0.0014439393199160908, 0.00031895363101419323, 0.0017394440285573404, 0.00048562781223973465, -0.0003762817939360315, 0.0018426241796662911, -0.0017571784463321965, -0.0017525900237993365, -0.0036518066353198484, -0.0007240445322866546, 0.0025003336126186533, -0.0009275414167418905, 0.0008619251655509309, -0.0007204429274157308, -5.9825068720077904e-05, 0.000864847100896514, -0.0009540477588395749, 0.0005483391094794822, 0.0015808371193255762, 0.00012849948457271118, -0.0003295215771012088, 0.000307062414712496, 0.0029694344533400885, 0.0017436746207764935, -0.002981793842594964, -0.0016197499085183957, 0.0004767780949409306, -0.0009206057151406579, -0.0004202429352202057, -0.0012320781174141287, -0.0016353579402836036, 0.0004056509675129521, 0.0004619413416808086, 0.0004927453365069937, 0.0019125241144106414, 0.0026059967497994055, 1.4780603899345565e-05, 0.0012545439825079486, -0.0017065994990239893, 0.0002864984753520138, 0.0007390841020486774, -0.0005510876106959986, 0.0012273851554158, 0.0029313710167642353, 0.0015912550996985723, -0.0011644793248243742, 0.0011408956051584477, -4.0020998578326114e-05, -0.0004598313830462669, 0.0010707791482995794, -0.00026271788646470246, -0.0013387519471530047, 0.0026321676573841726, 0.0018596374006785799, 0.0012145304071020597, -0.0004087197747917538, 0.0008656469718883866, 0.001704014732027066, 0.0005317230660618452, 0.0026517429286192296, -0.0014585390157298146, -0.00331585523232359, -0.0018090633041198468, 0.0018588746552403387, 0.0020749353254999625, -0.0005116376490012026, -0.0008169048555794095, -0.0008121278009630693, -0.0001457090877258397, -0.0005747176838457604, -0.0004768377728472507, 0.0010847855143785088, -0.0003540593023400444, 0.0019445260944710642, -0.0026831991144413733, -0.000308888197410158, 0.0009239708833088465, -0.00044349724638333225, 0.00041362205890652906, 0.0006912164431025971, -0.0008136549006611161, 0.0004713144244764379, 0.0017787868851949532, 0.0009835703064216897, 0.0008046950939651695, -0.0011932612651558917, -0.0008848419847017556, -0.000638769425664465, 0.0007664280166594728, -0.001678842530349788, 0.0008268949199050206, -0.00299967478480789, -0.0004821279138201716, 0.0008057260222444735, 0.0008093189502703468, 0.0003532877590481566, -0.0031433397516399293, 0.0016388057639806556, 0.00188143674754313, 0.0004814164226298047, -0.0002480767070774191, -0.0020065378280452644, 1.7027679898295082e-05, -0.0005036348402085504, 8.107046907709632e-05, 0.0013495183660437796, 0.001838933733099144, 0.0005365898105322646, 0.0012271409491777952, 0.000927275869464217, 0.0010193846769854032, -0.0010358274551763855, -0.0006429244381694689, -0.001562783817191488, -0.00047470774839409615, -0.002224118908155449, -0.0007097771510027989, 0.002155028532644264, -0.00044220588986608944, -0.0006577605400088619, -0.0004144075722896744, -0.00047755921725637696, -0.0012378108163536457, -7.824390095692466e-05, 0.002336271619814043, -0.0011749294027463331, -0.0001053468886435904, 0.0024165934096757116, 0.0004883092542416595, -0.0011323728746226404, -0.0010072448168596175, -0.000172817869174383, 0.0012260381453575565, 0.00015400663311578437, 0.0016752709253350655, 0.001597564114231667, -0.0007626340939744116, 0.0023624421092165175, 6.479428031943927e-05, 0.0014193480543301335, 0.0003406954725934243, -6.116768829437736e-05, -0.00013072179088958647, -0.0013515130181981354, -0.00042916413607462737, 0.0023234016767614356, 0.0026363626004954977, 0.00024398483604426188, 0.0007629485226772959, -0.0034860504873741624, -7.764182078396202e-05, 0.0011561059694280582, -0.0014762311158769015, -0.0025518026147874225, -0.0005503977032183643, -0.0011070874634197781, 0.0007023237629798978, -0.000608505536533574, 0.002385191258939903, 0.00026178593816649854, 0.0007226309432825067, 0.001628414127743007, 0.0016262115691868563, 0.0007239960589936263, 0.0013747006171747572, 0.00025562492403573267, -7.01724214503785e-05, -0.00044267940458172616, -0.00011946521031891424, -0.0025357573704122447, -0.00011335996690603101, -0.0006007076898302481, -0.0013192620099481635, -0.0004113655721830676, -0.0010417376950975603, -0.0029825021380553997, -0.0018692308625449109, -0.0007289480037130913, 0.0011554493460361318, -0.0003344850464669573, -0.00024269931748506585, 9.13461670143296e-05, 0.0011863700520541446, 0.0005427595718612549, -0.002307272133480518, 0.0010255355108192128, -0.0012448125020414179, -0.001924793420626016, -0.000891415085770968, -0.0014036487641534748, 0.0003084814168498134, 0.002503845338029113, -0.0012712517025175955, 0.00058657667623986, 0.0002834260262614412, -0.00027172924071580185, 0.0022234055625956397, -0.0013095977082586974, 0.0004891333493386726, 0.00020999475196769676, 0.0005964796991324347, 0.001511000541147796, 0.0012534449124798485, -0.001887638934666262, 0.000643803016503012, 0.0009068858664280645, 0.0009693560318826171, -0.002656398177635329, 0.0031354823474248747, 0.0015613459829056815, -0.001159177020587114, -0.0015063507714038586, -0.0009709854584084568, 0.0002181863643056518, -0.0008531348387212031, -0.00029833642513534106, 0.00021872777588982222, -0.001356939976251209, -0.00018398421046814388, -0.0010229225270433273, -0.000953078638867301, 0.0006924148306016409, -0.004100227904010025, 6.787287220732826e-05, 0.0008696114134153898, -0.00088242786328468, -2.209429269344349e-06, -0.0009886850028464486, -0.0011356625647899617, -0.00028285487849626637, -1.949605629392193e-05, -0.00018336344114162727, -0.0009673272036482052, 0.00021381945015776257, 0.0006532406496719419, -0.0012632449584807825, -0.0012866899989742056, 0.00228561695537926, 0.00213001215651359, -0.0002681094311938347, 0.0008520445728837128, 0.0004549196607868749, 0.0024155063178710598, 0.00027525048480826487, 0.0019911344422043247, 0.0011438069847995286, 4.147659407037586e-05, 0.0036882295870157952, 0.0032243568243653406, 0.00010326165176336402, 0.0006390110599649607, 0.0016208915089308226, 0.0008347120428008168, 0.0004130504781391175, 0.00014958804276390757, -0.0005907523943234692, 0.0007302363794366708, 0.002938844335407236, 0.0019296331394383585, 0.002543869705819597, 0.00018226298865871025, -0.0027884706593411064, 0.0003688511374116484, 0.001384639171422722, 0.00024486197242109615, -0.0007444858072690326, -0.001958036029020518, -0.000658816085264883, -0.0011443870538303863, -0.0009249718828317399, -0.000714159458246788, 0.0007867354386139528, 0.0016824598734798241, 0.00040584194644250715, 0.0007877485461345497, 0.0007213758539685913, 0.0022134903219260408, 0.0006998237350873709, -0.0013615691125336332, -0.000453817671945835, 0.0002655272647822762, -0.001470093220043389, -0.0003445287335388258, -0.0011260785158376176, 0.0008116672421251949, 0.0023891483263985304, 9.24454180094589e-05, 0.0004716706840430155, -0.0007501003495607438, -0.000950915729781532, 0.0016205708489679868, 0.0010460667468270828, 0.0026885347562685146, -0.0009190881771892434, -0.0011211949212115737, 0.0021024241266305328, -0.00033062110440736363, 0.0016127800170346958, 2.521229028207358e-05, 0.0011306093439554606, -0.0005841366743114685, 0.0009560009151559804, 0.0003547532550351638, -0.001823350632295707, -0.00041149179854713987, -0.0009463125086496478, -0.00012472677889786447, 0.002535935214949668, 0.0007912950746807257, -0.0005498597748413997, 0.00010736264617690345, -0.0008936850810681746, 0.00010054672873311481, 0.0002234828985640915, -0.0009505304614965483, -0.0013477313344663624, -0.0003799061526588455, 0.0007074682586318473, -0.0017019561515173955, 0.0020974063141182397, 0.0007817761984538182, -0.0010979158771969404, 0.0010195757313104065, -0.001257734573607902, -0.001276975523042935, 0.0009833485752022814, -0.002494706903279498, 0.0022472731540822016, -0.0017939253211721538, -0.001847645510271842, -0.0024914165820156204, -0.0008502353554250481, 0.0005906171770827718, -0.0006487107153300303, 0.001039017150137481, 5.20113931366546e-05, -0.0010678245600969436, 0.00040578510520805736, -0.0007097189316486359, -0.000316667109542396, 0.0018294794548625983, -0.0016834921245795172, -0.0012834403275173655, -0.0016109284294965871, -0.0014601998545479863, 0.0005665254096409517, -0.0008862106217297782, -0.0009426312627406139, 0.000574452701580965, 0.00339061402098372, 0.0015770055778462167, -0.001876099154914733, -2.206905076007359e-05, 0.00010508506948534878, 0.00038192883980692313, -0.0007644645008920626, 0.0004913900038181708, -0.0012040044653592928, -0.0016191521845194236, -0.001443136145788342, 0.0008171298858439229, -0.0023586522562988824, 0.0002371446987180213, -0.0010034676825664787, 0.0012920373612662155, -0.0017574127821052032, 4.212433585469541e-05, 0.0006366555775063516, 0.002896161897782169, -0.001161124026932132, 0.002249973295056322, -0.0008279139916443618, -0.002718164605351978, 0.002122760954779691, -0.0017455219008106183, 3.639174208705017e-05, -0.0011970980395750324, 0.0029300759819467525, -0.0004204818853777056, 0.0008790202556904058, -0.001419554295910297, 0.0016269633728682202, -0.00023046049080851778, 0.00029842078933932587, 0.0015171598378721266, 0.001028056005392574, 0.0009199699915179754, -0.0004219133906564386, 0.0020942402103573125, 0.00032494326313190934, 0.002083621664400102, 0.0002706630164086395, -0.0017811834753235615, 0.00025940420579798187, 0.0008427250990166625, -6.697478716021053e-05, -0.0013408718891431558, 0.00026183554899140873, -0.0009159848038874103, -0.0015941308776990814, 0.0014942811785832125, 0.001483387130176246, -0.0027420999931380007, -0.0002538953009508634, 0.001782357213873204, -0.0003088412570939999, -0.002041541694762671, 0.0014689914014343719, 0.0006202967363470056, 0.00045062175526221617, -0.0019799712536626326, -0.001447596923963023, 0.0006510958704603833, 0.0003875087579432012, 0.001600147493681673, -0.00019637670589121753, -2.221487484307722e-05, 0.001481889148674745, 0.0006462429470348484, 0.0006519195997313148, -6.24596808454753e-05, -0.0014647962336680708, -0.00022962379950210553, -0.000768598193407839, -0.00025892707950106545, -0.0010996166843243373, 0.0014898956561638225, 0.0008210546133154734, 0.0009896380704129798, 0.00036166737184860565, -0.0013699304718828072, -0.0007161643883015642, 0.0018478143886209565, -0.00015165928791123617, 0.00028029410259376806, 0.0002439344838442173, 0.0007221458506294374, -0.0018157130167447825, 0.000531819684646709, -0.0011347165908336203, -0.0008880296991729581, 0.0009363955487148472, 0.002486389962617816, 0.0007431458510467053, -0.0006979151014032232, 0.001891772323264575, -0.000355683173018103, -0.0008077275977007114, 0.000680497563512236, 0.0019151144869829929, 0.002242518977074464, -0.003348300265755328, -0.0028996478524943854, -0.002900642664028531, 0.0008696253906990462, 0.0002505919608927079, -0.0005592340849954842, -0.000984631922989276, -0.0006335554646163999, 0.00040710287430534075, -8.741998846013167e-05, 0.0006086105036377841, -0.0013014947131470389, -0.0009864964450886108, 0.0022965557233578975, -0.0018044727313119428, 0.0009011112995817389, -0.00014470114852338387, 0.0006368703171101556, -0.0010232489464969306, 0.0015283384669382328, -1.925122262966697e-05, 0.0006839401896084758, 0.0005727936366283068, 