{"0": [[0.00022767327339470015, 0.00012931217003344885, 0.002123599947710689, -0.00017519712729645602, 0.0012270962733487176, 0.000768680856158343, -0.0013683021807911245, -0.000983616297392723, -0.0007288138951394167, -0.0020515890718781253, -0.0020607622887448725, -0.0003556612284270109, -0.0015978770484209243, 0.0002589508067157515, 0.0008397165756183147, 0.0005295051518398205, 1.8220037932124684e-05, 0.0007509699587453793, 3.67664777955775e-05, -0.002198096537540399, 0.0003560564392653407, 0.0004468572235439246, 0.000513952112442363, 0.0014395066958099298, 0.0008521003035601636, -0.0012677420475335776, -0.0017034444487690399, 0.0002179159516832822, -0.000777731948243691, -0.00011365754283707135, -0.000400496752495781, -0.002252774096757456, 0.0003918899438635861, 0.0019254650107798578, -0.0004050411790448008, -0.0008999523366901381, -0.0005147681552490424, 0.0006514310093480923, -0.0009281289364108735, -0.002032581120165145, 0.0008474003893442396, 0.0010318490660301432, 0.001268865082983339, -0.0010375666582827358, 0.001516721842038996, 0.0014008853217105856, -0.0015150582674898544, 0.0012708817342227687, 0.001327202928666851, -0.0005084671897708774, 0.002073763786543764, -0.0013883274326390459, -0.0018082019548176173, 4.681005810036577e-05, -0.0025278428134572124, 0.0006968481106609894, -0.0006513074476859454, 0.0019155153217904968, 0.0005493543571787755, 0.00047685174944263586, -0.002288292773177875, 0.0009212454955112017, -0.0016604522806277777, -0.000739848226142977, 0.0009328506105196945, 0.0015092520725852926, -0.003336206107269507, -0.00022219322167215237, 7.887778621103052e-05, 0.00122218379885265, 0.0004056832106007785, 0.0011184806187131149, 0.0008402148022041065, 0.0020036671044611426, -0.000470401031849166, -0.0009623889311299574, 0.0016805961432024244, -0.0010700193370386034, 0.0006825385646464224, -0.0019391634957308128, -0.0004513896079291581, -0.0010762562184733714, -0.001104245685740749, 0.00286427118370542, -0.0007981286856422063, -0.0005331687504724858, 0.0008356539928533455, -0.0015901976212338606, 0.00024053996219345933, 0.0014278968823298421, 0.00022588296857004722, 0.00043158114816478464, -0.0013413633877369015, -0.0010774104726248603, 0.0005045093176937949, -0.0007576006052493576, 0.0003672042356006169, -0.003165303229430767, 0.0007962291609636587, 0.0018840727921032045, 0.0014364405126252354, -0.0026552342313027524, -0.0009961283639713936, -0.00014868184897570786, -0.000767352832036267, -0.00019962781163431525, -0.0029997546771821627, 0.00017335230994944574, 0.0005261877439129165, 0.0007699872517311649, -0.0012661316441624148, -0.0026440377811949587, -0.0017575722517088384, -0.001569010667556052, -0.002268657870442625, -0.00021833468426269128, 3.853576534297727e-05, -0.0018505843861106332, 0.0008700136425044871, 0.0017789529845504677, 0.0009797932735795373, 8.2947874013633e-05, 0.0006114151633153925, 0.001418756556928308, 0.0014880197882222621, -0.0017207358693400233, 7.896668230757928e-05, 0.0014533993641008412, -0.0036701535698541636, 0.001505204869944254, 0.0006249950508266318, -0.00016272321012153408, -0.0032221949746699613, 0.00022197824238818521, -0.0009185909963350173, 0.002219966077144284, -0.0023317614080273345, -0.0002026065634906151, -0.0006162940170744178, -0.0014465728027798544, -4.849850003928493e-05, -0.0026483009383626768, -0.0001124605586976518, -0.00030614490740960855, 0.0009144683437401722, 0.0015917375231406796, -0.0007191299195170198, -0.00037190935000684866, 0.00022177964988767841, 0.000437782194505323, -0.0007751889562018637, 0.0014332218044819508, -0.0010264716089821962, -0.00028130844646890094, 0.0006339391276693627, -0.0004290527753276619, -0.0009795645930374506, -0.0009823214563129373, -0.00011847620687929628, -0.0008229566141523678, 0.00010523424440643703, 0.0013898941246838438, -0.004411140737979517, -0.0011771248275206625, -0.001519682244396892, -0.002742644977339805, -0.0009570034977860084, 0.0007890262709732215, 0.00022885952966504087, 0.0020052691768138588, 0.0014892809830730235, -0.002719636014940297, 0.000768642016608933, -0.00018563559540569482, 0.0010181181927025854, 0.003287761620294351, -5.741875644263198e-05, -0.0009455988343331873, 0.001608413089150329, 0.00011229807470294759, 0.0009038492552722509, 0.002714049695056439, 0.0026876113062509538, -0.0019157614112757964, 0.000383162705545082, -2.4884554714507958e-05, 0.0019195237332094626, -0.0001775858281358237, 0.0008082541313927719, 0.00016139907214054967, -0.0010297695711379731, 0.00021094393584500027, 0.002067215558653464, -9.138261468498095e-05, -0.0006073009513375063, -0.0003707550027037149, 0.0020420013859779565, 0.0004999473998960343, -0.0009398363154190675, 0.0008762797883937758, -0.00255610512504287, -0.000459909635783048, -0.0019861571753247024, 0.002017823003147505, -0.0013379652629250808, 0.00031262190920853725, -0.0007286981196354407, -0.001565528946336325, -0.0013082443089991727, -0.00022217149074873165, -0.0002487974315009745, -0.000175083533025075, -0.0011649472473655661, 0.00016725407590770255, -0.0003817201761351393, -0.0009598922547998927, -0.0004636945653670893, 0.0002751816924030102, -0.0024597351923187727, 0.0004243951377080174, 0.0002893495880645923, -0.001041554220541838, 0.0017420168193363402, -0.0009808174705146534, -0.00035947147975422787, 0.0016780318470930187, 0.00038525489743807207, 0.0014908852000655396, 0.0015286904006900524, 0.0005439921972023685, -0.001036371820633419, 0.0008491835128514757, 0.00017303599359237104, 0.00022100355902436206, 0.002733868244051691, -0.000944610407164425, 0.00146698424910216, -0.0002555520442096495, -0.0005192078175033852, -0.0020188552315228685, 0.00050085889911782, -0.0007335845596690781, -0.0016918198035784614, 0.001975454478430852, 0.0018511193377122256, 0.003345025104136767, -0.001103907511996117, -0.00136646978087694, 0.0006853416145150776, 0.002625735404739114, 0.0011884855987511775, -0.00024510831968781806, 0.0005595034459765097, 0.0008790494040297955, 0.00040153897932156634, 0.00010945709766778173, 0.00016062455872418164, 0.0006823852116458196, 0.00012765653115846874, -0.0018319046667994786, -0.0005334586380487756, 0.0010979077445818681, 0.0004012415744820989, 0.0014907927251040316, -0.0011421626382955802, -0.0005026271745048033, -0.0022229627124766, 0.00030544406002381284, -0.00044532297304108044, 9.863885328961468e-05, 0.0015998160787941045, -0.000531069318664332, -0.0002751291899730679, 0.00023359453518322968, 0.00011214730908036746, -0.000895813189285411, -0.0016306012091406184, 0.0003479338722661411, 0.0005526041944249731, 0.0004532468318975258, 0.0016502711162497425, 0.0014493250651209644, -0.00032429898636228833, -0.0014173536918808622, -0.00022096076075045387, 0.0003059593057771855, 0.001300861876233865, -3.4730485780936054e-05, -0.00047430992060447716, -0.0003737870616446981, 0.0023018880463808026, 0.0006506653844612791, -0.0025504536638351924, 0.001131020126284621, -0.0005947790055338814, -0.0037244501124879125, 0.0017707655354835727, -0.0019355836326306426, 0.001380729900238328, 0.00019685891236209004, 0.0011389206566416233, 0.0011061429743444823, -0.000966096567269624, -0.0007924385178030536, -0.0012865181402465116, -0.0007564380376432191, 0.00030104135722317123, -0.0009174116470649393, -0.0004899325044363711, -0.0002857473121821636, -7.23201068127942e-06, 0.001977585630501095, -0.0022937993544138347, -0.0019153610288413592, -0.00015473997498099775, 0.0024182214881109357, 0.0011019650106545418, -0.00026455092586902566, -0.00012554069694220053, 0.0007036376557974029, -0.00035466259992736386, 0.00026343062626357343, -0.002784319840873224, 0.00021955174701996242, 0.0006591634432617401, 0.00043272531243168785, 0.0006186789363998448, 0.0017117518897396197, 0.0010578412965727823, 0.00038572371552963, 0.0024871180731315897, -0.001305919313881409, -0.0009618460854333511, 0.00015121509543893695, -0.0003462337001020885, 3.8275051957888874e-05, 0.0010757554967722256, 0.0015888594611955659, 0.0009525067888946066, 0.0007441766008730999, -0.00015850149067043987, -0.00048407378293168987, -0.0013273398670983392, 0.0005651725379862332, -0.0013932625384054439, 0.0005935619247007611, -0.001340570876338376, -0.0003004811487824291, 0.002002122586422153, 0.00016708899679553188, 0.0008246545914569519, 9.370984860634521e-05, 0.00039414273957778464, 0.0016652709424693345, -0.001330586228795624, 0.0029330151771027606, 0.003015028637849132, 0.0006830624268395271, -0.0015278318168182193, -0.0022709803324261766, 0.00034543017365856846, -0.00019776927100378434, -0.0017417687054367536, -0.0003641277225255729, -0.00019607721456895737, 9.178277016172896e-05, -5.915954837205911e-05, 0.00187217109117158, 0.001931271768406406, 0.002849211140366954, 0.0010100358606924288, 0.0005553795646061043, -0.001060228237874757, -0.0003456243204342696, -0.0010933388546543095, 0.0027395599106018933, 4.972435048270335e-06, 0.0012137440457493278, 0.00036297524998047233, -0.00012804785507996452, -0.0006391733136607127, -0.0006271748527877401, -0.0008457466997575996, -0.0022714016602375614, 0.0005470913794704064, -0.0008723304029845968, 0.0006004215866303427, 0.0022040137078887887, 0.002141657097556591, 0.0003703438537834573, -0.0010492347713479257, 0.0016902062918186765, 0.0005693319194305313, 0.0015389541116572938, -0.002254268383614425, -0.002168919293563674, 0.0002464294640808091, 0.0016718530201734504, -5.960783200749954e-05, -0.002126288277030144, -0.0006163853370289384, 0.00030886685751627444, 0.0018127713563943404, 0.0014988594149271076, 0.0007563654420522367, -0.0006296256108517797, -0.002514589374716398, 0.0020440260712317475, -0.0018364786554882046, -0.0002126954477369748, -0.0007037914823881424, -5.06410318652946e-06, 0.00048820686324572846, -0.0036839977075837312, 0.0014582942353844747, -0.0016674891158347427, 0.0012723237197601244, 0.0018301337542775407, 0.0013168762096344084, 0.001986055201198473, 7.311866378079499e-05, -0.00018907434710975848, 0.002338024659265049, 0.002096335217861742, -0.0016105961273685688, -0.0016869034435403325, -4.401858349322149e-05, 0.0013019582859864407, 0.00015107933219256822, 0.0012783159556536852, 0.000835408924792147, -0.00020196559486671106, 0.002017503472477886, 0.0007507885479881904, -0.001255547527008712, 0.0011460527336885791, -2.8851695128234368e-05, 0.0011966731598451077, 0.001685271557422289, 0.0004429663751239557, -0.0019058821557332863, 0.001806265294509395, -0.002236949275562518, -0.0015217904329868632, 0.00015297004597497195, 0.0010001568563070236, -0.0009480477414344936, -0.0005183667325608611, 0.00235538941233746, -0.00035814936878201636, 0.0021069556630405302, 0.00035156472321033386, -0.00015884806492288812, 0.00018953812667420335, 0.0013597230933649895, 0.00036218335018686597, 0.003199772372672526, 0.0007248260122464629, 0.0006470071794652362, 0.001804057419085197, -0.0018988720754620919, 0.0007648388945710417, 0.0013343768383277997, -0.0012119815946771263, -0.0008632375376285895, -0.0006629828794488287, 0.00190853237145349, 0.0011205224035066557, 0.0008250011898772075, 0.0010577732891142637, -0.002164314089055257, -0.000931445704311458, 0.0022679362040511943, 0.0008885153958409945, 0.0011075243030849882, -0.00015197892450430727, 0.0013236790748032351, 0.0007980397290943103, 0.0006270236534729084, -0.0023374065691766617, 0.0019501847012142225, 0.0008606437216964318, -0.0002851526768667149, 0.0005074164764805377, 0.001471254180605134, -0.0019243324908597816, 0.00040935425665715816, 0.0010782021650748278, -0.001452368841722421, -0.00018973672898282598, -0.0007473209910701049, -0.0008111276963101543, -0.0003861254282539057, 0.00031618298093279655, -0.0011892844948925936, 0.0026130158738034907, -0.00022642524319122181, -0.0003914850493920831, 0.0018726211291941362, 0.003062848101372793, -0.0017486425329413424, -0.001184623231811652, -0.000285540490109875, 0.002322347637103545, -0.0006226527685589745, 0.0009228526880337442, 0.0005145230634454892, 0.00013184790892158428, -0.0020918769225915838, 0.0009552662948134274, -0.00047991353133756504, -0.0004885641805596875, -0.0002178080286244467, -8.022530152410049e-05, -0.002385984611200818, -0.00037191544121887383, -0.003267861407758723, 0.0011384634674742437, 0.00048247139428257094, 0.0020439479850342607, 0.0014033222478289891, 0.0012388627521889971, 0.00019130824053201442, 0.0008265103172654619, -0.0004262638707039628, -0.0005447857716840372, -0.0021569531313195135, 0.002102831032170672, 0.0005063397615867064, -0.0014123818329268409, 0.0007847792381515822, -0.0006852346982127858, -0.0012963918287451908, 0.0004181988086703143, 0.0018133933095533686, -0.0002793287292857969, 0.001553965848266548, 0.0018422931883857769, -0.0006021085735819685, -0.0004683372053251698, 0.00010597955222423346, -0.00122651265412439, 0.0019486427653569657, 0.002091170071451485, -0.0001514801894367797, 0.0030298383625897056, 0.0021721825959463738, -0.0008941730498271595, 0.0002261203813998566, 0.0001639445270043669, 0.0002606770366750803, 0.000307269901004875, -0.0013806203661689744, 0.0035228112781980027, -0.0023327407343540297, 0.0015098857774554252, -0.00028018112844294774, 0.00108655266690793, 0.0012820550171328347, -0.0009633056869300106, 0.001130355777182989, -0.0009021008109976098, -0.0004583990141138563, 0.0005167438448473241, -0.0006134177401783234, -0.0007482289386564067, 0.0010838535855460158, 0.001153575585368318, -0.0015149085553071105, 0.00013602273005139544, 0.001711840234410442, -0.0004285283467429241, -0.00026131025979034365, -8.68478564838352e-05, 0.001854648599670135, -8.474019329350627e-05, -0.0008941394679083419, 0.0003522642171782812, -1.6061005312992746e-05, -0.00021197564140335156, 0.00010405771268363162, 0.0005761134940215248, 0.0010876024340075762, -0.0006632655716820074, -0.0005119386241504851, 0.001016699189941277, -0.0021579792626390286, -0.0008128016670954477, 0.0002449790850751447, 0.0027005545140714312, -0.0001880377417024403, 0.0006652781041043488, 0.0012021312108097316, 0.0006483494826275436, 0.0010162285207083194, 0.0010371097611217937, -0.0008031399896292784, 0.0005231917030741685, 0.0007458111892525212, -0.001960222204024869, -0.0006017784508523349, -0.0011943014287774428, -0.0018863436756531625, 0.0013047969210296666, 0.0008140126774179853, -0.0027483552698180512, 0.0005180719864163065, -0.0016563408838316531, -0.0013694491051619482, 0.0009638285164695225, 0.0011381704404607844, 0.0005254459457725841, -0.0014257117141452794, -0.0015545360646070693, -0.0004677289277923769, 0.0026959144142787344, 0.0014972139753080603, 0.002592017691915144, -0.00027417205137011074, 0.00017465516171249503, 0.0005671279486486817, -0.0019803561541429176, -0.0015954105782354474, -8.141185031027061e-05, -0.0011843749771348565, 0.001780070894149569, 0.0008559314221567441, -0.0011797463197385208, -0.00021274600246058999, -0.0005700338146768068, 0.0016888390594087595, -0.0005683436594131229, 0.002455507408033713, -0.001163025591887835, 0.0011848511447058662, 0.0007749600497709384, -0.0003040013655999776, 0.0015319598821526448, -0.00047815177034636, -0.0009335892358785437, -0.001205270151426493, 0.0016430838419962616, 0.00043810344839224035, -0.0011272322790926758, 0.003193812142942259, 3.962707607419094e-05, -0.002168821208750847, 0.0011685417491592005, -0.00042158203707493616, -0.0005010845605289256, 0.00018775258667453414, -0.0015193126195752744, -0.002009728978559577, 0.00030487231316290504, -0.0010841841229554717, -0.001335370256534044, -2.162377434968709e-05, 0.0004948474372947867, -0.0023338726808365138, -0.002124572043378141, 0.0005649341848618035, 0.0001235872019902371, -0.0012421425006771776, -0.000511179492801786, 0.0008578923120263775, 0.0016689645539664736, 0.0007270503637171286, 0.00010907637356445075, -3.252671871473976e-05, -0.0013376893023615416, 1.0745674618435414e-05, 0.0014401494727667033, 0.001251936616072313, -7.081642357657505e-05, 0.0009125672870195311, 0.0006940101893620485, 0.001105731307981821, -0.0006395126421633743, -0.00046512571823653783, -0.0004287955596938689, 0.0012384231199133685, -0.0003754597086353895, -0.0017293620135815453, -0.0010727346262472631, -0.00045210726342740265, 0.0033632086971625555, -8.937946971912685e-05, -0.0009832835213645493, 0.0024223420331950245, 0.00028062924147291584, -0.0009086216241628184, 0.0012096346447334426, -0.0023820336029214823, 0.00046646478074186204, -0.0005449186719096328, 0.0017007724447332135, -0.0009455017877942795, 0.0010562898618711946, 0.0004229425367395588, -0.0019421604181127125, 0.002225640703612392, 0.0013167617192897363, -0.0022216170684169036, 0.0013265509478966387, -0.0017668088153392123, 0.0020267056782403907, 0.0031860813702470955, 0.0010187123047505659, -0.00039298119666900165, -0.0026462828746606063, -0.000578678184753586, -0.00037795038749494265, 0.000124839633597312, -0.00079438330906094, -0.0011952782879727302, 0.0036360981957040176, 0.0003856542306181651, 0.0016093685730007882, 0.001360540996481567, -0.0007100300526799241], [-0.00014109848505130845, 0.0011967080894289966, -0.0007107351576909497, 0.004774706346900071, 0.0011545439484918973, 0.0004697861310022136, -0.0026001379244309612, -0.0005414766041919839, 0.0028969019831865317, -0.0019149648138751297, 0.0008948278531184405, 0.0009640459499711226, 0.001807832438387838, -0.0015484523756198734, 0.0010413411189930612, -0.0026592631013388156, -0.00017861559269879258, -0.001592647962724836, -0.0013561035417265332, -0.0005224582034518159, 0.0025157754186855745, 0.0012640624782547234, 3.349216431694023e-05, -0.0001367276592459671, -0.0005375952893165202, 0.0011423792871588896, -0.0010224779682848095, 0.0009368619029010566, -0.0014955179772172611, -0.0006456049295342488, 0.0030331334973579143, 0.0019635050157588794, 0.0013754490192760972, -0.0015011012765475842, -0.00197802677373189, 0.0009935659644557293, 0.0003774808309028807, -0.0009347303422164704, -0.0003299641931120845, -0.0015869438274204956, 0.0012764995045981117, -0.0006785863353137077, -0.0009979624089091713, -0.0022545866786366393, 0.0006113544771026257, 0.0008132872006682057, 0.004218344528739558, -0.0005541744596875277, -0.00044221007861619505, -0.000552735888931076, -0.0010443043011030924, -0.0005386316820104577, 0.00014289477422679988, 0.002439486910350131, -0.0034966117158712613, -0.001272648633062582, -0.0008376472737134758, -0.00012654772697553754, 0.00021554044474531332, 0.002514729799604104, 0.0011034467631080111, -0.0026834365697151015, -0.00099899791559084, 0.00011865142904516689, -0.00031193101837960425, 0.00026936136127064006, -0.0011136914857076557, 0.0014592076001651805, -0.0010879060436335983, 0.0006833197969431009, 0.0016012152896507502, 0.0013982673841821877, 0.00014046709918941015, -0.00024329176639160868, 0.0017584335508181105, -0.0012865662685545565, 0.00023313669260746327, 0.0005079496205813609, 0.002316286084457524, 0.002135506943539214, -0.0003467006774345762, 4.8776750048089625e-05, -0.0003634273137057891, 0.00012554851392040746, -0.00011047011379952382, 0.0002753035952315271, -0.0005273555931062591, -0.0018826911693506326, 0.0003978107958985861, 0.002124201068467644, -0.0009974074378136066, 0.0018528245432433094, -0.0006042406880176914, -0.0009528459897602037, 0.0006237883051217617, -0.00029831664103351226, -0.0012845638154690886, -0.0018110709733791684, 0.0006335150791577915, 0.001688737608130469, 0.0005769320002420151, 0.0006760198116221919, 0.0003134878730676643, -0.0004155142922427475, 0.0005486866611173056, -0.001237146109403433, -0.00131449180688949, -0.0016741088142075782, 0.0006196326404123141, -0.000669832529531104, 0.0004233233838926869, -0.0009201301493817371, 0.00046547115716641044, -0.0017926802295858716, 0.0015987227622317297, -0.0026500976600442538, 0.00036564722114665825, 0.0013068085065092675, -0.0019870229204814326, -0.0007459208736894681, 0.00016197550787651772, -0.0018959418422830972, -0.000711246916603339, -0.000505535291813537, -0.0007975770765627668, 0.0002795597614914752, -0.000928075079700491, -1.3563140777478922e-06, -7.618047576222364e-05, 0.000924487973216597, 0.001111726104912275, 0.0008976458004585411, 0.0009493005967250386, -0.0001943443057011994, -0.0008056844785614972, 0.0018504199383891373, 0.0022684677647725705, -0.001953900173018251, 0.0008617627170543109, 0.0007603591465297966, 0.00016417005115001326, -0.0009510830073155171, 0.001080208561945819, 0.0020739258018195373, -0.00250257397056748, -0.003343816299833142, 0.00013163556002424194, -0.002430819315598904, 0.0010871530649374387, -0.0003217867881406693, 0.0010255466614291873, -0.003867705258148493, -0.0010710148852721368, 0.0017512906910386148, 0.00012246240524443964, -0.001569901878674678, 0.0019445822155036328, -0.0018174668141420684, 0.0018675686425265344, 1.58133306874253e-05, -0.00045196123077685836, 0.0018148240217609108, 0.0039454570518564205, -0.0012282181440510026, 0.0002937456621405468, -0.0006072784723424317, 0.0006002802262870367, -0.002193742748754643, -0.003327350454567778, -0.0013015887400149413, -0.0015961193073805225, 5.7869032413784836e-05, 9.66594747526371e-05, -0.0003808468309401895, 0.0022587363979704954, 0.0015574264642168967, 8.466883332550324e-05, 6.38883009049091e-06, 0.00034072764564265363, 0.001978265121472294, -0.0007512877819882807, -0.0023181683435000732, 0.00022451259316345497, 0.00023406588514944288, -0.0004208959657950603, 0.001371348523675977, 0.0009790239430252042, -0.00019916452259768945, 0.00040638216466674725, 0.0012845108977639784, 0.0017283923775935207, 0.0011973206128998415, -0.0027508626180766643, -0.0003870367921202352, -0.003351790791412043, -0.0010001818447050446, -6.6355808905739e-05, 0.0005401057001923084, 0.0015308388179439184, 0.00040910031606280925, 0.0027087882057871032, -0.00012654991254200753, 0.00184095983034544, 0.0005405809143993905, -0.001045659765604453, 0.00050335351310107, 0.00041853414329880227, 0.0007807768765945163, 0.0026234519267504097, -4.391199224664044e-05, -0.0017145392634597665, 0.0005209929779564182, -0.000918543370978356, -0.0009603734409346349, -0.0019493646453401716, -0.0004846985633441398, 6.007666856670008e-05, -0.000719496531195493, 0.0007089746910478022, 0.00010228193688789732, 0.0013209657228208994, -7.602570235068284e-05, -0.0027999593104043085, -0.002131105141838558, 0.0025167943833451375, -0.0006762771759712797, -0.00030892803900584774, 0.0009583828166239481, 0.0005296664445352021, -0.0011208540827166266, 0.0011622703116409526, 0.0011751382968799527, 0.00017956916011460658, 0.0009641767272440997, -0.001647308269376867, -0.0005899308991457174, -0.00017279061753342002, 0.004235824494204015, 0.00012624268238502288, -0.0009042514241567424, 0.0002702655503600053, -0.0013100904167045679, 0.0010536760916252013, 0.0007510948619104034, 0.00029930313753612784, 0.0012738273317737811, 0.0010100049744757786, 0.0003882033509931025, 0.0008938131652589568, -0.001213310825741015, -0.003850944803092264, 0.000948895092219325, 0.0013741887428902397, 0.0010540015582930582, 7.447699664547271e-06, -0.00030118621335201525, -0.0014585926716591832, 0.0010752410371627722, -0.0005502597042458044, -0.0007256696299590669, 0.0007596693352875212, 0.00023271792682523168, 0.0016713666218505048, 0.004628004164934624, 0.0003925312719913856, 0.0007317246955674116, 0.00038712671312695067, 0.000284332599674232, 0.00033125948956820486, -0.004426834569480953, -0.0003325419443916965, 0.000924645240293361, 1.5839087229875218e-05, 0.0014144359404377562, -0.002506488103511191, -0.0009147706780929612, 0.001750936188755203, 0.00044503047521799344, -0.00020820828418466585, -0.0036973389550290117, -5.9337715366095494e-05, -6.818632336809535e-05, 0.0023109863835383084, -0.0005561476565296263, -5.780086194126109e-05, -0.0013928098812504579, 0.0004931018519463327, -0.0009754005519912556, -3.602816332045691e-05, -0.0003328056395147687, -0.0002883039409356722, 0.0021012884368592387, 0.0013828408432907534, -0.00025945995349307976, -0.0007676470211527487, -0.0011691229384700708, 0.0004541590515464518, 0.0005117781016927768, 0.0011193178486985313, -0.0010406232462988347, 0.001114547705958827, 0.000500028475393453, -0.00020380045259228133, 0.0006907772977831804, 0.0019148023131335917, -0.0003105808283681281, -3.3065786270856945e-05, -0.00020305097233530906, -0.001621626523444906, 2.4983343569356334e-06, -0.0008151802464252082, -8.875939727875167e-05, -0.00022807461157027298, -0.0014291863409244953, 0.000967119922197882, -4.427753774186542e-05, -0.000430396417431227, -0.0008220315241002533, -0.002377214597894686, -0.0009524666072982185, -0.0002780771520987375, -0.0006816409643515557, -0.0011427116867778742, 0.0005829881569062418, 0.00046920952824964856, 0.0008094406699919296, -0.00045756610071833863, -0.0002892372287186106, 0.001500843438794321, 0.00020765422182392743, -0.0012867377131347772, -0.001350052041753032, 0.002022870098885977, 0.0001638860439035436, -0.0022248891991416284, 0.0004972035576122756, -8.903337972460464e-05, 0.002783599266662488, -0.00033763275022899637, 0.001118949116846225, 0.0014101949171262443, -0.0013978351397344907, 0.001640767830722067, 0.0004878818654646039, 0.0018756335810008605, 0.00044951406685956273, 0.0002999147002135172, 0.0008001733109433613, 0.0009187940642772622, -0.002062078257329776, 0.0006064482577201457, -0.0021540848685797855, -0.0005370956522858609, -0.002326587159634665, 0.0005637290694014001, 9.743078631942295e-05, -0.0004086530828274399, 0.0016772285975908, 0.000712597093685123, -0.0009266255227291796, 0.0001260340978522954, 0.00012964609088239197, 0.002736709581056711, -0.0005764967072501994, -0.0023192563662374137, -0.00040779164016901986, -0.0006807372000382484, 0.0007238688810554048, -0.00028276914697220854, 0.00044045068827645753, -0.0005680093049539287, -0.0007451370904243359, -0.0011948674304188877, 0.0002596025997441405, 0.0003723775292460129, 0.0013516558067069879, -0.0023260414231775642, -0.0031368382985029163, -0.002800726767880728, 0.0002592594745851266, -0.0006150203787995086, 0.002249745634626509, -0.0008584324440569515, 0.0015966229270848592, 0.0002581174866958912, -0.0017279495700662823, -0.0005513930857485891, -0.001641188957564015, 0.00012728300900283405, -0.00022229866614282263, -0.003462869898743107, -0.0009632588470085996, -0.0010116079594324932, 0.0009374132857040183, -0.00014634004856364254, 0.002754434020592139, 0.00017711675192873112, 0.0021566833527586456, 0.001899360277168296, 0.0015965655013789706, 5.079009144742059e-05, 0.0022216923180524715, -0.00061533118211119, 0.0004610032825374225, 0.0007400101384947241, 0.0022348246158694685, -0.000517382159595647, -0.001521390705827847, -0.001363720701989347, 0.001947664081530182, 0.0009324870823740269, -0.0009329948127978585, 0.0005966764581753716, 0.0006993027584260877, 0.0016937017674835064, 0.0008181389520258178, -0.001487933296883764, 0.0014770755464542892, -0.00042117420580852703, 0.0008151410120710708, 0.0008389530417664244, 0.0007181782570370698, 0.00045762183566385866, 0.0009573740852852948, 0.002129044145268859, -1.0143068386297206e-05, 0.0009424383409053168, 0.002037720260836991, 0.00016307398181289584, 0.00219557962487474, -0.00015723056271195292, -0.0010515152685144713, -0.0014488776118926918, -0.00043756136273874274, 0.001474743179259976, 0.0006059446709058144, -0.00011143512969231663, -0.0005827799608098165, -0.002536406439042001, -0.0004083303636700455, 0.0016284546414194307, -0.0014534422842597335, 0.0007073907705000432, 0.00027999549241208887, 0.0015233760872312159, -0.0015654934729046885, -0.0008444196196613399, 0.0004246057767000208, 0.0016515993025321759, 0.000882884256784955, -0.0019747886098686355, 0.0023403223025186973, 0.0026038511221549375, -0.001266407700858565, -0.0005439194514732982, 0.00143614589601575, -0.0005894037723265074, -0.0002615362035845092, 0.0014701756070323953, 0.0014688927979877662, 0.00017070152846001196, -0.002472321062651534, -0.001104664354123214, -0.0004169554155926756, 0.001237095419046572, -0.0006099920661322922, -0.0005278531509274065, -0.0015160087621080944, -0.00036968784037470374, -0.001058785571416605, -0.001352018530353344, 0.0014575620509046324, -0.0018327974683522753, 0.0004289499435079762, -0.00208995216814564, -0.0015105408912734041, -0.0004581706541223143, 0.0016105383593645623, 0.0020855831324701137, 0.002926118380936463, -0.0002908421420559924, 0.0022410219302613503, 0.0002352286978446685, 0.00011540424164236756, 0.0025420508470583012, -0.002168767002959135, -0.00022728397355226178, -0.0023352458900686786, 0.00034682088931447706, -0.0022649473287333116, -0.001052297189901581, -0.0009206008584503423, -0.00011423836686605942, 0.0017918805097831966, 0.001985934339583128, -0.001468079655680067, -0.0012816874749296144, -0.0011663678214817157, -0.002642082666538929, 0.00024357542663866146, 0.0016758762510233158, -0.0003474721836670496, 0.00021010553861776165, -0.0005344287611830745, 0.000749502874722232, 0.0007889982936023391, -0.0010764512539251617, 0.0007058585363430411, 3.80713995859672e-05, 0.0010165494593494808, 0.000565524320703499, -3.029234086812881e-05, -0.00208727084263169, 0.0016494673189966108, 6.750314159472002e-05, 0.001991289945797312, -0.001417654582533924, 0.0011966352437812757, -0.0014546526657760628, 0.00015859447732513327, -0.001742629669090445, -0.0005904990369305766, -0.0037954188204212115, -8.024285234370807e-05, -0.0011396443600734869, 0.00041665377284038415, -0.0019048380018616576, 0.0008718351592242897, 0.0005709493082422921, -0.0010808882265371399, -0.0014234172922546425, -0.00044882664651047096, -0.001947751184080644, 0.0002995660294292698, -0.0020197149074431616, -0.0011289722173195031, 0.001258265735985164, -0.0022453402453158416, -0.0015748757752334533, 0.0007522393763584641, -0.0013030853930766156, -0.001432325247323644, -0.0006714620746913066, 0.0007249780246918918, -0.00010656786753964415, -4.652923612289885e-05, -4.864191458524329e-05, 0.0007707080900675834, 6.807524929992305e-05, 0.0018511683425164053, -0.0007966739324831649, 0.000615329378962798, 0.002781854378359936, 0.0023678741234163516, 0.003252308024676434, 0.0021412433410083706, -0.0028007994345530113, 0.0005860518116645567, 0.0014841288140584376, 0.0002869678339242108, -0.00028951965277852163, 0.0007554215995719701, -0.003205511114372881, -0.0016930929264058164, 0.00237635409991032, 0.0014414193666420615, -0.0006612675715415682, 0.0014574477292995493, 0.0005314675091758387, -0.00228335709639908, 0.00022654018475949694, -0.0001230875727247096, -0.0019113069858549003, -0.00013851294482467372, -0.001251104550694575, 0.0003728480992612208, -0.0006268699544715811, 0.0017259742424347998, -8.992130981046994e-05, -0.0007874434298307863, -0.002900977558779998, 0.0012817119180358748, 0.0003428571296148612, 0.0005110542558303453, 0.0019420781092316208, -6.46791956673403e-05, -0.0006467288513161511, -0.00039167945726238277, 0.0019888204336038252, 0.0005126184856938839, 0.0002383846628091423, -0.0003941999410857173, 0.0016302686826469804, -0.001094651586302327, -0.0028258404487903396, -0.00048525164851778057, -0.0003517497102669664, -0.0005973586614482654, 0.0005374812390163344, -0.0022034586697073193, -0.001358070809057996, -0.0010987923996835939, 0.0009169853526736477, -0.00035906236913197504, 0.0011754039637634462, 0.0010944715538062013, 0.00028700731560553496, -0.0007189884293027537, -0.0019337966084587868, 0.00013024836974835858, 0.0009176914118391271, 0.0006465057866445401, -0.001934763945375587, 0.0018387159957282536, -8.333796487259047e-05, -0.0009960521908894777, -0.0006180515872012725, -0.0007049858976025331, 0.0015122909631195818, -0.0006709760373685469, -0.0006649725038814678, -0.00014903781255014376, 7.581840892916306e-05, -0.0003478113952215185, 2.701876776478487e-06, 0.002003555693328031, 0.0008211841535144258, 0.0004714879671201685, -0.0010140960413809992, -0.00010018727925033097, -0.00047179636959141446, -0.0015895104222499324, 0.002831083695668099, 0.00036480859804646684, 0.002679986263488659, -0.0013122214139940837, 0.0008777392352932803, -0.0017690353764403658, -0.000708548189312987, -0.0015011179420340447, -0.00010289386167902668, 0.0007557526598092774, -0.0022548557707673506, 0.003073496522620782, -0.00042555742575781905, -0.0007041482801750331, 0.00018162190503870303, -0.001412907622044194, 0.0009427734158783988, 7.934016379785733e-05, -0.0015700667524898748, -0.00013451508540621146, -4.11569999371738e-05, -0.0006329995438971119, 0.0004825616279062158, 0.001021605143267588, 0.00016925676560404455, 0.0004297769443370511, 0.0022218959950926808, 0.000261302062922686, 0.0010328161084993705, 0.002495696408469421, -0.0027887352530053923, -0.0018682405712485265, 0.0012439173687831464, 0.0024132399275768454, -6.429429424425111e-06, -0.001234864381218072, -0.0011250321234321848, 0.0012444370372330267, -1.8391506177236164e-05, -0.002354559845870847, -0.0012448801070909944, 0.0004101658167225889, -0.0003470604520760831, 3.604092797838158e-06, -0.0005554607534128985, 1.1852567503177746e-05, 0.0001352719663775034, 0.002541426568950412, -0.000488042863277305, 0.0014771270111057647, -0.0005797254714205984, 0.0002494788299652542, 0.0002367661691352877, 0.001659928655115359, -0.0005398652585776496, -0.0008010665691803587, -0.000418626051351119, -0.0005238757529955316, 0.0011829012708247343, -0.0011727340223941962, -0.0007242747696530647, 0.0001227132091622446, 0.0006105731373918278, 0.0009130374648623117, 0.001931351497276379, -0.0021886650172494447, -0.00015696088534592934, 0.00023313919035446268, 1.7500567966267295e-05, 0.0009183240852617503, 0.0008806035902576005, -0.0007528677881122491, 0.002172569627261994, 0.00032105005686975155, -0.0028255400318880387, -0.0016071874448872515, -0.0012152400037227643, 0.0012227490835891868, 0.0013973011683154602, -0.0010715086677225794, -0.0008050036505010034, 0.000680955952266386, 0.000476339403993913, -0.0031603070734185445, 0.0016261418592704517, 0.00015763539758421562, 0.0008542600266812192, -0.0008260002342555603], [-0.000812440365900658, -0.0011594645899872852, -0.0006425186923327724, 0.0007604641950734857, -0.00017347173542835962, -0.0011935232390331589, -0.0020097804262431103, -0.0008160963042989037, 0.00013864287261393133, -0.0003722214530151344, 0.0018817634779013251, 0.0017239201066669369, -0.0011985420856287013, -0.0003322193706916058, 0.0015775700386749902, 0.0003751458666191362, -0.0014812419843853212, -6.656127912515856e-05, 0.00022505598012088156, -0.0003959338494840137, 0.0011018377180594572, 0.000299079701763687, -0.000374604838240594, -0.0028190986169007613, 9.033197201926688e-07, -0.001785858025938035, -0.0007333544053467511, 0.0001456277731787423, -0.00046161499224187466, 0.0001240240599397488, 0.0002721679005424568, 0.00037702863569257476, -0.00021671119582877804, -0.0011275022802696058, -0.0017274775373398129, -0.0003033599576477691, 0.0008671534327952857, 0.00156557346756572, -0.0008048608929728439, -0.001046832450266284, 0.0017182671812365259, -0.0007636462258810411, -0.0019165286137890962, -0.0007046212588838128, 0.0006758356103184701, -8.393557021511571e-05, -0.000438770081596673, -0.0013979333062922063, 0.0017562114008789445, -0.001151455860880961, 0.000789204866704509, 0.0007778177324519442, 0.0015309700100326917, -0.0007841136898184955, -0.001126273433097871, -2.288862635513542e-05, -0.0007556892993073619, -0.0005083257550372921, 0.0001285339746290033, 0.0015041827296411367, -0.00035304124192549343, 0.0004109166880831834, 0.0019942081151545555, -0.001341403678670037, -0.0004637708989602412, 0.0005087586808630733, -0.0013317112857119148, 0.0004460669209099719, -5.6240178165390465e-05, 0.001326773836442943, 0.00040771107273137106, 0.0008819621762043347, 0.00032190997656878124, -0.000813414042918847, -0.0005656917142747643, -0.0006487090480527049, -0.0005595159675418434, -0.0006398688706713162, 0.00019903153633019376, 0.001179168095165813, 0.0013233489078764238, -0.0003993303477402171, 0.001791856520075509, 0.0026741871601447956, -0.001967208842037383, 0.0026373945556461267, -0.0010399253445876686, 2.8300515021993934e-05, -0.0012664931680743839, -0.00029547532104518296, 0.0012022404377766036, 0.00251743756005174, -0.0018279975641475818, -0.00058845502537213, 0.000588856283313184, 0.0014107283763473107, -7.44259883829295e-05, -0.0012226109579674853, 0.0029857506267528117, 0.001105169115983477, -0.0003110801756628141, -0.0009565167595198819, -0.000983306728605224, 0.0010320415874888306, -0.0017059643115687048, -0.00011834425876018071, -0.0013958900116924388, 7.205580834737657e-05, -0.0003992713980258206, -0.0016098002605227366, 0.0021403049699075774, 0.0004965471685919934, -0.00031869897796527155, 0.0008871085418333957, 0.0018810514630773067, -0.00017935986350357014, 0.0011153908944151936, -0.00042573257866233556, -0.00024478758297382866, -0.0036048543677787656, -0.0003762779731017868, -6.147498884667249e-06, 0.00030929144493344204, 0.0003709878673787095, -0.0021046380517987305, 0.0010020569068969517, -0.0001704009317808037, -4.0640241541270137e-05, -0.0027174952847449857, 0.0016894790259507132, -0.0009558247194298801, 0.001513305063981791, 0.0005667374955715209, -0.0006042295457394145, 0.00024121983402122235, 0.0014916489968271136, -0.0001236179022732325, -0.0001616107404265035, 0.0021020836943298686, -0.00019967603288800152, 0.0004618192539306872, 0.0019370389260342268, -0.0006437341610944641, -0.002463231338374444, -0.0017524741428727347, -0.0008909139499097746, -0.0005411309267392744, -0.001283199686210171, -0.0017790501438097182, -0.00010047275547439755, 0.00016190592153162274, -0.0002486881116622805, 0.0014503122430233298, -0.001494424830727917, -0.0012296432745215755, -0.00043483949557172153, -0.003068991844086854, 0.003881665620923406, 0.0007539097000861516, -0.0009551039255874452, -0.00303900605877629, -0.001003937919399435, -0.0006698251567555265, -0.0014146740956534106, -0.0021337633885586365, 0.0008553889546551524, 0.0013747027779173007, -0.0009784812104801158, 0.0010102007560963747, -0.00027476760831399453, 0.00014513687792981725, 0.00029819159706194026, -0.0002939020944640754, 0.002430718729245909, 0.0021632300110373186, -0.0020532253672563253, 0.0021936455567114132, -0.0012132410681146887, -0.0012617788250682996, 0.0003646843735005652, 0.0019935909620489613, -0.0014219999651817609, -0.0004947399204230373, -0.0001323192667664239, -0.0005607297327958939, -0.0008910524642050924, 0.0030395273504376413, -0.001802114503316398, -0.0009039265386211262, 0.00243946148155259, 0.000490192848908118, 0.0007988755097631621, 0.0018924557906828854, -0.0001981807760150913, -0.0004434626226926065, 0.0017338411049903411, 2.3441270572331872e-06, 0.00017902097261082963, -0.0002449065936343644, 0.001023968270119567, -0.0021451731481521106, 0.00015882962634412574, 0.0015174595492795182, -0.0001578224222169409, -0.0008495797598128973, 0.00043015072951945994, 0.002305605156144033, -0.002786720704813197, 0.0015176609987136616, -0.002377719860665632, -0.00046935813341241324, 0.0004339880328510511, -0.0005427310371253375, 0.002705723524199369, 0.0014365373021930545, 0.0004803719762286336, -0.0015406821101485082, -0.0028405166962706422, 0.00024686857049661216, -0.0015973871808918653, -0.0002945590946442262, -0.0003041022667036583, -0.0012972174679060909, -0.0007574044287662096, -0.00037888444662436164, -0.0020265564233335927, 0.0010558558924818086, 0.0001240686617892179, -0.0004924190391473807, 0.00048758863047281996, -0.0005679028174074027, 0.0011125206930380706, -0.0010907573248955566, -0.00028672832945596136, 0.000873563525722438, -0.0005864429817565553, 0.00046715722074, 0.0002414786922943702, 0.0004389981719727383, 0.0026287113956251335, -0.001613850792580604, 0.0015431177715346039, 0.0006061703385417817, 0.0007900285016981708, 9.652465720758572e-05, -0.001919693196706711, 0.002493535129665508, -0.001336887465095453, -0.0016202742138211686, -0.000621025120621982, -0.0007041694120665021, 0.00023259958091097633, -0.0004891962385474905, -0.0009643490522193965, -0.0005056995523644643, -0.0010196444460482072, -0.00043695668445709507, 0.0018537077914059202, 0.0008669871877736363, 0.001279278738713815, -0.0012850767193924948, 0.0009036294999162904, -0.0021062981241182907, 0.0017601793386243774, 0.002348810759716624, -0.000999352718533179, 0.00040745484437619946, -0.000477676067684096, 0.0006876546805214316, -0.002052179289504009, -0.0006334119512116791, 6.435737047897659e-05, 0.00018489267399930098, 0.0025070280469995814, -0.00013820161343608382, 1.6137470203123072e-05, -0.0005493426499712086, 0.0003748865197256519, -0.0023130684244623795, -0.0009202762146955123, 0.0006840098498441511, -0.0008298880658361063, 0.00044487869093400164, 0.0013699323413382258, 0.0006574558992752807, -5.291879890532807e-05, 0.001097471751554851, -0.00035835755925657395, -0.001262436931313219, -0.0014177467060453638, 0.0010399645335883595, -0.0030562963886914454, 0.0015206298805010017, 0.0006649989620604125, -0.00011590117651381427, -0.0002428032695127419, -0.0008642012209588599, -0.0007392782900131314, 0.0016494352600227205, -0.001082654450043286, 0.000886848658774527, 0.0005094450335702908, -0.0004238520644963779, 0.0008064298206473402, -0.0011447642511758296, -0.002527739267563985, 0.001251280840492553, -0.0003154065323123243, 0.0011426291194780462, -0.0005112042213234545, -0.0004687645021757521, -0.0013835225172033321, 0.0016133178514837858, -0.0011793692237067196, 0.003072538209726715, -0.002659212901484718, 0.0001861618727137248, 0.0011127546465326658, 1.446202324133171e-05, -0.00012382984401098816, -0.0005808359597914111, -0.00015404311909644275, -7.986741207916136e-05, 0.0006147687300433337, -0.0014350993248424724, -0.001870054469772709, 0.001718020280809454, 0.0006317377211790629, -0.0011176936175023998, 0.00039409190321056174, 0.0021579587792262996, -0.0018264389156190642, -0.000853470141764603, -0.0011625665634412434, 0.000875924475288685, -0.0012170711102645936, 0.0015336707943051273, -0.001117162552295908, 0.00010170885202394044, 0.000846352184493323, 0.001167499311449083, 0.00028555059129093074, -0.0015865607613513794, 0.00048092763522692073, 0.0005079903061204247, 0.0006332221037580297, -0.0008467180529391462, -0.000568947642480043, -0.0018246055391333259, -0.002342822138456458, -0.002679289856831282, -0.00014828999466535333, -0.0005124134269938211, 0.0003574462997415118, -0.0007210544109141298, 0.002329147352537543, 0.0020250603075051836, -0.00023099127382718112, -0.0001583879062200694, 0.00012441499936958946, -0.0039378911370498105, -0.0021457617434225158, 0.00038969327357573117, 0.002177975865462977, -0.0023739119268356545, -0.0028518547811609896, 0.0015579819876185336, -0.0010068290110970125, 0.0005941977024528384, -0.00023705070035780088, 0.0022568982989636384, -0.0023299284605378533, 0.002062878366432912, 0.00259076065132821, -0.0014323994624817786, -0.00047475904414800133, -0.0007006842562034188, 0.0014320251198440728, -0.0005389368807301775, -0.0005572868462209046, 0.0028133732018575824, 0.0006955264470490542, -0.0006773734632426626, -0.0028831134168856697, -0.0005227783438922847, 0.0012886467543600313, -2.8117229306532484e-05, -0.000136893671989452, -0.00037740995601309957, 6.859438654923186e-05, -0.0008591023520435021, 2.770944495959885e-05, -0.0006867973460649082, 0.0003707537120698673, 0.0021312151375895423, 0.0010432600775223573, -0.00046013752853221366, -0.0014718217859936867, -8.826060880404655e-05, -0.0005435505069050694, 0.00017465161257270706, 0.001432771423116035, 0.004130924104121952, 0.0019726061441502005, -0.0014420317746367723, 0.0002862378613705924, 0.0018448717411653013, 0.00010552706059222566, 0.0019516769980841508, -0.0031330227811157303, 0.0007288584162794935, -0.0008701021101009239, 0.0002735044872414004, -0.001080368740457858, -0.0005028520061483489, -0.001528753267675355, 0.0012915997905277375, 0.0023153007419278557, -0.0006987860387307274, -0.002821271754109473, -0.0015019050240853184, -0.0017489899978913716, -0.0003038212518683063, 0.0005119460944520327, -0.0005553260295349734, 0.0004945088597180386, 0.0025658101592584176, 0.0003958812135158104, 0.0011794153289114546, 0.00171820448484821, -0.0018867077116077248, 0.0004874443228388859, -0.001507026226761735, -0.0012972210060063743, 0.0018773302950738176, 0.0006173237555479984, -4.617667913330661e-05, -0.0007981498782931537, -1.3294482906385804e-06, 0.0007112451480404338, -0.0003203293221084156, -0.0006077061744200524, 0.0009217285098150511, 0.0008046217823368825, -0.0017129510583688663, -0.00015933575732543455, -0.00020375115123601902, -0.00038589278791157673, 0.0020577903090184184, -0.00032679304344731, -0.0005418958677055733, -7.1195864371319e-05, -0.00017483642327671057, -0.0005083855160573252, -0.0007948496972600728, -0.00021900281612510048, 0.0005807993959646076, -0.0011273332213559974, 0.001585653376885265, 0.002406854362871766, 0.0002683902498495786, -0.0007588051883730904, -0.001954107121989751, -0.001040614401983096, -0.0011805725615202714, -0.002018535766342022, -1.9854636348374834e-06, -0.0013698651725893008, 0.002628835924683014, 0.0018439993291740607, 0.001375460678274175, -1.1207604818481445e-05, -0.0015590025170472606, 0.0002495985756763379, 0.0022410906100221346, -0.0008122913121565377, 0.002100370020663726, -0.00012348747120975473, -0.0011122695089312677, -0.0020557008778921576, 0.0002381736902769414, 0.00031874381203673546, 0.0002078125343264384, 0.0005132357744040423, -0.0016124711036087525, 0.0033750909503577147, 0.0019131190489009616, -0.001702761636016815, -0.0004337663157579116, 0.0007557502044549252, -0.0009251384440117515, 0.0003712892589698664, -0.0018720690468136555, -0.0006431710771257873, 0.0004275660644684431, 0.0005441180748843051, 0.0025480691261626476, -0.0008663769425892293, 0.0009580118161292639, -0.0016623972132633654, -0.0008685179517343145, 0.0011314471704123134, -0.0007937576260296367, -0.0022760399485760234, -0.0017495351043736239, 0.0018571323577285265, 0.001688444092325643, 0.0006732297837926897, 0.0005831397449590035, -0.00012760148272981614, -0.0015399961228666234, -0.0016706078809230545, -0.0005340489377909059, 0.0017479272026379442, 0.0031010569048228035, -0.0015174467929997791, 0.0007111288167670994, -0.0012843963462591708, 0.0011103500737701109, -0.0005941215306760863, -0.00011151572089490465, 0.0004085746734701647, -0.0008127423763466511, 0.0018644697973663386, 0.002357905444378252, -0.0006586719780427679, 0.002400902395306249, 0.0019088824368978753, -0.00014469689807428335, 0.0022843675705619625, 0.0010070565168531554, 0.001282341156234445, -0.002396223962879479, -0.00020774725130299454, -0.0020963797100186287, 0.00015200855380729717, 0.0004595787526608883, -0.0014541308641050537, -0.0011540687161248288, -0.0003930676854987345, 0.0011690563260998172, -0.0004643749702877852, -0.0009269818311479909, 5.164250564055144e-05, -0.0009841343369058407, -0.001583095668075262, 0.0005318004148199726, -0.0004750113066487838, -0.000847525338355007, -0.00017842960423874576, -0.0003978551100836371, 0.0007262138974606929, -4.3938714645566044e-05, 0.000612508386316604, -0.001263000635360863, 0.0008650287972020927, 0.0007263910876230057, 0.0008843343609962626, 0.0033378677348589753, -0.002376414871471662, 0.0023353254549004646, 0.001856200742746054, -0.0021213494490024375, -0.001063386387464466, -0.0004847147131542039, -0.00013703793222880027, -0.0004652572332637283, -9.604283615244702e-05, 1.0694817595335468e-05, 0.0004468860577169642, 0.0010460818643179368, -0.002080462234698207, 0.0008128997504954404, 0.0017190767562581593, -0.002570006856423535, -0.0007658068197993651, 0.0012300415511608002, -0.0005646924681764795, 0.0007734302946464195, -0.00039277317852247996, -0.0019056006483622373, -0.0009810832599732595, -0.0014794909543427508, -0.000920067866835212, 0.002018974025714801, -0.0002621018519828815, -0.0017132483216839203, -0.0007801697255218958, -0.001375779477210527, -0.0020114989327088273, -0.0020390185619463793, 0.0001392693664526896, -0.00042316569742795125, -0.0008636884510488271, -0.00020816034296016183, 0.0008075211079282768, -0.0010858354585479178, 0.0015294233582280785, 0.0010145903964236902, -0.0002174854007120807, -0.00042873795904830843, 0.0011951210165953503, -0.0007729969380314507, -0.00029054431496104797, -0.0002493837655227611, 0.0010203243202999651, -0.0018872731138869694, 0.0007715928574455191, -0.0008884289379833484, -0.0008045147934708032, -0.0015111077261238891, -0.001792770067686714, -0.0002779087925764575, 0.0021015265178620335, -0.0003300245094547648, 0.0006432709981948957, 0.0007679856870220893, -0.0020229246409769423, 0.0028263802975903056, 0.0012158254720559501, -0.00032146328199220023, 0.0029258326070471245, 0.0010096096832660929, -0.002707548015023485, -0.0037130924632096237, 0.00038173214128638263, -0.002072603385040322, 0.00026931689013765404, -0.0036948805247447192, 0.0016418776710726214, -0.001225768512137835, 0.0016932329863785043, -0.0007358447806202591, -0.0009120030388931643, -9.216539977766638e-05, 0.0013828466795850812, -0.0018135578032736392, 0.00015379621549420702, 0.0012129544497225962, 0.0032172205235136485, 0.000428186083547382, 0.001319497495164382, 0.00013612578708458746, -0.000324055536827694, -0.0005715913914567789, 2.9971487498559446e-05, -0.0008220980427119149, 0.0011249442328949584, 0.0008678497180128711, 0.001687133243194782, -0.0009782999932037972, -0.00019307305193459393, 0.0025487588371588227, -0.0015758788961777997, -0.0008737489751159946, 0.0012616838883735475, 0.00017176027133088996, 0.0017233370737827277, -0.0012174187594477977, 0.0026646850987241386, 0.0007300813531460226, -0.0005149340639603218, 0.000783946164051594, 0.0004144198974275799, -0.0007456329867091971, -0.0011986917007474965, -0.0006667115642790026, 0.0014197340315809314, -0.0016676679823069678, -0.0015721006842311456, -0.0007713731534848014, 0.0017493121556299625, -0.0008977603047584995, -0.0008878625603226223, 0.001899196798696171, -0.00045359858878856764, 0.0022764680722001827, 0.0010358808396360726, 0.000762097646898891, -0.00044492376021272384, 0.0016952563652104019, 0.0007959277623657064, -0.001638752235800793, -0.001748518131401011, 0.000807828969359169, -2.958606731301036e-05, -0.0014937200614806086, 0.0008264172505124752, -0.0007569222249237739, -0.0011930562705160103, 0.00026222154527085406, -0.0012211909024337202, -0.0025102008650025012, 0.0020025090445033, -0.0009655580113105069, 8.767282893929184e-05, 0.0006481277725690817, 0.0011306584353407473, 0.0002946586205995172, -0.0018561787294993448, -0.0006141680744903346, -0.0004218597316048906, 0.0011219352064626281, 0.0005781951319382721, 0.0006874096300054508, 0.002829981425634248, -0.0015513907372598859, 0.002420842779717594, -0.0008564310558152503, -0.0012672744941569368, -0.0015383290501659096, -0.0007394407637707911, 0.00032113315242503036, 0.0007670852541175237, -0.0008488680467660877, 0.0002003644897392423, -0.001169248504920898, 0.0021740464312316123, -0.0004820721427741226, -0.0014369903432010504], [0.0015945067306197614, 0.0024484007391405516, -0.0016954360319894927, 0.0019987120379661035, 0.00023214305586542592, -0.0025423826908046714, -0.0010727766805663722, 0.0015252052147488521, 0.0020051488722714578, 0.0011039542121348688, 0.0030308646925774002, -0.002214567932019989, -0.0015507271345335087, -0.0004647851154323127, -0.001167750659958519, 0.0002533842775689177, -0.002192464487794955, 0.0015196228358500174, -0.002069508527413912, 0.00036276251461234805, -0.0005813194420592029, 0.0016457708070564256, -0.0007925530617965041, -0.00010563105121989686, 0.0002400581317106253, -0.00041964822693677786, -0.0027295220376757448, -0.0036878960413892835, 6.771867147377513e-05, -0.00104927433608764, 0.002681815633459581, -0.0018036436437139551, 0.001882934597913877, -0.0010431184456491528, -0.0025970020675679414, -0.0013007797292972313, -0.0022356524514981343, 0.0015863784281521017, 0.005065094911102125, -0.0011833248999568765, 0.0033784122363971934, 0.001580716271126461, 0.0003994161113631495, 0.00026140126506565733, 3.0577672751732925e-05, 0.0003013627393592569, 0.0006135277341777399, -0.002321390432677967, 0.0005492720655540522, 0.0010568637521652163, 0.0005094541063665412, -0.0008189432986787696, -0.0025749512076242206, -0.00040617536751689056, 0.0012847626617401892, 0.00023618210874539809, 0.0017902913597559495, -0.0011089663534092557, 0.0010909476931978566, 0.0007432371840687483, -0.0024491039081701352, 0.0018758317364440482, -0.00015887656744884165, 0.002568315461710508, -0.0005570962894862372, -0.0005294862581324376, -0.0022049068296516867, -0.0009801767421337541, -0.0001237816418598531, 0.0012225491630151353, -0.00120957471206523, 0.0001892640520202871, 0.0039682648468119044, -0.0009990179382261808, 0.0013009025140424157, 0.0007535412365933977, -0.0025059301367778616, -0.0020886774649448874, 0.000993117135395316, 0.0001428773581517196, 0.001179335403138902, -0.0013885518453284039, 0.000970276822958691, -3.738287208224527e-05, 0.0020218468855050377, -0.0010615855495316308, 0.00025401749658764225, 0.00039094049581156774, 0.0011671084296536254, -0.0010757158811724125, 0.002056370292384411, -0.001233940104966268, 0.0012990308748702945, 0.0003379495435185538, -0.0005530856508716604, -0.002409319416703515, -0.002540441648335608, -0.0030887922044693754, -0.00037870681435161265, 3.137544367913954e-05, 0.00025838781405064515, -0.0009705038347813591, 2.0016629881442594e-05, 0.0026408193632151797, -0.002329157232315626, 0.0016206236385386465, -0.0007112111085037221, 0.002614119844905673, 0.0011317506979839384, -0.0006169270975850439, 0.00039449628110254173, -0.00024576758150324544, 5.206198468381235e-05, -0.0018003519218675577, -0.002223681770497848, -0.000977170614887997, 0.0003868866861723719, 0.0007391098958930192, 0.0013168447661476331, -0.00030071153696721765, -0.0004180016129898998, 0.0002647412306993094, 0.001086746334844729, 0.001796191842702789, 0.001852938422553336, -0.00026553938772876356, 0.0017092716700492512, -0.0008684483540318493, -0.0006974074978303284, 0.0016327864662455986, -0.0026699991417786957, -0.00037339217667577596, 0.0029301709104604993, 0.0018928624951354222, 0.001227471216476657, 9.903913044088356e-05, 0.0005253996648192294, 0.0001551675910047149, -0.00011397394264263325, 0.0009690376600480358, 0.0006007956621984002, 0.002464333580806181, -0.001513866221078297, -0.0016441514435915454, -0.0006236328935477711, 0.0003457756460935217, -0.0021322063842249177, -0.0010910583110628081, 0.0030678252188181096, -0.0007108762429276827, 0.0007368438527236507, 0.0029682358268021958, -0.0018796990663206786, 0.0001396266346102812, 0.0010351980879501651, -0.001681338013143032, -0.00018333395051584142, 0.0005035563757842368, -0.001872145970179837, 0.0006773006832540612, -0.0035693532006536013, 0.0020043977548455396, 0.00046606602043459207, -0.000590752371193629, 0.0022785763212966026, -0.0012156497654669293, 0.001142526551165637, 0.0011225477394305391, -0.000194102225319693, -0.00043927543443065436, 0.001197425941932719, -0.0005469135287219387, 4.054654447802712e-06, -0.001347698570055336, -0.000626065723446168, 0.002333328191759426, 0.00025429406656695037, 0.0023340815540351272, -0.000907068101097538, -0.0010899692527461297, -0.0024922269350068065, -0.0009343731016117942, 0.001163038482044999, -0.0009688952284778369, -0.0009794498149046722, 0.0004050896975576016, -0.002262339281778497, -0.0012897299982756337, -0.0010412279481431534, 0.0002826787779999074, -0.00035286066605278734, 0.0008132523438668196, -0.002333046509710942, -0.004286610748246633, 0.0006052938830081457, -0.00109935441297124, 0.00042646063993690444, -7.497583098450884e-05, -0.002102330641480352, 0.0004261363566424749, -0.00010092783382258397, -0.00012463411037038155, 0.0004826076737204317, -9.789179451993369e-05, 0.000634331993993198, 0.001311005600718762, 0.0005649631110254533, -0.00039915299608803253, -0.00012110048438589347, -0.00022618502732985922, -0.0022396013544666356, -9.387576896721253e-05, -7.625162591782187e-05, 8.746969163117749e-05, 0.0031533221558932307, 0.0010802928449259062, -0.0005433722631089438, 0.001557256827145789, -0.0015436341031825566, 0.0004264541171980148, -0.0026150277193296824, -1.1236277517428123e-05, -0.002236697285237903, -0.0009904796997135025, 0.0018756790784869803, -0.001567644939847015, 0.0004931770618364047, -0.0014174683248421517, -0.00022931459032641855, 0.0009122058794490404, -0.0013895571892243318, -0.0006563593032723692, 0.00032597640285055463, 0.0013445388590169883, -0.0018231063676179915, 0.005213824287053319, 0.0015885569616781985, -0.00028961068738364706, -0.00032855056343991906, -0.001947424922333137, -0.0009370755225921626, 0.0002442579251639991, -0.0023129622697544453, 0.001117192185682855, 0.0019104064995464163, 0.001511959030925478, 0.0019882210255451837, -0.0017888700088238864, -0.00037605510437934445, 0.00020693490830139968, 0.001982891600285211, 0.0003816299346615369, 0.001565246202428142, 0.0012066832415984765, 0.0005345488574199032, -0.0022196846756920028, -0.0008596073907736891, -0.000784325668428748, 0.0008259107140281787, -0.0020129600339292885, 0.00284665382938685, 0.0013546262782769473, -0.0009724567536324373, -0.00013785403973702725, -0.0011789125931789472, -0.00047768017088500013, -0.002017383768988928, -0.0017496631806570072, 0.0005938255675957587, 0.0007656898836494406, -0.0009779676471204611, 0.0005079496519623771, -0.001785197313420562, -0.002622920021815701, -0.00035394743218365775, -0.0002031007617193138, 0.0004785929174793066, -0.0006573029514052481, 3.766635303343963e-05, -0.000985089564044696, -0.00027985251772027765, 0.0031531867838172785, -0.0008715666332507839, 0.000901873736442192, 0.0009262487173771868, 0.0010331454317499698, 0.0007359483325592113, 0.0012824486707685241, 0.00025448188289609595, -0.0024555336164176667, 0.0008703127627997207, 0.001798303680134217, 0.0011721039407094065, -0.00026221423841134826, 0.0027460751876919698, 0.0006109887719324508, -0.0014058792097906684, 0.0007751714240464017, -0.001663568074835534, -0.001778497359106058, -9.734125897346578e-05, -0.0022374501093178046, 0.001940703273396844, 0.00015758732025451995, -0.0002922150806055654, -0.00016321309925596846, 0.0005675931537761677, -0.0012552722367830474, -0.0009459831591156434, 0.0007131482776207579, -0.0007062017207677185, 0.0005995190368404869, -0.0011148494210400535, -0.0008685835194460654, 0.001138850773170673, 0.0020940524541200427, -0.00013685566648265012, 0.0008359437730706832, 0.00028959180534284006, 0.00037650970824624553, -0.001411847209618117, -0.001661412682534078, 0.0004285006117106253, 0.0002998792946880534, -0.00025078699717712605, 0.00028178074834548045, -0.0006054611147670572, 0.0006320148244926613, 0.00044424980161226124, -0.0008661739341136442, -0.0006340099710541579, -0.0008731734175492241, 0.0015504531801065686, 0.0011028287282235975, -0.0011229221986626373, -0.0019953481601212167, -0.0016499979860086272, 0.0008493685714513408, -0.0011660834782986024, 0.0026955720309413136, 0.0011278854320444923, 0.001979740490278902, -0.002492123370128795, -0.00018525908905250784, -0.001919421346912751, -0.0020662636613289578, -0.0007696248372525166, -0.0012146533291659272, -0.003188075178779127, 0.0015890333240152434, -0.0027078251029550183, -0.0016457043744169068, 0.0005125301716226932, -0.0009607748972716402, 0.0012256503225660138, 0.001991247897101293, -0.001580999126630683, 0.0008098985792323614, 0.002413801862337169, 0.0015148464686637597, 0.0011260073710554238, 0.00036883164590692844, -0.0034448192818050034, -0.0008335349466661699, -0.0013492092076350516, 0.001980182724363086, 0.0005951961971783056, 0.000896507025632332, -0.001391696885104419, -0.0001911065210474718, -0.0007979144664887817, 0.000648859636090065, 0.0005945257814653209, -0.0014311912147619281, -0.002868817439769767, -0.00017422584593452563, -0.001579851517270719, 0.000695758228340368, -0.0023292065983560825, -0.0005873387235929593, 0.0005097490776210962, -0.00013110832853535092, -0.0006913629342044643, -0.00032755887815991895, 0.0008547010522870922, 0.00028022428410072605, -0.00186754622790865, 0.0006734415941504671, 0.0007068402560845298, -0.0011295092416315803, -0.0012425067982841061, 0.0018145547940436272, -0.00024379728450652305, 0.002220703432314515, 0.0011945394092279398, 0.0006962115491860887, -0.0013217133688697355, -0.000807130163630122, 0.0002659881264460024, -8.424896447148702e-05, 0.0010309544827354692, 0.0012977112277861396, 0.00010662580263680449, -0.00043651532295568976, 0.0027269298581927576, -0.00028318872614845796, 0.0007021275970542944, -0.0018501692366169372, 3.795292267534161e-05, 0.00022088799705144926, -0.0007100684189829909, -0.0016120217134265053, 0.0006291501975243789, 0.0011543426852248888, 0.00037656654223610297, -0.0009592673630302963, 0.00017119775907961456, -0.0007697817259558938, -0.00035743974353412124, -0.001725739885781185, 0.0009595335823544371, -0.0016057805666001652, 0.00023382370833723918, 0.0036384563408492273, 0.0004782508447721004, 0.0007454098631385125, 0.0002617667193749663, 0.003702511134624931, -0.001242108033495456, -0.0015586533241244713, 0.00016894853146555842, 0.0010326698446664314, -0.00022190910021520132, 0.0012936806305906795, 0.0003271030895554665, -0.0008092704800242838, -0.00019444212169589185, -0.002167171119736258, -0.000784793958270138, 0.0012177944979471376, 0.00036099736916046077, 0.0025991047256978257, -0.0012697218556576107, -0.0008813590363640224, 0.0012210001322198903, -0.00039486255068607796, 0.0006455699289728206, 0.0018843978482337123, -0.0006884388047253476, -0.002362485676517783, 4.711526134436581e-06, -0.0015410575698128935, -0.0016661036584165896, 0.0003956019083824575, -0.0014192008320342408, 0.002051578899241015, -0.001496182376516894, 0.0003689685501333784, 0.0004361954312812912, -0.0022236991379859018, 0.002193491813357373, -0.002218006616265853, -0.0003331147576185177, 0.0025564114240134205, 0.0011444050910934566, -0.003159307279888488, -0.0005896499629710261, -0.0021324938121838346, -0.003310429383203517, -0.0014269970997441686, -0.002246044953927171, 0.0017163448039850665, -0.00210949453498375, 0.0026860554686336485, -0.0017436779193825218, -0.0003931765137398007, -0.0002124246891120909, 0.0009704646493682887, 0.0002595263219817609, -0.0008725255473208154, 0.0007136309321219257, 0.0004631325284645624, 0.00038174260167603996, -0.0007243728563579457, -0.0006592408968682989, -0.0006283666707525921, -0.0004205610307258491, -0.0012356044081305866, -0.0018957288604181566, 0.00254158634354132, -0.0023291633233161074, 0.0005736827751329871, -0.000858381901339503, 0.0004020328912472858, -0.0013186194023385369, -0.00032297248123066256, -0.0002528835466010585, -0.0007909089107588761, 0.0010292734554647356, 0.0017289939960109396, -0.00046533006859133814, 0.0007008631087257533, 0.001806670538161226, -0.0008740078349852963, -0.0026246294058100135, 0.0005322178148722642, 0.0009985234114365422, 0.0008392097142102971, 0.0001280691400416516, -0.001809276662131094, -0.000696291113271281, 0.0010002756825397761, 0.0021212473161805207, 0.0018123716987051926, -0.00016887204050829705, -0.0012884107717731732, -0.0012836289866534837, 0.002322266423083149, 0.001129407517183438, 0.0019614315371332346, -7.20576461726546e-05, -0.0007788343311985094, 0.0005743506648399153, -0.0022260287279687483, 0.0010010184485884786, -0.0020612081015835173, 0.0015042034349118211, 0.0006267166070935991, -0.001201357660583089, -0.0010701944686442677, -0.00019420573151485786, 0.0020948181563494083, 0.001388349131375763, -0.0004058706372366287, 0.0016435879975831764, -0.0006526865834581684, 0.00044252472981841135, 0.0019105935677354842, -0.0006925754305928216, 0.0015920046054450042, 0.0019460659249899658, 0.0004678200452305497, -0.0004835765488088649, -0.0012734981787074935, 0.0007352484215973939, 0.0011624131743440491, -0.00018805103790349434, 0.0004785755707106922, 0.002003615323056482, 0.0020503723525666234, -0.0008891749936185587, -0.0007819079349096158, 0.0009550521124237191, -7.71215080559161e-05, -0.0008791566596334852, 0.001696599630268858, 0.0004015056149542915, -0.001357821115637192, 0.0010200513211800417, -0.0008259247158324316, -0.0008734042286482471, -0.0013950203064306153, 0.0030803653519725013, 0.0011935507125206222, 7.288850843642547e-05, -0.0009401659598845866, 0.0010691652057327036, -0.002842655638282644, 0.0006052144966455248, -0.00039379527479717146, -0.003176639351615842, -0.001422759805786335, -0.0016930685944129152, -0.0001601129059317119, -0.0019627403670148444, 0.001967582747027851, 0.0008334337029129687, 0.00153567988897783, -0.0016032317588145974, -0.0012317681455013786, -0.0016683191502147824, -0.00020853142762905543, -0.0016872031564959052, 0.003647984524494352, -0.0006869179996409205, 0.002220153443516246, 0.0012312907639415868, 0.00186223684080838, 0.0012427693568215603, -0.0010016981714956537, 0.0010692394044134383, 0.0019458854161732554, -0.0008852857785003953, -0.004118541141712879, -0.0005500398363093585, 0.001669741898385038, 0.0011392719785186358, -0.0010666077984893907, 0.0033278831057491297, 0.0007790904051801831, -0.0014566526359677395, 0.0022224339937413945, 0.0030621630176313583, 0.001858439824390469, 0.0011324228932402852, 0.0013470697480486625, -0.001297993060558648, 0.0005504633199584991, 0.00010964478179097324, 0.000388810110968717, 0.0025995731628083766, -0.000260014126534576, -0.00075682030414741, 0.0009130584635331483, -0.002417792881443558, -0.0004954244616660205, -0.00024158352117891127, 0.002743841838541349, -0.0003134928730680075, -0.0011575926562879116, -0.00028905352020822426, -0.0008294344290552184, 0.0009835669050389376, 1.3229725253002414e-05, 0.00045141956306936825, 3.1899070014921636e-05, 0.00011033521817620585, -0.002075986786295052, -0.0006748153870534521, -0.0003009431709082644, -0.0003505605241055576, -0.0025530978207235757, 0.00044132204285270827, 0.0008289425061507992, -0.0018141066074297192, -0.0013141242342413222, 0.002096061384963831, 0.0006241969227516024, 0.002755468662036764, 0.00029949253518922096, 0.001266278700838681, 0.00030857714015405284, 0.0003823173154712484, -0.001970681321368243, 0.00032248833916497134, -0.000624609241306935, 0.001811805412955964, 0.00034984554539114647, 0.0011011285429648196, 0.0003854773158842746, -0.00043471407959816676, 0.0012029910378933415, 0.0005752239504563988, -0.0022918206640357396, 0.001778769897321017, 0.001159684699302128, -0.0012388823759972218, 0.001527042517476041, -0.0005527240637229165, -7.57347693657774e-05, 0.0016627530147441687, -0.0017560913247365668, 0.0011067557594967843, -0.000897079655065607, -0.0033744359120108543, 0.0006918578138047219, 0.0016503170844093713, 0.0003146785395005193, -0.0002576398260002783, 0.0008318649647447703, 0.0010096280491096931, 0.00045824455147727244, -0.001433764252903298, -0.0008512957057105375, -0.001374088072905064, 0.002516009590261313, -0.00024354230258210764, -0.001720511490900426, -0.002238134094314803, -0.00150197471297554, 0.001225604692720628, 0.0009726539024631176, -0.002004208519280388, -0.0012365408934841254, 0.0001159771639174552, 0.0002943059529369725, 0.0016685342397608444, 0.0009157468426335541, 0.0033551403559844606, -3.4547273230828435e-06, -0.0005659032625230507, -0.001495360382171414, -0.0013177030322269842, 0.0008418745493067304, 0.0001746233594723703, -0.0003105719379649199, 0.003190643427101446, -0.0008383852163534335, -0.0020344821164222583, -0.00022272885881292377, -0.00024034382130540594, -0.0005829744482659436, -0.0003520763662256339, -0.00024226341511592625, -0.00047108312910969387, -0.0012833683619107414, -0.0008553204036599756, 0.002430809456117395, 0.0013659526043511745, -0.0007596819307384912, -0.0014491178111965004, -0.00011471503851203955, -0.0012386924114284295, 0.002722272522029708, -0.0021113512996930534, 0.0005706114883040562, -0.0011704278062770561, 0.00051794752262236, -8.007368599260066e-05, -0.002336367128759068], [-0.002611366582236078, 7.575384979549135e-05, -0.0019061047642931343, -0.00016853971485435555, 0.0009106748162983223, -0.0021884363568623597, -0.0007351355158236812, -0.0007646155196629381, 0.00042908578737691584, 0.00037885292525475747, -6.041386396460303e-05, 0.0011825292263998295, -0.002801494398923387, 0.0015456560361357702, 0.002889294770341986, -0.0005868718076174863, 0.0028159990428757715, 0.0005090497804104672, -0.000689029382835437, -0.000317373441823, 0.0007128609578784613, -0.0008681394293790371, -0.0012878078594048383, -0.0008042558530300026, 0.00232766177287236, -0.0007004005176377606, -0.0015121826186912939, -0.0016816612784339845, 0.0008105321650629876, -6.021688823703335e-05, -0.0017119424357028416, -0.00010845284713786829, 0.00032765207545101674, -0.0016100754649801946, 0.0003626799664695171, 0.00017473312129370552, 0.0017519325679699077, -0.0012746760794999563, 3.8070917804352185e-05, -0.0025828716173560955, -0.002112106050843935, 0.002381813655635232, 0.00011846549668028761, 7.542590579256016e-05, -0.0002320711090954906, -0.0012686891130136338, 0.002983739427504524, 0.0001885433610351536, 0.0005917984817210045, -0.0011370408556613245, -0.002732671468987234, -0.0012289371431789646, 0.0007521380572428816, -0.00041009530866370383, -0.00042659045954710287, -0.0027071109838317504, -0.0004614582050813399, 0.0003108904971295844, 0.0016961147860073893, 0.0012981405841849534, 0.00041230452129917223, 0.0016532664934995817, 0.0007985117316390801, 0.00041127716238881505, 0.0012945652512321663, -0.00030673919514554034, 0.00156168732727368, 0.00045557411964101464, -0.0010774156665516836, 0.0008880239226757529, 0.003443447116071062, 0.0011908087417900528, -0.0005207175083583575, -0.0012896040603864276, -0.001888244650250476, 0.0005005972331375612, -0.00026180705411772633, 3.0100701050928917e-05, -0.0026078312110649087, -8.742666083074105e-05, 0.0017555442541301515, -0.0003565657347743489, 0.00013112594405964136, 0.000586689117276913, -0.001438233768233849, -0.0002809365661223172, 0.0006721915216729152, -0.00010555032749636566, -0.002791969906931557, 0.0008722688986726567, 0.0011788701867447642, 0.0027985440997152465, -0.0019491652801858462, -0.0004148630891235797, 0.0015691017113173232, -1.4207653381276309e-05, -0.0019453207335840426, 0.00023406791203175981, -0.0019548879895497045, -0.00013819740715294423, 8.01718354664877e-05, 0.0018327567668225862, -0.0009257090275517711, 0.0002179854613892644, 0.000262821194194947, -0.001708624308017664, -0.000631659719713983, -0.001244137232947715, -0.000614118644290315, 0.000651118034812985, 4.2834149230997165e-05, 0.0011253216337814, 0.0015404848723682386, -0.0006421868089485611, -0.0025575320277910728, 0.0003660581028834037, 0.00018988247702026028, -0.0007661548676220545, 0.0012721329671097107, -0.001238789408603943, -3.80756303957001e-05, 0.0013584806698296043, 0.0008911353004021182, 0.0010321756920427996, -0.0019246502857719083, 1.0929340346796901e-05, -0.0005980809049090587, 7.133400538262609e-05, 0.0021174708626534406, 0.0011273123230040106, 0.0018535847196343258, -0.0008646099038005392, 0.0017745371803145477, -0.0014675890613959806, 0.0017968706865375697, -0.0009093115548912844, 0.0009100441859574, 0.0010092169765917773, 0.00042203207395627136, -0.0012322580765249608, 0.0005908106256437107, 0.0013685334268609204, 0.0019318121832735179, 0.0012084987722017209, 0.000534315858288697, -0.0012685929162148711, -0.0012757109828330612, -7.551980577746663e-05, 0.0012972646180899024, 0.0012520754292133656, -0.00021272018954144418, -0.0003461903302537164, 0.0015564136174676235, -0.0012216819236135412, 0.00023707502303161546, 0.00016953962237121285, -0.0012878752709943953, -0.0012347336924680972, 0.0007447401053257797, -0.00017729191838266163, -0.00045397392541352927, 0.002018941407245284, 0.0013478202294723673, -0.001930242701455741, -0.0014020757439020337, 0.0007739187217569757, -0.002017093055193128, -0.0003069797866368646, -0.0007994145500281657, -0.0002710937511641096, -0.0008462111531318249, 0.0003649437679138545, 0.00038396644222125627, -0.0005586509784291098, -0.0007722519014801861, 0.0007492516274361788, 0.0016141015885192099, 0.0002883574511537224, -0.0004997655452133704, 0.0005150847921866919, -0.001386196573090414, 0.00040536239663818994, -0.003983293474519292, -0.001254583006486685, -0.0012326407339111078, -0.0017898613032229652, 0.00026778927947279906, -0.00013385006148170913, 0.0010028920225249247, -0.001890574277609631, 0.0016807258875250885, -0.0005815753148485997, -7.812188369223299e-05, -0.0011598460377075554, -0.0021897655237643177, -0.0009220302931895082, 0.0011914941543085507, 0.00196325376687461, -0.0016377823091719434, -0.0015066733042045062, 0.0015612693028607253, -0.0021310340099114735, 0.0012869052409120879, 2.1913154238015492e-05, 0.0016020862891807065, 0.0017194757876679038, -0.0012391395825806883, 0.0009602473851373622, -0.0005616590350654298, -0.0005808359505490024, -0.0019062282161240193, 0.0010392579292402867, -0.0013747883652349452, 0.003254314341058439, 0.00036763904865744364, 4.9118718821056666e-05, -0.0009409469444633975, 0.0008459455639419268, 0.0012300516917909017, -0.0002864097907525882, -0.0004363161758688978, -0.0017956407009142117, 0.0012816825462905583, -0.0022771434869605124, -0.001553449013555693, -0.002583156462432058, 0.001005056722140093, -0.0005149931411900598, -0.0007492024914361493, -0.0005426350063158819, -0.0012876454830674563, -0.0008782413227969342, -0.0003780806811673296, 0.0024801910354036844, -0.00163997874874199, -0.001145530828182339, 0.0016262564844140518, 0.0011831718252377564, -0.0020033052650407536, 0.00010821756874732815, 0.0016590130274617282, -0.0015498860345915032, 0.00343882441344794, 0.00015794487572020667, 0.0008004333791973051, -0.0003143754806645549, -0.0007988023599829722, 0.0005592395620029378, -0.0020027362082686924, 0.00011321616321581919, -0.0017936420669797267, -0.0008399885942873785, 0.00041128295661111905, 0.0005046494053320595, 0.0004837289772342185, 0.0009571175346372514, 0.0002015724583882184, -0.00041944547570904156, -0.0003333808244061663, 0.00012141543058872589, 0.001899807092351689, 0.001433273453277684, -0.000412360550620829, 0.0002468792426768337, 0.004433715998910376, 0.001717446182192178, -0.0025861958445642028, 0.0014822132543999983, 0.0007851116754371134, -0.0002679592435165771, -0.0007487148414749013, 0.00010324334844511942, 0.003005994619612407, 0.0004276972439786578, -0.0006820408988718391, 0.0008360141322685676, -0.001447185403170521, -0.0017743600430823378, 0.0004753110475639943, 0.002506590751071783, 0.0015344707457893157, -0.0009264088837633609, -4.0529223215159306e-05, 0.0003848357020990741, 0.002004342669149054, -0.0017696271827848655, -0.0010985761957361, -0.0007819032474515453, 0.0009079160525992963, 0.0034621615647188516, -0.00010874860120114882, 0.0011448391748593867, 0.002700243753389527, -0.0020040690693007746, -0.0009699281146927937, -0.0010250721937827096, 0.0017611144714176027, 0.001727517199070223, 0.000530384473749118, -9.405668512325088e-05, 0.0005486583402501431, 0.00037346351488798304, 0.0005633577939139641, 0.002030206870059848, 0.00268157945295123, -0.001246607617548041, -6.975225693749325e-05, -0.0002947316538577551, -0.001116425668775914, 0.0023267809829687507, 0.0002307208198407217, 0.00018082826824432244, -0.002219655996131876, -0.002906116088642937, 0.0013900349220760055, -0.0004332960160548496, 0.001269680517186394, -0.00023809772837877518, 0.0004098598184839074, 0.0017703165313981565, -0.0011385857878682551, -5.37976294136326e-05, 0.00026417108856189344, 0.00020364427198064607, 0.0012184041434430022, -0.0012771301783807917, 0.0011409413822812103, 0.0008193465414157482, -0.0011674325451709422, 0.002598824813662639, 0.001287041820710708, 0.0006678877460808602, 0.001231411735420949, -0.0005823127719984158, -0.0001360868093500502, 0.002271269643349094, -0.0005367409488087656, 0.002121069690127479, 0.0029531591787504818, -0.0026887556217208997, -2.236026602301189e-07, -0.0012688347826977139, 0.0010350860011156865, -0.0003064618140629615, 4.5760547961639966e-05, 0.0024965750989663716, 0.0009264336413040227, -0.0013399568271359023, 0.0009573593643782222, -5.982856447200415e-05, -0.0003747985155893875, -0.0016785795462069596, -0.0019398740980038883, -0.0012624155122565772, -0.0014511511253312793, -0.001402697476438447, -0.0019123786115451758, 0.0016118453874148808, 0.0018768113562400543, -0.0013606050565262435, 0.0021966549316023375, -0.0020702960561732125, 0.0006159788560041155, -0.0003071795665781718, 0.0006379426827906809, -0.0006431700721347897, 0.0009406710858288222, -0.0009107297588719226, 7.070466718710777e-05, -0.0001499418909746866, -0.00032564993895931206, 0.000472143980631959, 0.0004781216535746743, -0.0006581718339382576, -0.00039980197884908466, -0.0004927417561522239, -0.0013374168891802751, -0.00040784237322367294, -0.0002967910318411813, 0.0006912420007116748, -0.0017632617270975516, 0.0031893034817662346, -0.00013037043522109548, 0.0015798403061556723, -0.0028121415003930133, -0.0004613947854021564, -0.0007588913569229512, -0.0015432549890051046, -0.000887872662252388, 0.0015599241466324677, 7.030420009998623e-05, -4.752312346000742e-05, -0.0004487458058290378, -0.000678357666738551, -0.0012753417666883198, -0.0013284406049476132, 0.00017060644917654032, -0.0009495578147476527, 0.0012674385273609787, 0.0007915917657868205, -0.0007219740051769176, 0.0017155431320814074, 0.0005732745575237981, -0.00046596784310648455, -0.0011286971821682168, 0.0022416869704020926, -0.0015131999812296802, -0.0008697963950591871, -0.004126555517735512, 0.00020395032772197106, -0.0010669427709247073, -0.0010679856928326188, 0.0008383477533024392, 0.0015364424971886933, -0.0007509232973125368, -0.004089847145319482, 0.0024094010533769763, -0.0005964892920649641, -0.0007790405170270523, -0.0026036054746431145, 0.000400898004372757, 0.0006326801166519223, 0.00114992802957711, 0.0006865339366095186, 0.001990220712594143, 0.00014870242137500153, -0.0005422241445376446, 0.0014389624278986605, -0.0008219904331052509, -0.002724984783473431, 0.0006696405547909564, 0.0013216104919560453, 0.0005177739470148357, -0.002169037507945659, 0.0018873528843057067, -0.00123510980073759, -0.000145634471268048, -1.867922408261508e-05, 0.0024042200164855142, -0.0002995563060835225, -0.0009035725588571418, -0.00045691089958089094, 0.0005713048024118039, -0.0008598537737658353, -0.0030938129585161614, 0.0006005408416504056, 0.0007896967614646825, 0.00011893620057585031, -0.0013953359688582373, 0.0001583898424282665, 0.0002932066063250504, 0.00037245800741003585, -0.0024828149166882117, -0.00010612202684598507, -0.0009662692828060187, 0.0007693148409658575, 0.0042366396964752095, 0.0005511790223073821, -0.0019294596630177003, -0.0005743773455817805, -0.0007591382119232135, -0.002194861542049686, 0.0013556031547417872, 0.0006980877515719252, 0.001045788263432082, -0.00112385780597171, 0.0006313001820936283, -0.0014910755999228969, 0.00013728181856284013, -0.00034564099201830006, 6.438939888862066e-05, 0.0006118508793258524, 0.00038513737306372804, -0.0011095238530144963, 0.0040510749765891784, -0.0015908314814461438, 0.00318991886899422, -0.0017697658635347738, 0.0005416181162758579, -0.003231982769023085, 0.0008420805282032762, -0.0012243232246298588, 0.0009964882932170678, -0.0021449993952915103, -0.001173106362485646, -0.00028586394681338775, -0.0016312705364527798, -0.00045635302314305106, 0.00023708417174858032, 0.000730015755763408, 0.002459454592308992, -0.0010932822754515545, -0.0012438581341963095, -0.0006716472577501223, -0.001755566033011147, -0.0009357228992882336, -0.0006617992903794289, 0.0013104061716528667, 0.0005096012552539965, 0.0016882517647156575, -0.0010895472623989213, -8.526011362868572e-05, 0.00038850432517961096, 0.0003988623597615859, -0.001254397640827204, 0.0015155059324423797, -0.0002504751034101357, -0.0021371719976751268, -0.0004683359542955218, 0.0011782065393376995, 0.0017006563283556927, -0.0001498354428713171, 0.0027115953750306196, -0.00038279159612937704, 0.00044148904684274717, -0.0003863672328662864, -0.003530412517025649, 0.0013367219228062467, -0.00010773182249489166, 0.0022543937399908797, 0.0002160687894643689, 0.0014017837943215857, -0.0009186034773638988, 0.00033255852239254534, 0.000952105283909006, -0.0012503774886435232, -0.000668925350910142, 0.00018926532557687938, -0.0016741739654575166, -0.0024149526359564205, -0.001329715071876212, -0.0005134436027495435, 0.0012246594740300536, 0.001633101255454906, 0.0009604299028567375, 5.6866901539633176e-05, 0.0011297834211379512, 0.0021066973888296146, 0.0007083945373855616, -0.00010653153821833955, 0.0036603304903778705, -2.6040648464662526e-05, 0.000982854101039415, 0.00044853438043670785, -0.00032742630975869343, -0.0006154289787648704, 0.0010054849180169904, 0.0019404533796284452, -0.000368317646958641, 0.000585063651071824, -0.0015708339922407223, 0.00024069710120466054, 0.003222080318083729, -0.0003779971420835022, 0.0003297452807746066, -0.002810094696551663, -0.0009685397058483188, -0.00028573397411429827, -0.0017571557478890212, -0.001234273572556593, 0.0017443954589342423, 0.0008982379554664529, 0.0004301801906343597, -0.0025548481473958687, -0.00046896659178340957, -0.00015380916712105146, 0.00027424453896488676, -0.0006795629435863318, -0.0016544609624738408, 0.0003241100986460979, -8.859184471441785e-06, 0.0001481798426737584, 0.00011985919767762033, -0.0003608463569571303, 0.0014081839392963654, 0.0002695862377218552, -0.002284611679162936, 0.0013024934870960454, -0.0010009702397631704, -0.0003016824348709882, 0.0017100939990142112, -0.00022709754003982406, 0.0005047599818650493, 0.0007201419559007628, 2.0232114225195907e-05, -0.0006241059188088773, 0.0008937928107928974, -0.0019235864663716899, -0.0010503515302575056, 0.0012990863440987478, -0.0007179908907591631, -0.0008122108665409565, -0.0010822193820365803, -0.001296612619864973, -0.0008363082882746491, -0.0017956570935830194, -8.073113567500444e-06, -0.0004422767830367487, 0.0018791629429447069, -0.0010283201450868966, -0.0007662571524926126, -0.0002641516745971218, 0.001911353728955692, 0.0015916571872898956, -0.0011912495978402301, -0.000679812480697938, -0.001829545033884641, -0.0005552774876060623, 0.001815518484165609, 0.00025636012629926935, -0.0023843310518503096, 0.0003276262796731103, 0.0018983976700100616, -0.0018610195171571383, 0.0011771044931635725, -0.00025018174329968074, -0.0005386824334773624, -0.0007727415390751821, -0.0022164005049404487, -0.0010422076568190554, -0.00045513745587591616, 0.0008720967941632586, -0.00047910823922731093, 0.00037402166654063116, 0.0007205443167332499, 0.0018550493169977123, 0.0011530363350785216, 0.00255887185132612, -8.95415989135312e-05, 0.0018788792911659314, 0.0016519822901471088, 0.00021170568266744348, -0.0018897702435087464, -0.002115204530195524, 0.0004272289455298737, 0.0013267250335976491, 0.0013682153049458655, 0.0003407776240369492, 0.0007121437801130695, -0.0003842207172922489, -0.0009884523082616602, 0.0002810973976623843, 0.0010905625184595062, -0.0033325751558080253, -0.0001716525053202059, -0.0008187277725748108, 0.002514277327822466, 0.0005815594211871512, 0.002710339861379291, 0.0012414932767177275, -0.001017304341382541, 8.961055567975808e-05, 0.0010285648743120434, 0.0006747040710730729, -0.0006252282097933643, 0.0027363773275320166, -0.0010676075517741816, -0.00015218471322562597, 0.0014729110891527396, -0.0008824509394292943, -0.0020631999675009413, -0.0005798186797388168, 0.0013159283903145511, -0.0017151016375550768, -0.0009704469270992832, 0.0008854942159146875, -0.0003312817152062166, -0.0009644289226940988, -0.0013450559943891291, -0.0006357309240828615, -0.0028407130370096136, 0.0003104961169045929, -0.0013934716205960859, -0.0009294075795801408, -0.0008748450707540837, 0.0010557394748950861, 0.0016687959566460992, 0.001619551251238349, 0.0003560765882754102, -0.0009193020675412505, -0.0025538196304958466, -0.00014698841423790046, -0.0015384093301972588, -0.001774131929257652, -0.001890632769903547, 0.001097973677436868, -0.0009189147112504239, -0.0015996534625667233, 0.0004996840763324438, -0.002359832985899347, 0.0009449455649493806, 0.001972685335830169, -0.0025719593153065777, -0.0022974975865560766, -0.0007722016136657468, -0.000807223803969511, 0.00015854754401958593, 0.001160687799388455, -0.0014382423468195535, -0.0023049646151679162, 0.00032164199349671107, 0.001961883309775193, -0.001069014995751219, -0.0005548846939737083, 0.0009455118910835532, 0.00022525610369975176, 0.000449907713085594, 0.002415340055984067, 0.001704119418808167, -0.00036381851204767446, 0.0004815987679018546, 0.0011868090974174444, 0.0010032134600595087, 0.0012552406138494256, 0.0010520069366052568, 0.0020865464698235393, -0.0008101057515918661, -0.000519191006935991, -0.000585923076189684, 0.0013578540255147961], [-0.037456270359656506, -0.05304446279727857, -0.05951453107081619, -0.056998400062070013, -0.026706816983100012, -0.052871090851770504, 0.0133634788638443, -0.03929476445845243, -0.043016405272939165, -0.0057726369778413255, -0.05634446267451965, -0.0730384479931072, -0.04535622792531371, -0.05518509446201539, -0.07052463220172468, -0.021060282900590088, -0.034557016060203206, 0.0022359745351799446, 0.0036511962539795143, 0.00019702252507961443, 0.05698658619981726, 0.007183478215308849, -0.022729121010896233, -0.07384692748779198, -0.05300027711278732, -0.07661535630189555, -0.09530429779908321, -0.050376542111048396, -0.036107589073119103, -0.016117837653114805, -0.006225745242785853, 0.024923367476803522, 0.014336221626740184, 0.0058391741758426, -0.04698512632220576, -0.09704054266166628, -0.052867433872924516, -0.054364515022020075, -0.08369576783613303, -0.08407806041947294, -0.023362254264955338, 0.00651529532067167, 0.04058171254869184, 0.030423378891793692, 0.04275589665226162, 0.037698644600039494, -0.021251779320521805, -0.040589394360218384, -0.03790388509725647, -0.05226887155330441, -0.10191479043913534, -0.06398943281145544, -0.018145159387258587, 0.031179724880931133, 0.01106669068900933, 0.04490089088521586, -0.0022132793053737405, -0.0055529725457839655, -0.020494056760092555, -0.10119240301626613, -0.03269467954782659, -0.007659083467707913, -0.07260304534064847, -0.053099840772831614, -0.008981526083512444, 0.002981941214538463, 0.04354485684763549, 0.03931172699016633, 0.011893270700746096, 0.010980108824508806, -0.013955713173988422, -0.0453470747531502, -0.020364009882354078, -0.0596257481350658, -0.042394222375630626, -0.052111936566292816, 0.002932097952150826, 0.0023378709637274287, 0.03807432969946241, 0.03425989348205232, 0.0024920861868973033, -0.015460186423196277, -0.030200612480172938, -0.08515708707776895, -0.021963187270426822, -0.010694606244027693, -0.030182852886655613, -0.022564455039788503, -0.011937698962325886, 0.018598567594254586, 0.05480009842406165, 0.02805329059350581, 0.02619304033332393, -0.00576229855944632, -0.009847196438686902, -0.0740981410568441, -0.044097906535235466, -0.05562426437021128, -0.06699404635193312, -0.045766387666938205, 0.00250333500472329, -0.0035713605869861927, 0.058822145849463804, 0.031137776041967758, 0.0074498371725522546, -0.00959048349389833, -0.030785675701999596, -0.06477932297201637, -0.03711826726878284, -0.026603069656700645, -0.08447081935699602, -0.04211588844607042, -0.026517334286133887, 0.02559557141880044, 0.03502716756955873, 0.04175308297670893, 0.02709010651857922, -0.024319158180948906, -0.022327494182984096, -0.0755368784911166, -0.06955621983232646, -0.07620255518580045, -0.1229285273579338, -0.07555488702106683, -0.024965999401672687, 0.003921682757687992, 0.04266970043602853, 0.002853096898638556, -0.006622331723785679, -0.02612304461306024, -0.068842188161904, -0.11290511515015396, -0.0792762851021266, -0.0829979766390949, -0.14663064105637116, -0.08900419036685493, -0.048839896778896934, 0.02529596083310713, 0.013809246836998034, 0.008612942554113755, 0.0021037854831771237, -0.03888168664779985, -0.05674916851939854, -0.11071150100854009, -0.02414140782943715, 0.002005611949332106, -0.032456030521985056, 0.007900173432774254, 0.007965825377657281, 0.014108116218734895, 0.008872257464287317, 0.010097545666932566, 0.010248187045984522, -0.015095239037044388, -0.0012992085525672025, -0.023033615278897735, -0.013080031610115495, -0.015477037022283554, -0.002218436884189381, -0.011455158680038081, 0.049391736298201365, -0.015578720859852502, 0.016676971131738976, 0.03455027663568468, -0.004268643954730461, 0.03404250884404773, -0.03395173814336632, -0.0053306383514777735, -0.026773809386809733, 0.006645370778072283, -0.037986627268242326, -0.01656736438359293, 0.03304395971754307, 0.04928042040266289, -0.019429905132244078, -0.014096095351178575, 0.0070249697153702, -0.006868458016190757, -0.009140861079120311, -0.07592675624367344, 0.033860451599420395, -0.03286681209504352, -0.037247087525462214, 0.015328261587935956, 0.02284012572991404, 0.03135189654386454, 0.03424873885620976, 0.02599170625911329, -0.017983442389928876, 0.001992957829430028, 0.0006139369690661065, -0.012804857929445714, -0.009089509962183379, -0.033215863281385274, 0.030501260363982773, -0.034268814037131945, 0.03618916370974419, 0.03155889091641176, 0.03157183431277682, 0.0002214749504478172, -0.018019492552815493, -0.020464150209848733, -0.007305954797377512, -0.03491822633932941, 0.009765255512973699, -0.0014483114736837579, -0.0017878176442275191, -0.010396416233330484, 0.02954072706279016, 0.0373480019967391, 0.02445562043922983, 0.01429126277962405, 0.014724320965763461, -0.03011290882909982, 0.02736343609854765, -0.0033628645621107066, -0.015252390297851465, -0.01754558404506732, -0.005944122548406209, 0.02137458078874258, 0.015227272279590942, 0.030922668275586877, 0.02774183504953324, -0.005499073472933195, 0.014083818914889988, -0.015425808329144504, -0.03016623528806375, 0.011561439131075393, 0.015416500707511991, -0.015598917214022802, 0.01953131403204268, -0.01807725709862687, 0.0266278944888082, 0.02518866608154859, 0.018185830235429867, 0.035731576758023485, -0.031151741577917277, 0.007141840818701376, 0.02089312451614967, -0.005151668132232752, -0.02073501069147043, -0.006682364822813862, -0.01799160421756091, 0.02920510213241995, 0.030095250212758416, 0.03377497315799585, 0.008069925859375021, 0.01595757811648925, -0.0016470944840714413, -0.0509904227411245, 0.019149618326454516, -0.006894845494305434, -0.001451998694040412, -0.014649280219361314, -0.03097005620459832, 0.018784826319290363, 0.021249647942445285, 0.04425396978130001, 0.029421588805765977, 0.012131610828585842, 0.009980455504590029, -0.0019060792643249445, -0.025778622159461598, 0.03231833221545052, -0.048092950235004955, -0.012387320928587069, -0.005036070870821134, -0.037222961668767825, 0.0588542771477003, 0.042682632740651844, -0.0054701563431700006, 0.016394217541696763, -0.014619728152104279, -0.014594471137803827, -0.024695760072303494, -0.018668736852607483, -0.022859574714713338, -0.019146016577855713, -0.010687086644925096, -0.02748685207083479, 0.042654184623996276, 0.04378194633604235, 0.028057365768763443, 0.012012848562421578, -0.025856552441967405, 0.003220460096571729, -0.002065085426475665, -0.025955623406488885, 0.005855301372337188, 0.016191636953359023, -0.011698278387158388, 0.008042755048137645, 0.03413792593490511, 0.02198284604048491, -0.011986615323850038, 0.014020375244009137, 0.0005829162457455275, 0.017954818300018553, 0.023214774323986373, 0.052695070248696865, 0.04404211641439666, 0.028815883825025475, 0.039058280188501535, 0.0321049972544759, 0.04683709820034728, -0.0028850648256229187, -0.006054258528290626, 0.03438921375485493, -0.004321655240241403, 0.021074380369188996, 0.03957491525629538, 0.05499513579336043, 0.012481321734544013, 0.019616873784361076, 0.06014473275154012, 0.01717078057231882, 0.010441613755177796, 0.007161903139297331, -0.0028067780615787436, -0.05914584119586736, -0.0836204750498274, -0.05347039574882674, -0.031550109093898444, -0.00221358823157322, 0.06449450143572595, 0.023635447493396685, 0.09107601492513721, 0.04247918163762736, 0.023643582608197527, 0.006244738777776703, -0.009694399931180125, -0.0321381716832857, -0.023238707194502363, -0.06501633355356012, 0.0061956202030044585, 0.041248706995922944, -0.0023916598982291607, 0.00907103054125729, 0.07153615782864046, 0.0511380947658976, 0.060956420520525176, 0.023853609739892333, -0.02134964237191261, -0.055873031564619105, -0.03427967716404761, -0.05256069593978506, -0.026450655772769543, 0.014191707854555098, 0.028763393995699417, 0.022724954253938938, 0.06593959311958339, 0.051806266875862296, 0.03421770824235301, 0.013118358102773717, -0.0249014340984832, -0.032706779586308056, -0.009422811641344047, -0.018315392914104993, 0.024743993039595655, 0.056081350537001695, -0.014381165328493402, -0.02409123209438288, 0.0005674096523137803, 0.023401541328289727, -0.013388658899879068, 0.013788986992477248, -0.05302941500157993, -0.03569785933457539, -0.02271267079071715, -0.0075306240903609874, 0.007789998106387368, 0.04547195642996614, 0.02707206055903505, 0.017235085694547, 0.04289957520649032, 0.004556832123689905, 0.019317566509149054, -0.023639094908611463, -0.04947302895018547, 0.001346713196209176, -0.04869848809732345, -0.01011270229865589, 0.023104295966615934, 0.048776130919633814, -0.01804709012667262, 0.00029382763786200695, 0.026670741403331946, 0.03398480699271399, -0.007424008066970674, 0.012393420686431443, -0.06496491138244916, -0.05851480426537225, -0.04129700086056651, -0.039365869636140506, -0.008007309104494102, 0.045382212554038584, 0.0335649360759552, 0.02785606283567145, 0.030779618071348807, -0.017160453500457078, 0.026883874277148143, -0.00580615037580086, -0.027425986228796627, -0.00694802460212593, -0.05858405981251549, 0.014794751747507913, 0.014316093970317769, 0.05723841348860149, -0.005574394415394896, -0.003621103715643237, 0.0666890476096749, 0.0024714777460713255, 0.025408777866034564, -0.017846824328439967, -0.05398215284553759, -0.04195893937884001, -0.05024307728178969, -0.029541406172606675, -0.0027354574054729757, 0.04245254660113946, 0.06642835562581394, 0.05730902694148096, 0.11472877465048947, 0.07472594839391586, 0.05458123079824658, -0.004810337239648385, -0.01615834067953693, -0.04213266865627423, -0.03545012940049425, 0.0010239967156328825, 0.0659465515766923, 0.05349186684906777, -0.041600907972550234, 0.01202051027281094, -0.003348217459672147, 0.011521640573311218, 0.014219379894855892, 0.03539162046741985, 0.04678335770992035, 0.00955540653632629, -0.007141039590447471, 0.03604261512463871, 0.055693566895321185, -0.0002544162946928471, -0.02165578415552904, -0.001142470227895704, -0.010165377036515131, -0.015912186979931166, 0.04838621578874915, 0.04449218207320546, -0.0015340116599297335, 0.01785581682502085, 0.026990503459542965, 0.022020751229839743, 0.05307560573181411, 0.006630456700284089, -0.001758533171041975, 0.03097786696121524, -0.009549217209254496, 0.017330570564669218, 0.019140701040791613, -0.012394327737587705, 0.0025601804492538863, 0.021998334060584757, 0.017516614029106307, 0.033671593255045845, 0.01525783609035428, 0.03257110752317506, 0.027033218816327212, 0.03541201446253415, 0.026916253109552864, 0.04849597172082466, 0.055026688094041334, 0.035658969627697906, 0.05819632475986851, 0.03426244306537466, 0.03793063339614816, 0.038869659087657084, 0.03196820873748376, 0.03295521181900944, 0.06806476160995607, 0.021092932045550357, 0.05771797189408078, 0.08321770740240172, 0.06875791193739851, 0.08581129962639548, 0.10876642443645829, 0.12843185381333347, 0.0748413513847074, 0.11395189218454278, 0.10246043071878076, 0.07809689451810503, 0.02466205411101459, 0.030546635271347607, 0.049720349223096594, 0.09357371632651232, 0.10540676465043503, 0.12002349975685891, 0.09644694429624409, 0.12787478666836688, 0.08685767877715717, 0.11481164633566275, 0.11119450766225002, 0.10171286857184673, 0.02430499932052304, -0.006344923746818516, 0.07670716065230099, 0.08075199558239486, 0.08969953121170025, 0.09115703326814077, 0.08430845028321804, 0.08210593430324055, 0.06649769928771249, 0.07266800838015261, 0.10295745055520053, 0.09860726412079873, -0.022989998101632096, 0.00902703066842371, 0.048967206671301444, 0.06173020698032614, 0.0838724482757532, 0.09713184881772147, 0.06410744545303383, 0.06408658369819625, 0.07983950442041668, 0.10865613329257189, 0.10418002357674744, 0.10870988096924324, 0.008501542405542711, 0.018993451857730128, 0.014567363258169711, 0.04262518376678842, 0.08114919864838285, 0.03250976882093507, 0.038163540181839054, 0.07205730279247831, 0.03369036386458253, 0.0726581192743844, 0.06770874475712378, 0.06760194927979535, 0.006379106371927505, 0.04024334838693056, 0.04881072316991593, 0.07110794808873584, 0.04234908011829873, 0.03869773373072007, 0.020504540187334143, 0.036490084321431186, 0.06749005998769211, 0.05272223015985786, 0.045844819841689345, 0.06200681042050195, 0.005978836139205898, 0.06943724373537442, 0.07877198185676008, 0.062318233537322354, 0.06160501497891954, 0.06638885840692592, 0.03887697455347427, 0.01998421053572712, 0.05351271161204428, 0.03479541821017724, 0.07581458377328383, 0.05799766153202071, -0.024007766041033683, 0.03597128938249393, 0.044879673479374646, 0.05269677689213868, 0.05961152092023368, 0.05174544758334812, 0.02939378746300215, 0.02512051704590653, 0.02660497352106745, 0.018486917815899114, 0.04310850571832418, 0.05378585209276109, -0.012591418176301312, 0.02606719170941687, 0.015835792359229134, -0.0028276083883632956, 0.03427674364562355, 0.031403155235302745, 0.01107747107687875, 0.031164308375765126, -0.009981501103428997, -0.007161741428098788, 0.0070737882060187725, 0.014130790170486175, 0.028926518936254083, 0.008437989584160567, 0.030067453675884957, 0.01571801892736496, 0.031314337845297927, 0.019829282179958142, -0.005931417476859942, -0.000673059646676557, -0.007360979753738774, 0.01176544122982183, 0.015828131638959395, 0.02406049131664292, 0.04039355270048743, -0.005164554308126858, 0.007329577690303625, -0.007013002936173986, 0.033492070786013343, 0.015567326823200268, -0.001116790691251408, -0.02114968402004575, -0.021060031857399412, -0.01243602757214832, -0.0018930277521025504, 0.002922809474621168, 0.05243088064762001, 0.017618265400160236, 0.0274925511644622, 0.01046998857740354, 0.035370598216702645, 0.0426725214936791, 0.03896044228505154, 0.013681044778714228, 0.0030648021408153075, 0.011307625678076956, 0.03171639403700093, 0.05509693590378954, 0.01725104267663517, 0.01692304996590277, 0.051123778865735464, 0.04138051066186577, 0.04808464219906381, 0.03926267863944207, 0.02534135771443686, 0.02579530014598758, 0.015552673900559151, -0.005017561505102512, 0.03269697601454461, 0.07996493762575099, 0.037592346221317595, 0.023562482028859005, 0.057720496288285114, 0.03867682834545899, 0.04695984070884363, 0.04653473737530078, 0.022197709676305438, 0.025251696559992255, 0.03438955647603157, 0.020440191832961307, 0.0380466714672585, 0.08746520240314269, 0.030871323169915376, 0.01033472809034462, 0.026147190120698237, 0.05545549009122064, 0.06067452679604989, 0.038438288717625405, 0.02483979658253528, 0.03214848752468254, 0.01705870566055353, 0.02841103800816357, 0.05164446176836395, 0.07843995086434112, 0.0008278438297072634, 0.039168351680069144, 0.042661700862643565, 0.045153091978612815, 0.053587322093057235, 0.04581181287186921, 0.027366003337732116, 0.0388160639109377, 0.027279671931101885, 0.03556116331163744, 0.07119977199600808, 0.09096580589201536, 0.012789025817455477, 0.0029383787618770894, 0.0348938450627255, 0.03984029261923099, 0.05135645405884149, 0.05764831917571399, 0.011150818243668408, 0.028903969509053294, 0.034124962539279526, 0.050576110181401276, 0.04800533150563423, 0.08125811396177324, 0.040845930330945524, 0.04844306157983529, 0.058838491935052965, 0.02964811844228379, 0.0624618557706125, 0.06079452038847177, 0.007393666091811797, 0.013682049903997988, 0.04063948904269465, 0.03470710437675011, 0.05807854301238087, 0.07995139151608072, -0.01328281272519774, 0.02511946579977755, 0.05341082708701434, 0.050674639241817684, 0.059704516332840143, 0.037818794940366295, 0.01904241731698657, 0.017908100739884573, 0.021250687690510334, 0.016404842335354858, 0.05369674314214988, 0.055906687845678815, 0.015799972026625735, 0.03898799763143878, 0.06554255430432608, 0.02521967318970795, 0.030833783427790515, 