{"0": [[-0.0005194640555054354], [-0.001784982972129811], [0.0024095506728375863], [0.0016553558784072589], [0.003076764036448165], [-0.00010378718942865245], [0.0009211868466399389], [-0.0014486884583647512], [-0.0012030701113458515], [0.001017392574112688], [0.0027760388428760678], [-0.0012508577106940734], [-0.0022677388907861424], [0.0030235670802340334], [0.0029004535800160095], [0.00100918270613598], [-0.002525201956583193], [-0.0006899344964384852], [-0.0037530753039294353], [-0.0006412182867432569], [-0.0011942130943504367], [0.0022257152506364227], [0.005146402630872644], [-0.002004549427621702], [0.001985128537686438], [-0.002197598826990412], [-0.003298762661003236], [-0.004083336969304635], [0.0007437889794825023], [0.003376364491354716]], "1": [[-0.0019412853917339119], [-0.004843317239930448], [-0.004606853082260494], [-0.004153003976251024], [-0.0011504564600354364], [-0.008432377477682634], [-0.0040375389967564354], [-0.004787803237342372], [-0.00231265541763753], [0.0011197682402655032]]}