{"0": [[-5.776333570144967e-06, -6.499026671689086e-06, 3.945920155091164e-07, 7.009229406436687e-06, 1.221939902194885e-06, 9.59846027672072e-06, 9.069899577275544e-06, 1.0674003177202311e-05, 5.837834019793631e-06, 5.251948510138938e-07, 5.536119634896471e-06, -2.4985571331704954e-06, 4.639531012938929e-06, 5.232270828980534e-06, 8.906656463008999e-06, 8.423657156890457e-06, 1.2138998568911956e-05, 5.965455868530196e-06, 1.1648343350380703e-06, 4.278674544180744e-06, 2.662604738342437e-06, -2.888513519323329e-06, -2.606986715314555e-07, 8.414360838308722e-07, 2.467352747386269e-06, -3.850797573197661e-06, -3.517783690483577e-06, -1.4174872542777155e-06, -4.045835873980991e-06, -8.857352907871078e-06, -1.123492454665531e-05, -5.3176218369960656e-06, -2.6649294533890546e-06, 9.304595142348904e-07, -5.7227961817413394e-06, 3.164708400683213e-06, -6.685463641041313e-06, 3.7773216941195968e-06, -6.427401709858551e-06, -1.5069659663035585e-05, -3.37147622118024e-06, 1.9231859617510803e-08, -4.679400437978422e-07, -7.847961396557817e-06, -1.404195353987937e-06, -3.5695769309846847e-06, 3.8986352950731126e-06, -5.381873849404689e-07, -2.162718273363497e-06, -4.1716888005365094e-07, -1.641071450064795e-05, -8.232427984360476e-06, 8.410682216826335e-06, 9.750056800274357e-06, -5.712191263085591e-06, -1.2432192592812397e-05, -2.5299697452791293e-06, 2.590921865876099e-06, -2.5929464396081178e-06, -4.984341867225367e-08, -1.3429074494511604e-06, -9.294829969510215e-06, -1.6043848888330952e-05, -1.4350828277727221e-05, 2.7040361900200146e-06, 3.571959058200934e-06, -1.9909160920613452e-05, -1.7188881059978846e-05, -9.018767688991326e-07, 3.6404459487861907e-06, -3.0665922161761656e-06, -6.10823098169847e-06, 2.011010626016201e-06, -1.0777572590269333e-05, 3.9601171455726555e-06, -5.907409009237277e-06, 8.019917144843528e-06, -1.6062251133369115e-06, -4.669158260833196e-06, -7.106702417663207e-06, 6.344809766965996e-06, 1.0617053146648416e-06, 1.7193839896404525e-06, -2.701589736592073e-06, 6.121808738452467e-07, 4.689265955645953e-06, 8.392317880425223e-06, 1.628651701324272e-05, 1.549622476028726e-05, 3.109878234956818e-07, -3.2290081618959993e-06, 7.018097603797143e-06, 1.7570234061751812e-05, 6.267727347137917e-06, 1.5742129862204138e-06, -8.962060125068886e-07, 9.331511620249029e-06, 8.086092919166663e-06, 1.3682027113521623e-05, 2.672532636329043e-05, 1.4317883888271553e-05, -6.918131510043735e-06, 4.554793418098132e-06, 1.5228446960312464e-05, 8.912346094947611e-06, -1.4389568790814542e-06, -3.993245291003109e-06, 3.915139322684571e-07, 7.901284473036372e-07, -1.9246724219453834e-06, 3.3196598986991585e-06, 1.3153057592561489e-05, 9.209584591652099e-06, -2.6130057291049843e-07, 2.7918273002621885e-06, 1.0615091760025153e-05, -9.888839863034226e-06, -6.825033981441542e-06, -4.002512800981062e-06, -4.999840045180603e-06, -4.116558950389814e-06, -3.676107195266268e-06, -3.911234189334854e-06, -1.8844016452632632e-06, -6.841944649630182e-06, -7.34476459796008e-06, -1.86801964523414e-06, -3.738029739701365e-06, -8.709629071048439e-06, -1.1183149316039919e-06, -7.737405504092521e-06, -3.9403799344847695e-06, 2.9884128808229257e-06, -1.143933636784285e-06, -2.37252950614739e-06, -2.775809403957991e-06, -9.8654262853007e-06, -7.14724728672884e-06, -1.111375489308568e-05, -3.427301073954001e-06, 2.77573998793888e-06, -1.6533310481361213e-06, -3.190340835336719e-06, -1.1008704129144324e-06, 1.3754964004467157e-06, -1.937889801375707e-06, -1.1636827959195318e-05, -2.5974115304797295e-05, -6.724351525583558e-05, -9.849505465650046e-05, -0.00011007111477882549, -8.904190797195304e-05, -4.551597240302359e-05, -1.8404794173601206e-05, 4.064915148179059e-06, 7.389350827367058e-07, -2.0776833610178086e-06, -9.988955619826941e-06, -3.722004128683426e-05, -6.349614621260057e-05, -8.228750117132008e-05, -6.722334089577853e-05, -3.628976818354751e-05, -1.4343221851724987e-05, -7.79132734970532e-06, -7.252235434520282e-06, -1.283027923665886e-05, -2.541324654974451e-07, -1.5430912525291193e-07, 3.7731320651235744e-07, -1.1683036672010255e-05, 1.237588352543543e-05, 6.334176618431184e-05, 8.001778549072774e-05, 4.066237968305412e-05, 1.1453162844732545e-05, -6.880864353585689e-06, -1.1962290232107885e-05, -1.0003036118418752e-05, 1.7393238908218763e-06, -1.2070917858675729e-06, -6.13345078323714e-06, 1.0193356089914193e-05, 4.5332058559399204e-05, 1.8328353542919344e-05, -2.132434308204639e-05, -3.9440119309907794e-05, -1.918988352295576e-05, -6.4882604256371e-06, -1.4400043268420862e-05, -2.9791094602222797e-06, -1.7372709177940614e-08, 2.7003804036782834e-06, 2.4264060433586386e-06, 2.063015082503944e-05, -1.647972962613376e-07, -3.068629840318395e-05, -2.607736704730144e-05, 2.6213815947945706e-06, 4.310586938255146e-05, 1.9656626122177447e-05, -4.336401666028034e-06, -1.627803461739184e-06, -3.395834470169704e-06, -4.757357173285495e-06, 1.3086544150858982e-06, -5.5542793647760385e-06, -3.991784066712799e-06, 2.960387282277006e-05, 5.3970189387136134e-05, 6.22683490825855e-05, 1.1584628025689414e-05, -1.686929045199891e-05, -4.1855771448874635e-07, 3.8061620651599766e-06, 2.1595292100259402e-07, 3.627117236029296e-06, -8.077340827260294e-06, -2.053155722372273e-05, -2.3202003162448784e-05, 5.460988779508569e-06, 2.2807276257973844e-05, 1.0331066753850037e-05, -2.633520623257933e-05, -3.768350625547366e-05, -2.5744833494482678e-05, -1.130039670729295e-05, -1.680793778233713e-06, -3.5043527110495522e-06, -1.1552402672501727e-05, -3.098306345615097e-05, -4.2936315784836956e-05, -3.233041447974601e-05, 1.559127302167381e-05, 8.280017739408328e-06, -4.537392562295687e-05, -6.371363954488902e-05, -3.4839185107361876e-05, -2.0164488310628917e-05, 1.8909378676547325e-06, -3.5189297603775847e-06, -1.032959306690403e-05, -2.836933575767781e-05, -5.288656224485931e-05, -6.354590981943911e-05, -6.482472014176903e-05, -9.680758964996424e-05, -8.637001347924527e-05, -6.146318412886395e-05, -2.8708209000498372e-05, -1.2989286152492684e-05, -2.5923787131946347e-06, 4.913989161024919e-06, -1.0051516311515696e-05, -1.818523563922815e-05, -3.592467992428392e-05, -8.10992079466521e-05, -0.0001191718633740121, -0.00011251874658093846, -6.223761808410397e-05, -2.7426104469174137e-05, -1.8816881255931917e-06, -3.270195875925222e-06, -7.34343240056368e-07, -1.6301470498088487e-06, -7.65077950786192e-06, 3.09842849821029e-07, -3.116969810569605e-06, -3.0140961044051048e-05, -2.0549263705535265e-05, -1.8470714608546678e-05, -9.589048253412556e-06, -8.65247547001302e-06, 2.1256109845774055e-07, 1.931959257845655e-06, 1.992056216894557e-06, 2.55687891035287e-06, -5.128000032402373e-06, -3.0373991813175334e-06, -5.309031254744964e-06, -4.127673022853656e-08, 6.953672949954122e-06, 6.651098978063132e-07, 9.364924304190615e-06, 7.148693183220401e-06, -4.468497732659204e-06, 2.350701266023978e-06, 3.196541274194332e-06, -6.902790148443243e-06, -7.813124591862182e-06, 7.372625471912533e-07, -1.048551897216059e-05, -9.578238924225021e-06, -7.729882811459352e-06, -8.838965802702804e-06, -2.2685145317483645e-06, -4.66716362263016e-06, -6.334774011606026e-06, -7.617176151622212e-06, -6.419140912316322e-06, -6.4754137931794425e-06, -5.626200459067223e-06, -6.911382066359126e-06, -7.030374839952174e-06, -7.099844954606834e-06, -3.2809648326826445e-06, -9.351189147336646e-06, -5.393528142218928e-06, -9.88446030914085e-06, -9.293737709114338e-06, -9.020612048520198e-06, -9.511036264289509e-06, -6.7072184345251686e-06, -6.915299317342061e-06, -4.708262471388034e-06, -1.0473905192871862e-05, -4.650845476426051e-06, -2.9384150110806515e-06, -6.583281772439508e-06, -4.277247070412645e-06, -4.628563007146794e-06, -2.9425961115584903e-06, -1.0576938129929216e-05, -7.888652330427153e-06, -3.7504958422304767e-06, -3.313469288093167e-06, -7.756903532729834e-06, -7.2891064097732395e-06, -7.361681353694664e-06, -8.639254891465688e-07, -7.442308066469547e-06, -5.9416330155335655e-06, -4.890895042297983e-06, -7.56918826608672e-06, -2.346121207604486e-06, -6.676479339810378e-06, -5.818013172205259e-06, -7.065475469401873e-06, -3.8740144702613095e-06, -5.642888444528991e-06, -2.873217513426514e-06, -4.247533897237687e-06, -1.2017651062768365e-05, -7.280394602921136e-06, -7.149211385065482e-06, -8.663080581200746e-06, -6.399020457728792e-06, -9.74100767351503e-06, -5.692188970470643e-06, -2.8380399989122005e-06, -2.769896667744737e-06, -8.004339656472115e-06, -1.6658423391496537e-06, -2.15171262002844e-06, -2.0041591479335226e-06, -7.639445241338574e-06, -9.380158871564401e-06, -4.8508446854027205e-06, -6.320383794715251e-06, -7.107839756299043e-06, -8.72420362847346e-06, -1.1605668499042699e-05, -2.5553050485394283e-06, -4.579620958867208e-06, -7.3728337930834285e-06, -6.964238899490963e-06, -5.594008551020678e-06, -8.631093161000009e-07, -8.768907121642899e-06, -1.0238833459606972e-05, -7.067555444560678e-06, -9.58786123188675e-06, -6.603806479158899e-06, -1.0158836652038806e-06, -5.918121853110097e-06, -9.062907068751154e-06, -1.15256509021946e-05, -6.2069775271540875e-06, -7.4361171411021675e-06, -1.0298465671314604e-05, -6.732384462147842e-06, -1.6728910343188272e-06, -3.7156180596840524e-06, -4.922827002400529e-06, -7.195631865745762e-06, -6.976981397133726e-06, -2.3987093692192596e-06, -6.2701223349769215e-06, -2.7048494040256913e-06, -8.094048709279644e-06, -1.039950015539433e-06, -4.65908093749893e-06, -5.53161377769509e-06, -8.976361119974096e-07, -1.0277593042254392e-05, -8.144854824980903e-06, 2.0403154489336064e-06, -6.252095891849879e-06, -7.375797267508859e-06, -8.385241712150448e-06, -6.454737863521338e-06, -1.2391359431267382e-05, -1.2535396122385039e-05, -1.3120065543350017e-05, -6.229517123642458e-06, -3.1380664303242773e-06, -3.4770661504881624e-06, -5.39637887722129e-06, -1.122693855683684e-05, -6.739296819218652e-06, -5.593559016636218e-06, -2.755599089858263e-06, -2.4133244814272735e-06, -7.521482687565454e-06, -9.11754095322673e-06, 3.440586686617594e-06, -9.969930409342637e-06, -5.7396505502926286e-06, -4.3468354397740195e-06, -8.063130838310271e-07, -1.153428769131061e-05, -4.595676684793561e-06, -9.250553653407615e-06, 1.6887223647553885e-06, -4.620637675838521e-06, -6.573345127201886e-06, -7.021955902496996e-06, -6.444831100194412e-06, -3.860926718613589e-06, -1.2054800927967052e-05, -1.4260501029905822e-05, -7.3177447802096174e-06, 3.6204458757910213e-07, 5.719335440605521e-06, 3.5734544271226613e-07, -2.658746628135198e-06, -6.823391093985067e-06, -1.5003548360934858e-05, -2.0087106627044802e-05, -2.0714871209938452e-05, -1.9189853781720214e-05, -1.0051629475923373e-05, 6.820574095201225e-07, -4.0040559860151514e-06, 6.451571104428745e-06, -2.436704441382646e-06, -1.2395753501313362e-05, -2.926674896646455e-05, -7.234061958968625e-05, -0.00011394094815759002, -0.00015214553865014818, -0.00016157516541338415, -0.0001384636114209636, -7.89483171140584e-05, -2.7068285574643477e-05, -3.4549866146627425e-07, -5.232917755192685e-06, -7.024813486376095e-08, -2.4324008744723867e-05, -6.038939488132543e-05, -0.0001001127779123212, -0.00010250223732486694, -0.00010449045174051016, -8.880578952761562e-05, -8.264589376480493e-05, -8.301598533446542e-05, -4.334334608985901e-05, -1.4709834767618122e-05, -3.9097339863321736e-06, -4.4792602152211245e-06, -8.360790861587286e-06, 3.0295640815683895e-07, 2.98404928942219e-05, 5.278545146441066e-05, 5.031231477427663e-05, 5.3046703576284974e-05, 3.658314160190732e-05, -1.5041827856163369e-05, -3.887023175545131e-05, -2.984278444029192e-05, 2.328099801536273e-06, 6.301341477071275e-08, 8.76743172236095e-06, 8.318698361284384e-05, 0.0001141214391362706, 4.0606921152494496e-05, -3.5461076687705304e-05, -2.053590649965917e-05, 3.812595864943259e-05, 2.491176804019633e-05, -2.3650432965457712e-05, -2.3505020181953262e-05, -5.11183956974383e-06, 3.013095272581647e-06, 2.4516034525314343e-05, 0.00010697671980665921, 9.873295280594599e-05, -3.0464694733590147e-05, -6.186885895469148e-05, 2.1031385328553396e-05, 7.20579256381909e-05, 4.239076127702657e-05, -1.6783008199711555e-05, -2.0598988528368332e-05, -5.172989316363557e-07, 3.065923069210802e-06, 1.776383421858778e-05, 9.272016082153563e-05, 9.050894082780216e-05, 1.7279210185719187e-05, 2.2462775593460668e-05, 6.036278945119098e-05, 7.428178329082444e-05, 2.6384206112594284e-05, -2.5641940967918452e-05, -2.104975948989357e-05, -2.2293535475569097e-06, -1.1475260524222322e-05, -2.067507148411774e-05, 3.8622961325408375e-06, 1.8712401837120314e-05, 5.110296296450023e-06, 2.2907918753039538e-05, 8.415104927361113e-05, 5.4827264125142075e-05, -6.712150154721521e-05, -8.701004247358614e-05, -4.2592990953840654e-05, -4.188153243385603e-06, -1.613814270822358e-05, -6.729098577183283e-05, -0.00011599475734900949, -0.00014380501570037342, -0.00010803026243883417, -7.373062103038046e-06, 4.184399071632045e-05, -4.305106492785837e-05, -0.0001256393851493544, -0.00010248870281725872, -3.8160212302410854e-05, -5.337751310052769e-07, -2.236882862677269e-05, -7.613951907025272e-05, -0.00016976765752794686, -0.00021512777802233662, -0.00017250340504897438, -7.279126811395865e-05, -5.340101159931079e-05, -0.0001077095045337619, -0.00012189968613187937, -7.966295134992397e-05, -4.083250985015992e-05, -5.108396984224905e-06, -1.4190762370701083e-05, -5.3666789008638194e-05, -0.00011641276739241635, -0.0001653411841762974, -0.00015605453876370168, -9.317497860330446e-05, -5.411902425816755e-05, -4.6610206067643515e-05, -3.1036617049259194e-05, -1.6287324173866914e-05, -6.948812385771299e-06, -5.0120253710998324e-06, -1.1673554096492503e-06, -9.769575953666808e-06, -1.4333379958119802e-05, -2.3715744573577733e-05, -2.0287819596161512e-05, 8.120639058272655e-06, 3.839002629494859e-05, 5.417896246072922e-05, 3.0472694174624723e-05, 1.3708855793571245e-05, -1.7660223023914342e-06, -1.0754405963421778e-06, -6.098154619287536e-07, -4.631897553021635e-06, -6.344028853455359e-06, -1.3059270011598114e-05, -7.323543323389159e-06, -1.9677409270155992e-05, -1.6400246553358786e-05, -1.632244004386816e-05, -2.9873339538101663e-06, -4.569774819670711e-06, -2.1888420920423257e-06, 2.5688629852683087e-06, -7.118891537903049e-06, -5.583933338588946e-06, -1.1885150711699228e-05, -1.6320722138736487e-05, -2.732840374247615e-05, -1.885710013505167e-05, -1.8469176890341346e-05, -1.2960664549381928e-05, -2.197901334562293e-06, -5.966639569464931e-06, -1.1004444719291095e-05, -2.0974471337920324e-06, -5.8388009079552735e-06, -1.1194787723917919e-05, -9.68169027910312e-06, -8.194422060545203e-06, -9.125395867887795e-06, -1.1344231283553887e-05, -1.3472926624548706e-05, -1.3972336210706878e-05, -5.592470518343065e-06, -8.770826301314294e-06, 8.826212695931014e-07, -3.297262353436833e-06, -7.990333489332794e-06, -5.135926261204579e-06, 5.037789845779424e-06, 2.52394871885212e-06, 1.3382556256176567e-06, 3.1049449451619e-07, -4.4714087804025034e-07, -6.627945528396375e-06, -7.763992313535663e-06, -6.629105183571334e-06, -5.145600046077659e-07, 5.501235592889084e-06, -1.804429069915661e-06, 6.685933660601195e-06, 1.856558462057864e-05, 1.1558084667712398e-05, -2.537837589447856e-06, -2.0389208869736523e-06, 8.179740921642262e-06, 9.023367560341433e-06, -2.217842808440261e-06, -1.1788898801444295e-05, -4.877474001675773e-06, -3.2338730645530106e-06, 4.76851287615473e-06, 1.2466121178429676e-05, 2.0663993471155932e-05, -5.329106691311386e-06, -1.0669339489402655e-05, 8.839917660352674e-06, 1.2211926654818251e-05, 8.518889842238648e-06, -5.0865356322011415e-06, -1.1068143886268426e-05, -5.010954781878689e-06, -6.592694746161444e-06, 1.6874579366656286e-06, 1.068461030897253e-05, 1.2794528793620241e-05, 1.8635017316304996e-06, -7.609976151920808e-06, 1.1804265499194201e-05, 1.6953177096437184e-05, -6.172087461152293e-07, -7.415468550284436e-06, -1.1842452899482719e-05, -4.751030171207695e-06, -5.032421367121307e-07, -7.932385547380876e-06, -1.7729433634333586e-06, -8.850937448495795e-06, -8.264842861805259e-06, -6.977079033906857e-06, 9.320221990364408e-06, 1.7980084715646278e-06, -1.237658370843567e-05, -1.3985346545466208e-05, -7.955955371974905e-06, -5.8639877524696625e-06, 2.739534556789566e-06, -1.4928854693676915e-05, -2.4983898357596417e-05, -2.539996040891901e-05, -2.4231453841339298e-05, -7.496827831503007e-06, 1.9796496100702434e-06, -1.0509243860610896e-05, -1.8631252855391513e-05, -1.3769144398716964e-05, -2.40678137510583e-06, -7.34835988402061e-07, -2.480794602251241e-06, -7.408358536467038e-06, -2.8672159346890862e-05, -3.43715829282488e-05, -3.0026463027347553e-05, -1.643033807830056e-05, -1.0180113509448406e-05, -1.5244517741232267e-05, -1.0024811018644241e-05, -6.721718925225941e-06, -4.335447388072824e-06, 3.4841933777420375e-07, -6.1016312912285865e-06, -2.5203635491373844e-06, -1.2229251768146593e-05, -2.1391393783444074e-05, -2.2588120631780408e-05, -6.159248285239196e-06, -2.2419379832599795e-07, -5.313401961350906e-06, -3.7249279226061973e-06, -9.65660886436968e-07, -4.216116114064526e-06, 2.9148787591306823e-06, 4.694906713871183e-06, 4.103819469857319e-06, -7.309959369448511e-06, -3.761263770826098e-06, 7.648669587253489e-07, -9.34163470171438e-06, 6.28296747894174e-06, 3.1891708237235208e-06, 4.706654532273003e-06, -7.307124788837855e-07, 1.9388657003646425e-06, -6.748361296740889e-07], [-6.711513531508249e-06, -7.57265494722749e-06, -7.953017911953794e-06, -1.7267086192993317e-05, -1.7694094894105042e-05, -1.4123430473059447e-05, -8.456745896615855e-06, -8.884381732392686e-06, 9.76637653063399e-07, -5.654442865097752e-06, -5.682214638012849e-06, -8.8179031572533e-06, -1.130821615650092e-06, -1.6381095961487086e-05, -2.151090119858525e-05, -2.0523079941947186e-05, -9.616862412625551e-06, -1.5012272776901992e-05, -4.989851321231221e-06, -1.0004062792821733e-05, -3.2887841702165776e-06, 6.54614886250934e-06, 3.4660884415882623e-06, -8.469183807592356e-06, -6.63396383940569e-06, -1.1926856966752293e-05, -7.76936779171928e-06, -1.2727322995295308e-06, 1.0370616313030786e-05, 5.913565533499604e-07, -1.4923201959146837e-05, -1.7459718146690207e-05, 3.5942370912554908e-06, 2.233818464354765e-06, 2.061249222251909e-06, -4.376714527165503e-06, -7.903704985905606e-06, -5.034942105180169e-06, 3.3569728775913382e-06, 1.4940964667930166e-05, 2.1319228691226794e-05, 3.5830525063258315e-06, -2.5024922252738458e-05, -2.2613725018611664e-05, -5.37757580575163e-06, -1.7185776908283467e-06, -1.6715771584467283e-06, -8.904561284892411e-06, -1.274139278458374e-05, -4.970195135136503e-06, -5.324481896020492e-07, 5.176271461501335e-06, 8.870747233661574e-06, -1.3248555437207517e-05, -2.631486953146955e-05, -2.4609774783242186e-05, -1.2911743268217065e-05, -8.631326041442773e-08, -9.406654117646353e-06, -1.2170366414100145e-05, -7.062218151372661e-06, -6.905578806611108e-06, -7.238472333612054e-06, -1.0214798801848873e-05, -1.0449290835619945e-05, -8.126546189666305e-06, -2.489938830918071e-05, -2.5249386766064323e-05, -1.2921240034099622e-05, -4.240894812075836e-06, -1.0956662288279453e-05, -8.299337171771024e-06, -5.960217572073502e-06, -8.382275084215174e-06, -4.36686869939783e-06, -4.185993659006801e-06, -1.4446756434186445e-06, 6.282501560463258e-06, -1.092948980332269e-05, -2.4429293598926363e-05, -6.529921915233086e-06, 1.4664378510609769e-06, -5.174394857210053e-06, -1.0599226994837347e-05, -1.3835149430107025e-05, -1.1352753161099714e-05, -1.0143644978850809e-06, 8.760018355970004e-06, 1.181152709787237e-05, 1.520931251720626e-06, -1.7067578743999005e-05, -2.5292047783302262e-05, -1.0812656336015008e-05, -1.2986767018614618e-05, -1.1664734205957738e-05, -1.1706347003085653e-05, -1.0893069521959874e-05, -1.464573966372885e-05, 8.673546624093461e-07, 1.1279137624867306e-05, 1.3360090364897054e-05, -1.0184043893863425e-06, -2.309860573986498e-05, -1.018460254095819e-05, -1.4175235373771174e-05, -8.408365541627739e-06, -7.683469679225614e-06, -1.0375172550940282e-05, -1.3821323911314873e-05, -1.1362441121548905e-05, -1.2009799709291486e-06, 1.6420493076055525e-06, 5.305566950283111e-06, -3.0681770352216587e-06, -9.046525633665743e-06, -8.957311560582854e-06, -3.931653558732459e-06, -1.0537998485759966e-05, -3.800923421333847e-06, -1.2273102507328244e-05, -7.825213722831081e-06, -8.819356099645764e-06, -4.049432627041685e-06, -6.432876623956822e-06, -7.523277977153475e-06, -1.164992587672982e-05, -1.8273613814738528e-05, -1.2660472835825118e-05, -1.1146956238193176e-05, -2.8349246182499432e-06, -1.1498337737059283e-06, -1.1888175804877285e-05, -1.2907744484281867e-05, -9.6911136933188e-06, -1.095273550985688e-05, -9.819649760117274e-06, -1.365339401223561e-05, -8.216735671907852e-06, -1.8505619672003766e-05, -2.865493713003938e-06, -1.443377942667126e-05, -8.75975811271243e-06, -1.4723627548262409e-05, -1.0668854662040589e-05, -4.9255796619454045e-06, 1.133993059626541e-06, 1.836180096591068e-05, 5.80212008664738e-05, 0.000103560458499182, 8.946571134085986e-05, 3.167840264516023e-05, -2.9649169764304767e-05, -4.2884363738414624e-05, -4.171979379981986e-05, -1.6540558509525236e-05, -8.748186126647411e-06, 4.260564505867709e-06, 1.763723080548544e-05, 5.824242963192816e-05, 8.082425765312085e-05, 5.694867608169287e-05, -1.836071330784359e-06, -1.2261393081471966e-05, -6.765988305722088e-05, -0.00010726022327401555, -9.922447870813997e-05, -5.778064873414202e-05, -1.2617880285786154e-05, -8.396240221472757e-07, 8.218247532673568e-06, 1.1849445479784674e-05, 1.7876199477490196e-05, 1.6815315091669835e-05, 2.158270584798188e-05, 2.9096447815352394e-05, -3.2276929966278844e-05, -8.143992641489055e-05, -8.631908733251191e-05, -5.6207948667495585e-05, -1.3495286018133479e-05, -2.971519700086378e-06, -6.010519857122678e-06, 7.055836579465109e-06, 2.5252281778988223e-05, 2.0928065337216025e-05, 6.357954137285179e-05, 9.983939484117045e-05, 9.003212676583949e-05, -7.646303080665258e-06, -4.6250824308833e-05, -2.6845857746712024e-05, -3.5590831100200314e-06, 2.0569743303136002e-07, 4.287184870337806e-06, -3.3856671079514817e-06, 1.0915078289965161e-05, 9.85728483147026e-05, 0.00011381366322302102, 6.665973643513053e-05, 4.894725856218362e-05, 2.30216770379423e-05, -1.90738649795425e-05, -7.157665392465225e-06, 2.8474915888285293e-06, -6.247725889150292e-07, -8.812979944224343e-06, -2.8435738077767323e-06, 5.245985485135976e-05, 0.00012973060624178333, 4.480826896787653e-05, 3.2299259040817785e-05, 6.485133301345849e-05, 3.575977813218503e-05, -5.915539476344871e-06, -3.1430456312232807e-06, -8.36524713826099e-07, 2.899273618507762e-07, 6.793886769472835e-06, 2.205728880363333e-05, 3.662634958382308e-05, 3.500845429805044e-05, 2.129389027273627e-05, 5.7335796048603906e-05, 5.993789905291774e-05, 1.847215722104582e-05, 7.171778580805517e-06, 7.334020291920599e-06, 3.731511678873125e-06, 9.18733445116972e-06, 2.0794810831707008e-05, 1.465120884523334e-05, -2.391302977474813e-05, -1.3884763536885805e-05, 3.887993724763108e-05, 6.046446433568366e-05, 3.4428517921643686e-05, 4.448477861452143e-05, 2.890576996155311e-05, 1.1089450632158784e-05, -4.679740955849708e-06, 1.2808678446165841e-05, 3.1102654373843253e-05, 1.2351368670513908e-05, 1.2357063632215904e-05, -5.179813961879439e-06, 1.841309811021634e-05, 1.9241179547716675e-05, 1.5271961116484203e-05, 3.0125732820535395e-05, 1.4136377436584565e-05, -1.9753977954023752e-08, 1.7638710704020303e-06, 3.6077005908629453e-06, 8.692989154627084e-06, 3.8987852839710675e-05, 3.5283554755752275e-05, -1.584297608546622e-06, -5.0240180267607245e-05, -4.698932664544058e-05, -2.508377967284692e-05, -1.3636376773522252e-05, -1.0143202882694825e-05, -4.80631470624229e-06, -2.860553187549484e-06, 1.1157728642503878e-08, 3.89841084137934e-06, 1.1594815186916902e-05, 1.2495608230616476e-05, 2.968859989496306e-07, -1.5324357223906743e-05, -1.7689953249848404e-05, -8.254652409908596e-06, -1.0042348272384122e-05, -6.79733970686098e-06, -6.216117529263915e-06, -4.5365905152469045e-06, -1.2046253912177632e-06, -2.3064940165405834e-06, -4.503266485105906e-06, -3.7163279685711693e-06, -9.988581767914305e-07, 5.215440493758049e-07, -5.577475544975649e-07, -3.139532192927673e-07, 4.774712437085751e-07, -7.78225607607248e-07, -7.027570836535344e-06, -4.766131989483135e-06, -3.109768891162371e-05, -3.2695702219464256e-05, -2.6906317975040144e-05, -2.706683594369098e-05, -3.8030786781685314e-05, -3.4923732942094825e-05, -3.5545236271614835e-05, -3.707797699332264e-05, -3.272929066253176e-05, -3.5639469113441535e-05, -3.389074495370366e-05, -3.4872977058030966e-05, -2.967485647429557e-05, -3.075002700154263e-05, -3.1201739201110656e-05, -2.590830736720521e-05, -3.227585928807536e-05, -3.1199723385189305e-05, -4.0872828972707784e-05, -3.499545385084917e-05, -3.131918624164684e-05, -3.397699890474471e-05, -3.037274849986918e-05, -2.839119393291874e-05, -3.091791446527084e-05, -3.722724785497549e-05, -3.907842373955811e-05, -3.2304120525062425e-05, -2.737935632888258e-05, -3.030381786030786e-05, -3.218408503324373e-05, -3.0024418963226822e-05, -3.4668728193696003e-05, -3.326249244486461e-05, -3.7704317305926885e-05, -2.911412598151475e-05, -2.644218681946127e-05, -3.069625520396106e-05, -3.0193407760782788e-05, -3.17526845324057e-05, -3.4490615196108564e-05, -3.4195934986640086e-05, -3.567195587523845e-05, -2.893758253713698e-05, -3.262324695282675e-05, -3.2808026820046945e-05, -3.395869104900867e-05, -3.7588294575644185e-05, -3.2284206600868315e-05, -2.989534734292165e-05, -2.7564291884228033e-05, -3.128312398387965e-05, -2.9350789336169413e-05, -3.141748854397055e-05, -2.933595974981583e-05, -2.920243822925132e-05, -3.4691412058209525e-05, -3.447523991371279e-05, -2.722030870658483e-05, -3.335468313942105e-05, -3.0178571992828836e-05, -2.6962120085410705e-05, -3.1881779507609714e-05, -2.9510843021031882e-05, -2.9054262133468316e-05, -3.100156625806815e-05, -3.50841256914402e-05, -2.9487120498622925e-05, -3.212575618843314e-05, -2.9866953026140628e-05, -2.7881566207165632e-05, -3.549983369962749e-05, -3.380044653346641e-05, -3.2547262968688964e-05, -3.0317163712799384e-05, -3.396067903932145e-05, -3.156060435192813e-05, -2.814363683526392e-05, -2.84224832012098e-05, -3.221164637022486e-05, -3.074960402672979e-05, -2.923355133251597e-05, -3.2914178257322217e-05, -3.486436300755842e-05, -3.331556131767861e-05, -2.568485423841179e-05, -2.7789209388714153e-05, -3.16575186030626e-05, -3.267388622197613e-05, -3.043782881769507e-05, -2.6136053527782838e-05, -3.769896632360143e-05, -3.346557112595214e-05, -3.283858489360119e-05, -3.0174582415092763e-05, -3.37259730491782e-05, -3.2639407095162875e-05, -2.563110303310127e-05, -3.102511775427949e-05, -3.019387867841637e-05, -3.0030390394867972e-05, -2.870005033500657e-05, -3.892946941916033e-05, -2.7361438490151362e-05, -3.284102102935112e-05, -3.353410220732273e-05, -3.564631826904256e-05, -2.9673092407600857e-05, -3.270995094130248e-05, -3.066600281370393e-05, -2.4736117724048864e-05, -3.288475008503318e-05, -2.6603287075382647e-05, -3.463516191385764e-05, -3.085007997369951e-05, -3.69641823629788e-05, -2.871514846133721e-05, -3.154625118316146e-05, -3.650795796228736e-05, -2.8793527547770612e-05, -3.768481044241575e-05, -2.8389686047323885e-05, -3.131561953502942e-05, -2.8724445358653478e-05, -2.924257046261e-05, -2.549893443507944e-05, -3.255323212178619e-05, -3.098320298664223e-05, -2.8128802634695316e-05, -3.0249688531504392e-05, -2.5992708647022042e-05, -3.0417850313448166e-05, -2.7694552026729117e-05, -3.202552418618302e-05, -3.0855478081441455e-05, -2.8669701109505707e-05, -3.367089047268079e-05, -2.8098090912615724e-05, -2.835087036825893e-05, -2.4890353400179475e-05, -3.1247805919301523e-05, -2.973265591229241e-05, -3.031441648093179e-05, -3.1463390990857455e-05, -4.981138119790226e-07, 2.564146326524265e-06, 2.469797519475565e-06, 7.5027048450689915e-06, 8.128760393443612e-06, 9.48155473549343e-06, 1.031858109933264e-05, 1.788534316961465e-05, 7.061258578265954e-06, 3.996059240833334e-06, -9.53077463246535e-07, -4.053617119906797e-06, -2.930552894313447e-06, 9.738040899104035e-06, 2.5831248568457698e-05, 7.434958535279942e-05, 0.00012358162264315052, 0.0001065147999863162, 4.805471835043781e-05, -1.5268461455543007e-05, -7.674423129851068e-05, -9.075976418326142e-05, -7.457142061437509e-05, -4.454032034025287e-05, -3.6159889522658387e-06, 1.945501909172574e-05, 6.655668032380827e-05, 0.00012039669955866716, 0.0001307164349434305, 8.861157566116604e-05, 6.090346297135526e-05, 4.5154615491772425e-05, -3.657068958378856e-05, -0.00014641120306153717, -0.00017566354733524343, -0.0001355202548301722, -1.0509621178469742e-06, 1.2750870313402124e-05, 3.6472917246899026e-05, 4.105907775157652e-05, -4.878360938604595e-06, -8.252645591678679e-05, -6.34601937703429e-05, 3.927623994082081e-05, 7.857714729550024e-05, -5.0264458620036464e-05, -0.00016669425266017837, -0.00014663972851579769, 1.1856452270942373e-06, -6.1200764434347814e-06, 9.996240221310026e-06, -3.169944654023886e-05, -0.000124794721352708, -0.00020683374905868055, -0.0001023585462000499, 5.2493535963451165e-05, 0.00013264078834534593, 1.584016341334749e-05, -0.00010499636347512666, -9.975019826407292e-05, 2.2580733666068976e-06, 1.4261141009858592e-06, -7.379607283620427e-06, -4.049526899514749e-05, -7.243753860420256e-05, -0.00010161822305541115, -3.309146126248327e-05, 8.131813581986597e-05, 0.00014305754682929027, 6.062672399975901e-05, -6.809334996256355e-05, -4.887033026406336e-05, -1.326991012805183e-06, -1.4981003851994796e-06, -8.084534654202238e-06, 2.6309361835525524e-06, 4.1985326540845747e-05, 3.810980278371305e-05, 2.1278104735666007e-05, 4.943242329601254e-05, 0.0001919072129487314, 0.00011941213758436961, -4.245619448217997e-05, -3.316411633695363e-05, 4.579566479964767e-06, 8.242303224552823e-06, -7.379415754491474e-07, -3.219565580122667e-05, -3.6557272825584514e-05, -5.215372977131497e-05, -9.88479249108059e-05, -1.924344377989928e-05, 0.00017163455005160546, 0.00011208242051397966, 1.917135200208845e-06, -8.576524467999123e-06, -3.741480992177289e-06, 2.8592797127942487e-05, 1.049735375353328e-05, -9.627899750029969e-05, -0.00017619857918216295, -0.0001783297058730927, -0.00011155438755869236, -1.1948511008412681e-05, 0.00010693907722903854, 0.00010359920934402307, 5.282350256939093e-05, 2.108906147974675e-05, 5.368348449213635e-06, 5.086176006531933e-05, 4.704065784788126e-05, -3.81333312878169e-05, -0.00015294500167635595, -0.00016033265755421503, -6.837588089225985e-05, 1.1508908911623024e-05, 5.6167417914111126e-05, 7.764537341806373e-05, 4.934108517037293e-05, 2.795318127260693e-05, -1.0593713721747839e-06, 4.068449167911475e-05, 6.505426907819044e-05, 1.4320648380889543e-05, -7.497829548251072e-05, -0.00012008822164908981, -0.00010459593806270435, -6.330301353079138e-05, -9.211664208725585e-06, 3.665289382295634e-05, 2.135000263614216e-05, 1.5787684547993655e-05, -5.22630198508886e-06, 1.0205633404877649e-05, 2.598423847903698e-05, 1.2330332249856761e-05, -1.1421691557347793e-06, -1.9378904237706996e-05, -3.0875619352850566e-05, -2.953973304695386e-05, 7.833380810935312e-06, 2.3285682611600462e-05, 1.886008457657218e-05, 1.5998171391931607e-06, -3.071082205118662e-06, -1.113839505994029e-06, -6.053606871653891e-06, 4.062581904824489e-06, 6.666082168202771e-06, 6.942076213380462e-06, 4.64678455809821e-06, 2.2558694769040803e-06, -1.316038021925147e-05, -1.4749987956295497e-05, -1.4194103808667794e-05, -7.35997813984464e-06, -5.572742298136776e-06, -4.73022054548085e-06, 3.108840913598135e-07, 8.411908060373076e-06, 8.638168680091018e-06, 3.1155223519320746e-06, 4.847025476229145e-06, -1.092331031410476e-05, -1.585571077063618e-05, -2.015538234464032e-05, -1.7557282920108068e-05, -1.3971615738046503e-05, -7.159112048795952e-06, -1.8968904139121976e-06, 3.251628013744877e-06, 7.391481155156713e-07, -3.375563696916326e-06, -9.480781291157634e-06, -7.801259531792193e-06, -6.591627472480736e-06, -1.7225752160770617e-05, -2.8656055656568524e-05, -2.13843340610729e-05, -1.3199322130681611e-05, -3.6798341589788083e-06, -1.7536845050399493e-07, -8.65193327185262e-07, -8.991437429715108e-06, -2.8312718302427337e-05, -2.7091795164343e-05, -3.3755356352661543e-07, 1.4639991458840301e-05, -9.564935176478484e-06, -2.8917958325335613e-05, -2.1487161289038114e-05, -1.1669351122178433e-05, -2.9694762523031624e-06, -6.005547419605062e-06, -1.3779146935451302e-05, -2.1139310602478716e-05, -4.16266461752177e-05, -2.0955051252434776e-05, 5.134704005542924e-06, 1.6095446007313917e-05, -3.0704113521586607e-06, -1.6893739573714593e-05, -1.6785392151141935e-05, -4.745424454976843e-06, -1.1144265296077538e-05, -1.1411991590440786e-05, -1.125826616292671e-05, -2.5809072707749956e-05, -2.7403026439504098e-05, -1.0067569602867838e-05, 7.827941449745439e-06, 2.0726942091903977e-05, 1.0607288823693008e-05, -1.1534156591867008e-05, -1.6028762523680736e-05, -5.9002945220819965e-06, -4.598174448120839e-06, -6.340153461603359e-06, -9.769291255966582e-06, -7.343580225854699e-06, -2.4797791402566232e-05, -2.5598728443588762e-05, 2.964201637957506e-06, 2.7119550061119282e-05, 1.7324999835182792e-05, -1.1073942202359663e-05, -8.851049311004133e-06, -4.4347679947260275e-06, -6.471186984905791e-06, -1.0146870532802651e-06, -7.127028068763014e-06, -1.8179463778661976e-05, -2.325663605056293e-05, -2.889870933067642e-05, -6.750921234938655e-06, 1.8933797542245627e-05, 1.2691760311319177e-05, -6.531233837546544e-06, -8.420885772524234e-06, -8.116987597313687e-06, -3.651366278633206e-06, -2.40317882985943e-06, -1.4288249537133852e-05, -2.811376580161034e-05, -3.201492729034521e-05, -2.521347849250261e-05, -6.892153033072244e-06, 8.274558307702081e-06, 9.99112713040472e-06, -1.1213232459361892e-06, -6.610499896041246e-07, 1.5418117389456316e-06, 2.493695910448029e-06, 1.3065779558242421e-06, -1.3679375716228873e-05, -2.5292020676412444e-05, -3.3168038598978334e-05, -2.9925334642286682e-05, -1.2989426940772973e-05, 1.6631093503820862e-06, 4.204689889884165e-06, -4.48530374616625e-07, -2.7140583792690277e-06, -4.1138743601505185e-06, -4.358589642039915e-06, 7.416063414623543e-06, -3.8557047591929e-06, -2.345205727139337e-05, -1.923832420235193e-05, -1.5806697744845528e-05, -1.000113680698155e-05, 3.0082703578871353e-06, 1.2677472360239731e-06, -1.2198602158412262e-08, -8.588978934203408e-06, -3.7947185098228146e-06, -5.532467367975431e-06, -2.571111541737527e-06, -1.5366781387085074e-06, -1.039983401161504e-05, -1.2767387619544206e-05, -1.2725980957532071e-05, -8.73259462821009e-06, -5.349683655548974e-06, -3.12779688380596e-06, -1.4009989526795741e-06, -3.1520054302309745e-06, -1.353705280033794e-06], [-1.171231146725716e-05, 6.423030896156804e-06, 3.677681919992338e-05, 9.133881872583477e-05, 0.00012049563724047139, 0.00012615080687532174, 8.407342771226238e-05, 9.634284616463304e-06, -4.2644244151089185e-05, -5.373665316993696e-05, -3.719451625254767e-05, -2.385068812254003e-05, -6.957938376452321e-06, 2.9161882261322526e-05, 8.120338654067068e-05, 0.00011785078590316261, 8.956777727509869e-05, 5.497580641889826e-05, 5.328129190377102e-05, 3.0395194228341193e-06, -5.780362918638846e-05, -8.127696258945201e-05, -6.019442953222118e-05, -1.3397729344925795e-05, -1.0752997236278958e-05, -5.905316535277495e-06, -3.2101287808206e-05, -9.180769446751339e-05, -0.00015476805562634853, -0.00011463329885261193, 1.2867385551965084e-05, 2.5270445723458573e-05, -1.9481707960455046e-05, -7.089278777381348e-05, -4.7702444489593364e-05, -6.030001843362107e-06, -1.8947471499773527e-05, -3.827259955947803e-05, -0.00011024924977787747, -0.00022009576075981903, -0.00026659786747768466, -9.142419279564558e-05, 4.784831718775755e-05, 2.168785855247654e-05, -3.258244658275964e-05, -7.537794403135478e-05, -2.198114102076451e-05, 9.771844763169008e-07, -2.0486398914450314e-05, -4.6863937089177395e-05, -0.00011531027097556774, -0.0001800148808906397, -0.00012462222635508467, 2.5720010242896766e-05, 5.1282189472188455e-05, 6.325600090691558e-06, -7.862771395529068e-06, -3.708481987074522e-05, -1.2038510466198229e-05, 1.0664374121584298e-05, -2.1264317884331666e-05, -2.7095546989883486e-05, -4.355247721988464e-05, -2.5755095598386713e-05, -1.5542864776359863e-06, -3.294719429319681e-05, -1.6789327714334803e-05, 4.313703966909785e-05, 3.5523422299584284e-05, -2.2532867791985447e-05, 6.884396265008923e-07, 4.500788710347078e-06, 1.7127829496577997e-06, 2.4584839874263713e-06, 2.3320701955070632e-05, 2.7121419822082483e-05, -2.380447523912295e-05, -0.00010718487197536605, -3.946999194906685e-05, 0.00010701817656096727, 7.566010651373795e-05, 1.8258017909838895e-05, 1.4625386296397688e-05, -3.6660833811796084e-06, 3.094918375534717e-05, 7.065370858318622e-05, 5.575694080717045e-05, 1.0486202919170161e-05, -3.541589541841817e-05, -3.925298044294771e-05, 3.121570087503763e-05, 0.00014811323898835272, 9.637984848639133e-05, 4.0731635396313405e-05, 2.2366464707543773e-05, -1.5233417634566759e-05, 5.577912346350634e-05, 9.361779648311606e-05, 6.014681233932394e-05, 1.4112544710031134e-05, 6.701600047373252e-06, -3.087192827193377e-06, 1.80585709689392e-05, 8.961686901080531e-05, 4.671630300800713e-05, 1.635154161244314e-05, -1.442346367654434e-05, -1.6082010534725662e-05, 2.8709593072531453e-05, 5.6107249203501506e-05, 1.5434232783011232e-05, -3.067490467521316e-05, -6.44703701051604e-05, -8.370993424026246e-05, -6.386208056334691e-05, -2.8726019854543295e-05, -1.1796852028806419e-05, -1.7618268526177334e-05, -3.0856244987381216e-05, -2.1806972694992796e-05, -7.158707378291701e-06, -8.423320565639126e-06, -2.4481200277288726e-05, -3.8008136129448133e-05, -3.0374716932628008e-05, -3.720104087962458e-05, -4.401617592615496e-05, -1.116522571408678e-05, -7.269266648092677e-06, -1.967958574983482e-05, -1.901787566873104e-05, -1.575010676288889e-05, -8.546054603636904e-06, -1.5577855364730102e-05, -2.7787384273419813e-05, -2.30644023734848e-05, -1.0888306453514794e-05, -4.365632249597443e-06, -1.611402396442771e-05, 1.0354047553716467e-05, -2.995159352078976e-06, -2.3317008748890695e-05, -1.9749132716728083e-05, -1.5711033398443956e-05, -2.4681246213168564e-06, -3.113010682007135e-05, -0.00018891870436656466, -0.0005863322171077567, -0.0010713707619620695, -0.0011853339792668725, -0.0008169065554650291, -0.00018736001301446903, 0.00011703327819341354, 0.00027318582217725906, 9.160216148429467e-05, -5.301343107117189e-06, -1.7112134924110277e-05, -0.00018977600487118468, -0.0005147864073301313, -0.0008928240549569083, -0.0008555341588783146, -0.00031770261399178824, -7.750494217852511e-05, 0.00028616479912980936, 0.0004385806029884252, 0.000528613960991451, 0.00020366729824336331, 1.193138131136895e-05, -5.719028770908885e-06, -3.5147099291308805e-05, -6.907212187429723e-05, 3.538217333711379e-05, 5.601765729542186e-05, 6.150573942982949e-05, -0.00013042212668221473, 7.080006301210557e-05, 0.00023719750793673984, 0.0003641367679514551, 0.0002007949593572799, 1.759329720506741e-05, 5.378740562626246e-06, -3.7790542671452405e-06, -8.378715691224327e-05, -0.00010783246953961306, -8.675410087456727e-05, -0.0005235927070349028, -0.0007131765591235911, -0.0005806120078095428, -7.84545212463009e-05, 0.00030886255410386454, 0.00011791761163748867, 4.4043670864179175e-06, 2.4155695758436312e-05, 4.17430006441757e-06, 6.840303227504385e-05, 7.311469687261766e-06, -0.000850470584068061, -0.0007038742790898329, -0.00027661891643807437, -0.0002117168944919807, -0.00031135756329197703, 0.00015469865243267057, 6.134958718408328e-05, -1.7949949703361726e-05, 6.254536845658634e-06, 3.7426441228726445e-05, 9.21071213407699e-05, -0.0004289882440339684, -0.0007375369476004612, 5.4433520216006725e-05, 8.086531519475965e-06, -0.0005094290254415656, -0.0002237417940559634, 9.001861505637517e-05, -4.326637878360848e-05, -2.830750978137137e-05, -4.512327462358489e-05, -0.00013095727028119826, -0.0003117036647712531, -0.0003983674531100949, -0.0004182097606831221, -0.0003702086858782535, -0.0006283668146876756, -0.000568378710538971, -0.00023414853100680414, -0.0002577808309773786, -0.00015323015280772006, -5.287911987074227e-05, -0.00011331429092305918, -0.0002946964101800129, -0.00026578104828661503, -5.745860077890431e-05, -0.0003742203074154385, -0.0004698643041139357, -0.0007297881280495334, -0.0005651369723254135, -0.0005734276522948334, -0.00041392958604906735, -0.00016332341426012755, -3.350116112404821e-05, -0.00012674557286740496, -0.0003087785439954069, -0.0002393755467529182, -0.0005033490623886857, -0.00043804609481042783, -0.0006125296475636858, -0.00075825167081326, -0.0005599802113837911, -0.0005979772393427291, -0.0002703678810716944, -9.253372474442187e-05, -2.5257643200696198e-05, -4.9963867727927675e-05, -0.00020102900524740925, -0.0004015918483842519, -0.0004971054050561185, -0.0003977534525362009, -0.000408806029997265, -0.0003881912154345524, -0.00026180205766376, -0.0001359162532992051, -2.5976711435412626e-05, -1.0395998632920473e-05, 1.6522348452674705e-06, -3.1041912364755146e-05, -7.445818232715111e-05, -0.00014876189384680283, -0.00018311825621742056, -0.0001913806035710452, -0.00012037203100471075, -3.4859600815225085e-05, 6.971254182123757e-06, 1.223116389646956e-05, -2.9212470634451656e-06, 5.560515214934546e-06, -3.5239239808146663e-07, -1.0184676959676222e-05, -1.6638794817279537e-05, -4.673413617358073e-06, 1.8786372942179874e-05, 1.1631645788533955e-05, -8.448234964066745e-06, -1.6233648131997729e-06, -2.575108134593961e-05, -2.342425067137307e-05, -4.214272420789593e-06, 6.190295339510123e-06, -2.823075799426798e-06, -4.695926273667684e-05, -4.625440671277618e-05, -4.9099318253325256e-05, -4.119462728781039e-05, -4.546441935474994e-05, -4.7298808134660326e-05, -4.669795014344884e-05, -4.703901725664915e-05, -4.563301099528056e-05, -4.73097169608823e-05, -5.1446821669542446e-05, -4.7024247449866427e-05, -4.717729066565627e-05, -4.187499523346716e-05, -5.1241422587802756e-05, -4.7578715242411383e-05, -4.130624978019352e-05, -4.62714957729715e-05, -4.379551658693823e-05, -4.5414239775882616e-05, -4.16091923960927e-05, -4.7703136417977426e-05, -5.748110426369332e-05, -4.037174835538479e-05, -3.98551236774155e-05, -4.65203092628656e-05, -4.2629824518238015e-05, -4.7129562786687447e-05, -4.0335548112598636e-05, -4.642770084523696e-05, -4.1165423784396406e-05, -4.50862130041589e-05, -4.3334511106431235e-05, -3.902652643662994e-05, -4.12534309129894e-05, -4.24152744396503e-05, -5.0499474230887814e-05, -3.953111242313427e-05, -4.413622388465204e-05, -4.332631035845982e-05, -4.4423630057394696e-05, -4.940631293492231e-05, -5.055385763274131e-05, -4.6585410248065874e-05, -4.482027026330016e-05, -4.598147716261873e-05, -4.503049041512846e-05, -4.3574849202644524e-05, -4.560655129292025e-05, -4.194002659134174e-05, -3.897672217934839e-05, -4.571102434456843e-05, -4.197601625191109e-05, -5.139086212219573e-05, -4.762107972282875e-05, -4.557140263810046e-05, -4.396920461473785e-05, -5.0307331232855954e-05, -4.584526326189897e-05, -4.374497829055999e-05, -4.3810781264995584e-05, -4.605008036304702e-05, -4.6965104628452e-05, -5.2317813844810385e-05, -5.105462075931967e-05, -4.665993527932089e-05, -5.4643154015624945e-05, -5.076723164851444e-05, -4.6044057557602397e-05, -4.939676418256525e-05, -4.3495912417378017e-05, -4.7659741522424395e-05, -4.426618207116131e-05, -4.5154884873688274e-05, -4.324836555438182e-05, -4.511742668258493e-05, -5.2221990417550775e-05, -4.2476828845630474e-05, -3.879676011617431e-05, -4.3102773758927375e-05, -4.740514419401714e-05, -5.053268402978344e-05, -4.082080961560762e-05, -5.1084247002125256e-05, -4.2999088387607556e-05, -5.44272085822349e-05, -4.3947502844507764e-05, -4.602216264001978e-05, -4.1843715554928785e-05, -4.9190458899338195e-05, -4.5678294335085146e-05, -4.642132590790251e-05, -3.823268291835952e-05, -4.934179261113945e-05, -4.009037297792754e-05, -4.620278751330716e-05, -4.672182254421071e-05, -4.447040337290711e-05, -4.6756346603234426e-05, -5.083096148116061e-05, -4.6139557531705034e-05, -4.982329942708373e-05, -4.51909131210306e-05, -4.0881742434161144e-05, -4.322169773073113e-05, -4.564863282099551e-05, -4.080359097789318e-05, -4.932758476074526e-05, -4.5340681554254544e-05, -4.2487631146132815e-05, -4.65418633496732e-05, -4.848579625412941e-05, -4.7370488343562015e-05, -4.2650926353207406e-05, -3.940930675949951e-05, -3.711907947706155e-05, -4.75561131474409e-05, -4.218003937254822e-05, -4.7918136581640824e-05, -4.818038213297278e-05, -4.520031696509087e-05, -4.725915077481163e-05, -4.5585939327293965e-05, -4.477979124309376e-05, -4.37275467492484e-05, -4.6439518785073555e-05, -4.575038307815755e-05, -4.684235494005091e-05, -4.2417638248962407e-05, -4.686821537873828e-05, -4.6957494773221184e-05, -4.265741734469138e-05, -4.803960564623277e-05, -4.156053372203638e-05, -5.30171021518195e-05, -4.24878595391293e-05, -4.803366034562714e-05, -4.952402595688496e-05, -4.41407514421259e-05, -4.822304442144375e-05, -4.5670950909712085e-05, -4.849474877983065e-05, -3.831657272084822e-05, -5.233297192686248e-05, -2.1007989451410616e-06, -1.5692111203807754e-05, -3.447528424091631e-05, -8.45175789484472e-05, -0.00016745383079953713, -0.0002718100848982785, -0.0003547630063460803, -0.00047047510636902815, -0.00036393639601302216, -0.000129123136262423, 1.4807206253814094e-05, -1.3824140364273544e-06, -1.9472743218983406e-06, -3.0798897656791285e-05, -0.00020557850034599084, -0.0006417432873721688, -0.001251559248232238, -0.001489838850280208, -0.0012179090509897973, -0.0008937139617455272, -0.00034731699388244387, 0.00024588502413768387, 0.0004688797022336752, 0.00026937173513629994, 2.654213885692771e-07, -0.00015519667712884407, -0.0005298117632021869, -0.0010465794730963097, -0.0013202019462162358, -0.0009931031118930733, -0.0009416878551801272, -0.000941568930750166, -0.00031136616242744084, 0.0004128962886040232, 0.0008814779954974772, 0.0007825893085300222, 3.4213798294500963e-06, -5.258157939153404e-05, -0.0002128808618739777, -9.488602707534338e-05, 0.0002882167652742916, 0.001073192996821284, 0.0005411475437208792, -0.0003623889670788331, -0.0005095632450633274, -4.18484072598596e-05, 0.0006141564858076647, 0.0006171218922506156, 1.613932555622691e-05, 6.685188123080462e-05, 9.137690320163596e-05, 0.0006077599376494897, 0.0015983791689252122, 0.0019012456638461575, 0.0007087101151081398, -0.000305998198118296, -0.00036151011223885867, -3.209162134628656e-05, 0.0004161713972499467, 0.00043625763625548505, 2.113589180318061e-05, 4.93805913345329e-05, 0.00021215128437308646, 0.0007138858287944209, 0.0009515536582634581, 0.000907324778091344, 0.000231364341036538, -7.59948361830088e-05, -0.00011342883473664604, -0.0001734975932384984, 0.0001587448514754312, 0.0001711536500489774, -1.2604264269326605e-06, 2.9012852581860406e-05, 0.00016756930505411598, 0.00022293082752401465, -0.0001526290949214188, -0.0001727803742225862, -3.5522346059056705e-05, 0.00024117073984539645, -0.00045947771055476305, -0.0007445987666482247, -6.087005546526968e-05, 1.3959138303111095e-05, -2.2762101159117375e-05, -0.00012348947213965862, -0.0001797919975070846, -0.00022622075314504133, -8.649422152894356e-05, 0.00012068114714666385, 0.0006386143454051337, 0.0005283211689564571, -0.0007225870325601407, -0.0010393266430810406, -0.0006172552060062878, -0.00030272608909520904, -2.6759430703312885e-05, -0.00046805594303164685, -0.000714286645576117, -0.000382790768815249, 1.19700538720297e-05, 0.00018915456413905963, 0.0003043139053900484, 0.0001279139689923566, -0.000956982715369297, -0.0015268953818660502, -0.0010043414647651655, -0.0005456255742456773, -5.000421709796039e-05, -0.0006064653683415979, -0.0010233982638724534, -0.000914322805827789, -0.0005757017669659513, -0.0003937751272888304, -0.00021761197513029903, -0.00029006054889551517, -0.0008677624892102099, -0.0011220287602989108, -0.0008182649451277643, -0.0004041295504113191, -1.1287659487224584e-05, -0.0003979701578397868, -0.000794131808379798, -0.0008112754096736113, -0.0005761868884396987, -6.640703901192794e-05, 0.00039613907256017173, 0.0005728114009585547, 0.0002898274324609055, -0.00027331338316067476, -0.00030334782268390617, -0.00015077043763564733, -4.0628375062733675e-07, -7.432217106442806e-05, -0.00023478264940287515, -0.00019655308931555975, -0.00012604921713358104, 4.378170414456058e-05, 0.0003815744912005359, 0.0006877504891689656, 0.0004679667501378071, 8.48325643446857e-05, -1.7675006021368103e-05, -5.133208557686642e-05, -8.65065505107264e-06, -8.845162882757994e-06, -2.688558943013282e-05, -6.675452235458865e-05, -0.00012078973373604131, -0.00015640196194753668, -0.00014586082801344147, -9.036864043010825e-05, -1.9316131247219127e-05, 1.5043556781550752e-05, 2.0818191684118312e-05, 5.530032309104191e-06, -8.604862677261428e-06, -2.926821588424679e-05, -0.00010215573335343149, -0.00018749832844155564, -0.00023657723649506533, -0.00018121274203919418, -0.0001445884611104249, -0.00010147604629008177, -5.233265649928455e-06, 5.095454191086529e-05, 5.6475742184474554e-05, 1.5383603567522054e-05, -2.5855276455515007e-05, -4.939256151616329e-05, -9.811659593776685e-05, -0.00011372247537684933, -6.720953068773474e-05, -3.804395147584066e-05, -9.586859751248317e-05, -7.475266352506628e-05, 3.523303340418488e-06, 8.732737243628446e-05, 8.070559563011537e-05, 2.022193892810944e-05, -8.852794035217366e-06, -8.06197923479556e-06, 2.4606763768604972e-05, 0.0001227688846828061, 0.00021935847115755338, 0.00013709146721828966, -7.603086908270342e-05, -0.00013573736377552284, -2.4864224415788335e-05, 9.557998615175657e-05, 9.576211097798973e-05, 1.479613836385284e-05, 4.622265680841488e-06, 3.4376596500454795e-05, 0.00012241194465719083, 0.0002801385683705074, 0.00032456684950100446, 0.00013361636037919144, -4.8127188037759756e-05, -5.8818110267282506e-05, -2.754301070064773e-05, 2.2039330947612932e-05, 5.234194906229551e-05, 3.852855873187441e-06, -1.0663219812602486e-06, 2.8047782654560692e-05, 0.0001118260798984553, 0.00020716827202476486, 0.00015582822600489554, 0.00010713429216877143, 2.905917413899706e-05, -4.6371741533093874e-05, -8.967178597821955e-05, -2.785320608494393e-06, 1.684096525978332e-05, -9.853860064704921e-06, -1.0782068703710672e-05, -2.3831021408804685e-06, -1.835850636403976e-06, -6.227735084130996e-06, 6.640200008617684e-05, 0.00014898523283554235, 5.689421832091656e-05, -8.913266213388445e-05, -0.00013335634755214906, -6.38662852202662e-05, -3.971711208499977e-05, -3.2886593437206395e-05, -3.582569160364436e-05, -7.344118425645667e-05, -0.00010928326073870834, -5.731109623694605e-05, 4.468311267114253e-05, 9.18142496887704e-05, 4.533430082350404e-05, -0.00015005879407550157, -0.00022368934744428835, -0.00012468929486866246, -6.473820753498462e-05, -3.720253529512855e-05, -7.476091863623831e-05, -0.00015142122211164578, -0.00013649828658522583, -7.811738586999755e-05, -4.3588664520226135e-05, 2.837708575867765e-05, -4.963297048944532e-07, -0.0001473246712596932, -0.00021095947001376942, -0.0001517583113220016, -7.655662519803516e-05, -2.817369255233229e-05, -8.562585202814204e-05, -0.0001569855207836433, -0.00014383268773302576, -9.075033963874352e-05, -2.904720751495574e-05, 2.6146356499252163e-05, 2.837751096295101e-05, -4.6804458064029586e-05, -0.0001285760211678447, -9.06012485907473e-05, -5.07373499963657e-05, -2.3309227046301366e-05, -4.831743576670668e-05, -0.00011244109886447, -9.222480874303764e-05, -3.1260369787375365e-05, 2.6416486009919544e-05, 2.92340577787107e-05, 6.092347905865336e-05, 4.908684916715891e-06, -5.765624511745306e-05, -4.9215253372832856e-05, -3.362424401419001e-05, -1.017271999259536e-05, -1.1509207998069476e-05, -3.1692700447099574e-05, -3.1267175426092005e-05, -6.039612356415516e-06, 2.4888987419586744e-06, 3.403164067508598e-05, 6.328273587395388e-05, 2.9383053241497233e-05, -1.0843752214982493e-05, -1.2981040331408921e-05, -1.4329138412769142e-05, -1.4139458556635739e-05], [-4.706091327298575e-09, -2.2937030643447194e-06, 4.037920430698159e-06, 1.5286938763551865e-05, 2.5695571615679056e-05, 3.5953695389056145e-05, 3.936180629935064e-05, 3.457841362880765e-05, 1.490015631367906e-05, 7.40788155010871e-06, 1.6793780863297282e-06, -5.255663795910534e-06, -1.437865370146575e-06, -4.9720186129012305e-06, 8.396700798859538e-06, 2.3619382231618293e-05, 3.654153560713107e-05, 3.31929326853343e-05, 4.284408911997887e-05, 3.6856849413465665e-05, 2.7173682100934073e-05, 1.4262034686197995e-05, 2.109504510249079e-06, -4.7769428136197555e-06, -6.380861779449145e-07, -3.4694818718460178e-06, 3.576085056601738e-06, 1.3075565531638537e-05, 2.6529204974674163e-06, -8.979293675922873e-06, -1.6023102689025427e-05, -8.420251161122057e-06, 8.462620299667435e-06, 1.4088722622754176e-05, 3.28058382247716e-06, 4.0964197591364024e-06, -2.771172076670854e-06, -5.352039682183497e-06, -2.4791851615796274e-06, 8.781759377941055e-06, 4.830928560285621e-06, -1.603427118166109e-05, -3.7606620347406716e-05, -1.9286968646512065e-05, 1.6219563865372127e-05, 1.670326196422615e-05, 3.8246722647966906e-06, -1.8272481373797855e-06, -4.1350186539766426e-06, -1.9627874083732846e-06, 6.056458534212804e-06, 2.0359651265668245e-05, 2.0592315460525217e-05, -1.5113248903993635e-05, -3.964351850818712e-05, -1.8897799132977981e-06, 2.3198745224374808e-05, 2.8306876012293507e-05, -2.6969290217470904e-06, -5.523681823579318e-06, -8.946388504206427e-07, 1.2299192325042116e-05, 2.225355807480816e-05, 3.6022037313810755e-05, 1.5588313312023035e-05, -3.797820886957074e-05, -2.63925190225943e-05, 7.691595303876442e-06, 2.93413954209583e-05, 1.904964699771354e-05, -4.322440038082427e-06, -4.299012012560914e-06, 2.32618973018552e-06, 2.8683408391406975e-05, 4.437294335847065e-05, 3.3155244177718935e-05, -9.456316828042316e-06, -4.7734707800143766e-05, -2.027003623849289e-05, 3.60341886412543e-05, 3.996572467496089e-05, 2.6595219728974147e-05, 2.8009443782935575e-06, 1.6328204257630398e-06, 1.2320855060237386e-05, 3.994329888284061e-05, 5.447347756798913e-05, 2.8635786642872684e-05, -8.106808068155116e-06, -3.389890197653549e-05, 5.913136501363526e-06, 6.0544787082386065e-05, 5.559053752528712e-05, 1.794310225334614e-05, -3.1826153039112016e-06, -1.3676423077036808e-06, 1.2945351257091656e-05, 4.5065215309260075e-05, 6.069373696307731e-05, 3.4536123830448793e-05, 7.519172425688437e-06, 1.0770958217119988e-05, 3.968897137346203e-05, 4.9686865843746735e-05, 3.217483883228667e-05, 4.347337318180809e-06, -1.1402953668539037e-05, -2.8585090329388416e-06, 6.42651989837876e-06, 2.6235434929035314e-05, 1.9842073508386197e-05, 1.8003214449863358e-05, 1.535527788612264e-05, 1.3480951076086054e-05, 2.108521601850589e-05, 8.979437816242361e-06, -1.0714374856527644e-05, -5.5055284872026685e-06, -7.848943470912095e-06, -3.9010524853186243e-07, 1.3114811300890236e-07, 7.5368912657506e-06, -6.381781101858428e-06, -1.68792806807313e-05, -1.7975255721239e-05, -1.504643202569342e-05, -1.3101725598069346e-05, -7.987661499318423e-06, -5.2148336330306625e-06, -5.662562667719611e-06, -7.635870030583933e-06, -3.420888125586531e-06, -2.9414784489776e-07, 2.651142406922767e-07, -1.2851354564322179e-05, -8.086431195131138e-06, -3.959513705608718e-06, -7.203167300001798e-06, 1.7034556783035425e-06, 6.879132993257278e-07, 2.522066916218755e-06, -2.2470870342341934e-06, 2.773598813720747e-06, -1.0543150896358424e-06, 3.9746273340509536e-06, -3.921622303306405e-06, -1.1203232504610606e-05, -6.367378712956175e-05, -0.00016367395180625133, -0.00027647804608964916, -0.0003226259975495354, -0.00023443410668874, -0.00013770496607315346, -3.313419217283477e-05, -9.44284614211014e-06, 7.006474027387441e-07, 3.73721767601723e-06, -1.1282539315915975e-05, -3.1392683460698674e-05, -0.00012955697812097022, -0.0002480973591141078, -0.00029621436612551185, -0.00024541118668830865, -0.00015230170679430394, -9.988421993027327e-05, -2.978976245780045e-05, -8.237651319480241e-06, 5.763695856553043e-06, 3.724646509343119e-06, 9.111339489012162e-06, 2.6080143736897894e-05, 2.2609827873043346e-05, 1.5178807446649814e-05, -1.6698100261019e-05, 1.718621736201133e-05, 2.9309940292052364e-05, -1.0508513247721155e-05, -3.972937644865942e-06, -1.0856205144262692e-05, 2.380856668074624e-06, 1.8024725751055683e-05, 2.2956723447898272e-05, 2.1285979674553975e-05, 1.3154022887594438e-06, -2.929642589939903e-05, -5.251508112126411e-05, -3.453174214115904e-05, -5.768729404605464e-05, -9.623833491031851e-05, -8.085366692347556e-05, -8.05930244955738e-06, 3.1454489680569627e-06, 2.1718588471921492e-06, 7.781233035418077e-07, -8.732057440819737e-06, -6.0482738189880386e-05, -0.00012777190877220145, -0.00013222530022999516, -5.133530523585284e-05, -4.595719996517536e-06, -5.4455961324954936e-05, -3.8203723891920934e-05, -9.834991528696465e-06, 5.998158471964365e-06, 4.304750494557591e-06, -8.270065231641976e-06, -5.358897375635672e-05, -0.00010871245908806479, -9.959317014535277e-05, -2.0684021038745474e-05, -1.7626203012812433e-05, -3.0056948302173222e-05, -1.748693717905502e-05, 2.2513724850803984e-06, -8.093788031281595e-06, 8.448415893487898e-06, -4.115146454204644e-06, -5.00096599612526e-05, -0.0001222973652300486, -0.00011124298688822651, -2.9424989411178145e-05, -2.4169473519704125e-05, -5.043012795697028e-05, -0.0001412010355965095, -7.373445531609075e-05, -6.441703645818486e-05, -3.602256698515604e-05, -4.871457817546449e-06, -7.955448830673409e-06, -5.8715860073070004e-05, -0.00010208760594639294, -8.524115561737713e-05, -9.44886186716367e-05, -9.780002264733987e-05, -0.00017914390798418118, -0.0002250319535768262, -0.00016603883233310278, -9.777833884012605e-05, -3.50213418764453e-05, -5.160509827666694e-07, -1.2253283972280799e-05, -4.689247987918237e-05, -9.752779723396296e-05, -0.0001795971628599128, -0.0002617667631675376, -0.00032447266020609516, -0.00036495339489807995, -0.0002871013146991474, -0.00015498352061808435, -6.497535673719575e-05, -1.9711441890362797e-05, 5.028832288720962e-06, -2.863942940146791e-06, -2.613135870671376e-05, -6.000374505813529e-05, -0.00017323675863649765, -0.0002800946773305272, -0.0003522744056612456, -0.00028204987471685763, -0.00015293229149031582, -6.717727445787015e-05, -2.0747764310034445e-05, 2.1999660798555033e-06, -5.27672646471347e-07, -4.0948961747717074e-06, -1.4309574344362183e-05, -1.0992469290849051e-05, -1.4225613892953761e-05, -4.238919101965541e-05, -5.3380097455248936e-05, -4.386880164476043e-05, -3.6908170716093497e-05, 1.4478887056447195e-06, 6.647343287453832e-06, -2.9881893830842433e-08, 4.687159466728067e-06, -1.5275128679651525e-06, 5.408026826754287e-07, -3.839731245150649e-06, 2.216823095636129e-06, 7.507399389235345e-07, 6.977540130827964e-06, 9.973602007189078e-06, 2.875157907660179e-06, 1.8253683881502175e-06, 1.7692477078968295e-06, -3.908940799930952e-06, 7.230798075323422e-07, -6.320999241357796e-06, -7.348042906120425e-06, -7.370217026320912e-06, -8.360698686738424e-06, -3.971809203080882e-07, -4.461266913047749e-06, 1.1877737505772228e-06, -4.6140678764842355e-06, -4.941079106842012e-06, -3.292628263053479e-06, -1.8846342523105e-06, -3.377116524217643e-07, -6.2796433320632344e-06, -4.078099166932099e-06, -8.702235620846485e-07, 3.758980611186015e-06, -6.266557232202285e-07, -3.4407939475677627e-06, 3.6705535176091487e-07, -2.8025096591146026e-06, 2.1703623475852945e-07, -2.357948514215636e-06, -4.4654309224803784e-06, -1.6640226788613473e-06, 2.5308329735220925e-06, 6.8827600409665335e-06, -3.071987131803904e-06, 1.5375940192139587e-06, 3.926686105429415e-06, 8.051957679703441e-07, -1.2207171322006466e-06, -5.987608745695038e-06, -3.0903319230312222e-06, -6.174554045056414e-06, 5.996487635832436e-06, 1.3544122447467907e-06, -5.47942692037451e-06, -5.116953243038128e-07, 1.3851341241128117e-06, 2.9828516585872865e-06, -2.1276856020444227e-06, -3.687454899173659e-06, -1.4361771674671147e-06, -4.502642132122625e-06, -7.663334402503383e-07, 2.8589961984932222e-06, -3.9973129804663415e-06, -5.797529109764169e-07, -6.2989350341945175e-06, 6.879861493261397e-07, 4.884962206709766e-06, -4.4049296971152813e-07, -9.043994268144306e-06, -1.083566074396531e-06, -9.84748689337623e-07, -5.764668029014673e-06, -9.776776751567663e-07, 3.966689707406931e-07, 2.659559561650576e-06, 1.1638014234104874e-06, -8.391789300144063e-07, -3.061378283480753e-06, 3.3020969644488664e-08, 2.335801714565864e-06, -1.3157364161281787e-06, -3.7232085506864356e-06, -7.008631736689694e-06, -2.851280925177817e-06, -4.021092987621053e-06, -1.8599296682773197e-06, -4.326857495114066e-06, -6.648897116356453e-08, -2.093484402307278e-06, 4.216723687184339e-06, 1.976672422880511e-06, -1.073481894554482e-06, -5.385913789489133e-06, 6.135630833946239e-09, -9.607959493037966e-07, 4.7166640178687906e-08, -9.444097643341227e-06, -9.390995468086582e-06, 4.9103767898368374e-08, 2.7661808435672566e-06, -6.532545346689255e-06, -3.0356801737196256e-06, -2.0710133692914643e-06, -9.440307444598041e-07, -3.507432162785557e-06, 3.3724782374082555e-06, -1.8244190865802636e-06, 1.8453102959190827e-06, -2.408671844288981e-06, -2.2614127804195038e-07, 2.676325954534166e-06, -4.40807649800404e-07, -6.328007553493016e-06, 1.4223135919246025e-06, -1.7901763549480812e-06, 4.742290582775395e-06, -5.087003050026809e-06, -2.0108471199089094e-06, 3.4024496347343555e-07, -6.320721649474624e-06, -2.680877932496033e-06, -4.16390197207997e-06, -8.568784904463922e-06, 2.5146427406293345e-06, 1.9032222105801652e-06, -7.70044821307485e-06, -2.25599366318039e-06, -9.012731274870932e-07, -5.411407991872327e-06, -4.6423944491973836e-06, 3.764010418002003e-06, -1.1458501866636573e-05, 1.5093592089140427e-06, -4.803308605212064e-06, -4.225629974625666e-06, -1.0763144373697479e-07, 1.8513454918247642e-06, -4.689292174270242e-07, -7.541567362916702e-06, -5.747528089881295e-06, -7.051329436683958e-07, -7.788819527524801e-07, 2.5428790627729276e-06, -1.043045895523069e-06, -5.800175625743942e-06, -4.388981981649371e-06, -5.399274839753887e-06, -1.9799871473703624e-06, 6.259152120255463e-08, -7.771932848401868e-06, 1.5688966566349093e-06, -2.0654365095451453e-06, -1.0074661690599322e-05, -4.906590979577495e-06, -3.281774549635743e-06, -3.996773744427759e-06, 3.1271552624092677e-06, -1.2814027119997772e-06, -5.6030770812025476e-06, -4.803286056239903e-06, -5.58109208594597e-07, 1.702765237397658e-06, -3.737275344772916e-06, -9.358287678187838e-06, -2.422869897088815e-05, -4.773859780631522e-05, -5.015118756945018e-05, -5.109267902735996e-05, -3.123933548518039e-05, -1.8646266426644002e-05, -5.180668171710391e-06, -2.3175841533086974e-06, -4.508182873980585e-06, -7.417772585908305e-06, -1.1836518308574149e-05, -6.264194071172755e-05, -0.00019135262615331905, -0.00031216389137118597, -0.0003601448470055329, -0.00038624977032667644, -0.0003233849524107351, -0.0001564982064946703, -6.273216276937343e-05, -7.308908090961643e-06, 2.2684601884807687e-07, 1.2626557247881278e-06, -3.20867472524644e-05, -9.866681151170593e-05, -0.000264319850157948, -0.00039849939947902047, -0.0004249290003148323, -0.00037092010947043294, -0.0003715810561674764, -0.00030202299722278107, -0.00018254251412312377, -6.138331189232014e-05, 4.52194862099344e-06, 1.6424194341637723e-05, 1.2350646994516973e-05, 2.2567548948271845e-05, -7.569157296173081e-05, -0.00014386887103449593, -2.180129192885465e-05, 0.000101644734211137, -4.6185356795376704e-05, -0.0002188381249990462, -0.00026692283084807914, -0.0001410793468314903, -1.4112368761396868e-06, 3.636579369927761e-05, 3.0036142871171333e-05, 3.4258778358967336e-05, -2.1159529440198888e-05, -9.543230572734896e-05, 9.16949344915537e-05, 0.00025845873426248435, 0.00014530102162414708, -0.00016458173859929318, -0.00026107853272218866, -0.00014487047719563794, -1.3485423953193556e-06, 2.7053191610911203e-05, -1.2794316131414478e-05, -6.786889029871157e-05, -0.00016578657046565517, -0.0002522891102412595, 8.29517619196325e-05, 0.0003027692415097072, 0.00015531264000680583, -0.00015075538675865104, -0.00026415752065301213, -0.00013347627153788904, 6.291845519545042e-06, -1.1020044308686038e-05, -9.723213296128259e-05, -0.00024164309669117714, -0.000325138819810502, -0.00020294303452220554, 0.00019263861113822753, 0.0003426978045194312, 2.8107176963865084e-05, -0.00018077279419073992, -0.000254350183163898, -0.00012997328155423964, -3.857771131239065e-06, -4.8107204861591e-05, -0.00024426723599170377, -0.0003957870301436079, -0.0002965209324215301, -4.012236844528665e-05, 0.0003541856420521697, 0.00030180997484458624, -0.00015138258352941748, -0.00036612834504033524, -0.0003222432444852717, -0.00016142650547361833, 3.5336184174831177e-06, -8.039060756310805e-05, -0.00033912251573552923, -0.0005258152704081918, -0.0003810899066973539, -6.975926383729281e-05, 0.0002100352246046063, 2.3539753636634828e-05, -0.00041099071200854475, -0.0005281317955693839, -0.0003458898962716422, -0.00016225615894164972, -3.950493620118794e-07, -8.003169527961323e-05, -0.0003393934366458914, -0.000538626436429339, -0.00048653782250810724, -0.00030178807567232305, -0.00012637717331238, -0.00025386017804146467, -0.00046540561945669753, -0.0004228071274941627, -0.000249433856296513, -9.993924411302296e-05, 5.347513647344888e-06, -5.525280933595333e-05, -0.00020753256427749554, -0.00034869134979829313, -0.0003795906500846451, -0.00033297918765949283, -0.0001910525772540671, -0.00016473017112034516, -0.00016961233898176814, -0.0001365780102423875, -8.439317533184705e-05, -4.038497389437892e-05, -5.454009189382422e-06, -9.249787755492223e-06, -3.4393892369525e-05, -3.701914992798933e-05, 2.685379681414348e-06, -1.42754385041839e-05, 3.7409654903298645e-05, 0.00010342402867571692, 0.00010192869245132002, 2.4417060850890363e-05, -2.4273884703146534e-06, 1.128620181655189e-06, 4.527727806603042e-06, -2.500704678417635e-06, -3.4367526852853536e-06, -4.774798773113614e-06, -9.617818460583786e-06, -2.999209905322606e-05, -3.791942384612573e-05, -3.3725842836262066e-05, -2.42465129684311e-05, -1.1001695102826955e-05, -4.50457960601685e-06, 3.054705860322207e-06, 1.930774586962735e-06, -5.201684329140517e-06, -6.374942684700808e-06, -2.131620533044909e-05, -4.8255757712324204e-05, -6.640564330245475e-05, -6.233423544183835e-05, -5.0337690231095305e-05, -3.6226471933431436e-05, -2.943393019995166e-05, -2.946587359324449e-06, -3.651018161809264e-06, 2.1181378600021627e-06, -1.1778142079469572e-06, -8.13011676487997e-06, -2.0422992953884333e-05, -4.265211417498445e-05, -5.337263551245245e-05, -4.685534691240933e-05, -4.06964375049097e-05, -3.6296784004663815e-05, -2.6916629576244746e-05, -1.7016935565017612e-05, -1.7432214897399485e-06, -2.311341087324658e-06, 5.4024857548797514e-06, 1.882416112458441e-06, -8.35518014296854e-06, -1.8426249966341364e-05, -1.1163354505987887e-05, 5.525505003456316e-06, -5.018764501776714e-06, -3.947107179512474e-05, -4.226489604927685e-05, -2.8471783826933348e-05, -5.2471076442423305e-06, 1.0380814383604035e-06, 4.626018582238673e-06, 6.622541601132755e-06, -4.7382738765268135e-06, -1.4199645799142147e-05, 9.922368872886535e-07, 4.595279356721338e-05, 2.8635558290832915e-05, -2.982882621780028e-05, -5.0079271261093855e-05, -2.932577542116568e-05, -4.0872702823576455e-06, 8.053484449024413e-07, -6.270676221786481e-06, -1.6521896976917397e-05, -3.470151359425466e-05, -4.114245256259435e-05, 1.6702687188353374e-05, 5.2674250729774085e-05, 2.1091147970976592e-05, -2.0475282285743306e-05, -4.146712994916554e-05, -2.4930793462807333e-05, -5.116613550608454e-06, 1.2855417978032785e-06, -1.5872617771350778e-05, -4.789936360694886e-05, -5.699102377185029e-05, -2.8431031989961667e-05, 4.014931950959735e-05, 5.910999421274094e-05, 3.937615378299092e-06, -4.099022812695888e-05, -5.624391323465123e-05, -3.004689941525138e-05, -1.532014432922427e-05, -8.596634907082606e-06, -3.7525810442028385e-05, -7.159536520895753e-05, -7.08887822797647e-05, -2.1172237826542812e-05, 4.236009836147274e-05, 3.8310263198686076e-05, -3.352319056092582e-05, -7.283455429427648e-05, -5.940323715309279e-05, -3.228022126966521e-05, -3.890267047500215e-06, -1.2824562253238179e-05, -5.52568946604806e-05, -9.360712519486787e-05, -8.76384547325026e-05, -2.8465647470794264e-05, 1.6189375584061326e-05, -1.0614543406847391e-05, -7.718363021609435e-05, -7.717575643801859e-05, -5.6573711209321296e-05, -1.8837111514038424e-05, -1.1179482349821198e-05, -1.8532117681386525e-05, -4.976377868691398e-05, -8.768776504229883e-05, -8.502343780477457e-05, -4.388309277536364e-05, -2.1592853124747122e-05, -3.104695967300035e-05, -5.371188057952983e-05, -4.4834265366811415e-05, -2.7134593867370585e-05, -1.2917879939068277e-05, -6.574889633062549e-07, -6.485208953359562e-06, -3.041690125759684e-05, -4.385512239508943e-05, -4.536034690207637e-05, -3.569417590601098e-05, -1.3584537135100254e-05, -6.019983278435781e-06, -1.290144281255247e-05, -1.6659048525842457e-05, -2.219780339638802e-05, -3.307527761267084e-06, 1.7032674438361397e-06, 5.1167503606849286e-08, -5.769252888764636e-06, -1.1482743591071509e-06, -4.460169533097556e-07, -4.109634625394443e-06, -2.301084443857282e-06, 6.213175237032167e-06, 2.0395947821859524e-06, -9.093501951709204e-06, 1.156200044442104e-06, -6.803693706376851e-07, -2.8454863780908693e-06], [-3.1863066764049893e-06, -2.868888380538799e-08, 4.330452310183669e-06, 1.4585580124988851e-05, 5.583070213359504e-06, 7.4604357261594175e-06, -1.4619650340928025e-05, -2.7049399316835828e-05, -2.496534089267399e-05, -1.4241785353430359e-05, -7.546797109061674e-06, -1.5199282620596433e-06, -2.541982905384581e-06, 5.306552697378648e-06, 2.3172580580738238e-05, 1.8948991694323434e-05, 1.0444337217308095e-05, 2.628730258943615e-06, -1.1100565257456031e-05, -2.59817909263097e-05, -2.8933811205521985e-05, -1.8194205448096604e-05, -6.749863241731831e-06, 1.1912795914897059e-06, 7.727064186884493e-07, 4.0033540500046846e-06, -3.82741819467312e-06, -1.9497510282393722e-05, -2.76311475679539e-05, -1.986706309841466e-05, -6.658625522082277e-06, -1.4080626686705538e-05, -2.4847456040762006e-05, -1.6460532728560357e-05, -9.438068723197387e-06, -5.035234407730928e-06, -8.664458609861072e-06, -5.834896357673468e-06, -3.0498724394681994e-05, -5.1693711809986246e-05, -3.5013296289360835e-05, -2.969411226043538e-06, 1.8348273325261053e-05, -2.701664802581084e-06, -2.285207476658015e-05, -3.2195543096174775e-05, -9.881787296158753e-06, -6.683238444381659e-06, 1.9769765616560273e-06, -2.363686632470349e-05, -4.532344097088406e-05, -2.5978035842461483e-05, 2.611015643233614e-05, 5.497961087215382e-05, 4.753043445024633e-05, 3.411794730634281e-05, -2.642186973907163e-05, -4.6439363751838485e-05, -1.7175495191895167e-05, 8.001521984356892e-07, -2.657508353182511e-06, -2.9724040164920156e-05, -5.011428469117904e-05, -9.945172003905113e-06, 3.5069849037135905e-05, 2.604261472460862e-05, 3.8860437072861326e-05, 4.053801330256292e-05, -2.2579479962357925e-05, -4.061753647391909e-05, -4.732804994152979e-06, 3.72638197716165e-06, -6.174937685423866e-06, -4.1765263467804794e-05, -5.6933236215979806e-05, -1.7078378687006952e-05, -6.362418121609664e-06, -3.064069944651389e-05, 1.778163547651442e-05, 3.1461906386925044e-05, -2.7698906918614363e-05, -3.0245078692813224e-05, -4.485244363511452e-06, 4.87580222896604e-06, -6.793381645770793e-06, -3.36833986387605e-05, -5.024735800788941e-05, -3.150277281546791e-05, -3.4922756686939976e-05, -3.5713369317220504e-05, 1.9953576343220663e-05, 1.7647901237619966e-05, -1.760713005996083e-05, -2.60200831033642e-05, -3.234659325122123e-07, 2.2338752656732636e-06, 8.81151608262778e-06, -1.3201719498427486e-05, -3.6399252782537796e-05, -4.583557835367719e-05, -3.12882638140047e-05, -7.144925072031921e-06, 2.4865042315480997e-05, 1.3029222045415644e-06, -1.5734536462654053e-05, -1.1561256348331038e-05, -2.8144650835087674e-06, -3.638007493151952e-06, 7.986868589704042e-06, 8.040817186773171e-06, -1.5055900323327032e-05, -1.4550460134525356e-05, 3.74954729126769e-06, 1.3140387777248574e-05, 3.979853697439814e-06, -1.5700125745957309e-06, -1.58515844961688e-05, -2.0249054435905618e-07, -1.4840040017773553e-06, 3.520886815982547e-06, 7.133838819455485e-07, -1.9835324492190127e-06, 1.8660759030831079e-06, 1.5725555667716727e-05, 2.374142880656405e-05, 1.2808522470275904e-05, -2.9776701487185724e-06, -4.675916820853094e-06, -1.701369023513393e-06, 6.189923037936547e-07, -2.2878894534429338e-06, -1.103589516235846e-05, -3.0775563969725007e-06, 4.7361083167189196e-08, -4.067103733939924e-06, -1.0195958421035796e-05, 2.7047384826056148e-06, -1.6681580963023942e-07, -4.471082120611992e-06, -1.5495103869440097e-06, -1.7769640723613445e-06, -8.03444122224403e-06, -6.831389577888923e-06, -3.2246623425926548e-06, -5.747618109332767e-06, -1.4439356856068785e-05, -3.912190618893805e-05, -7.491601196928452e-05, -0.00014781166602734186, -0.00012392744314878936, 7.025904122200393e-06, 7.018201574488885e-05, 7.579770853129878e-05, 1.9415946086337568e-05, -5.697765962655395e-07, 2.635533873031922e-06, -1.3188053420051054e-06, -4.891973104750646e-05, -0.00011843726670990213, -0.00018277498868343918, -0.00019464872159517536, -8.685330456833967e-05, -6.097024940986733e-05, 5.6874229692024486e-05, 2.9568253130694335e-05, 3.759441868870432e-05, -3.849372493287251e-06, -7.678091755080605e-06, -1.2970474031827039e-05, -4.0614501994944644e-05, -1.6325061570297374e-05, 1.9631948411081355e-05, 1.7380759207888166e-05, -8.993098771777107e-05, -0.0002027806844216436, -0.00011031751381683558, -1.633232334010218e-05, 1.6335529526068442e-05, -1.0349978501461657e-05, -1.3720636682624009e-05, -1.1709613299073448e-07, 6.398148540327286e-06, 4.666198493362041e-05, 4.225265775872277e-05, -5.355354886104588e-05, -0.00031747733907866454, -0.0004366417240235782, -0.00035714030545380807, -7.802780624643268e-05, 5.6147214242114266e-05, 1.7446689257657008e-05, -3.264262673069746e-06, -1.5409285097412257e-06, 1.827439493207806e-05, 7.319818954125322e-05, -7.70290446429882e-06, -0.00036495752263490184, -0.0004979812978647697, -0.0004381265104256867, -0.0003581830603913998, -0.0001373511726410037, 6.173078031434185e-05, 1.6199023842022132e-05, -4.199445126003679e-06, -1.0407170265993667e-05, 1.8862373215458643e-05, 9.647767068093073e-05, -6.244412216371739e-05, -0.00021706532244627897, -0.0001671447867630515, -0.00024042658543864065, -0.00021230851539834537, -0.0001352949913859632, 3.464288359343809e-05, 1.602887610471158e-05, -2.574250624502185e-06, -5.3863860880179284e-06, -1.3682173780730107e-06, 3.276694681828788e-05, 1.2114624682300595e-05, 2.420202269739062e-06, -0.00010652254257229523, -0.00012611712282979112, -0.00022390879972321442, -1.9558436321446683e-05, 1.535829491180515e-05, 5.896970993558205e-06, -5.446643938902214e-06, -2.3508103254215273e-05, -2.7623619877255516e-05, -6.465649660726236e-06, 9.739804487805818e-05, 3.9178109162030086e-05, -7.063301621131364e-05, -9.93911697923949e-05, -7.319899231888625e-05, -4.995225401324196e-06, 1.716920286381118e-05, 8.458872983963785e-06, -6.166857831936859e-06, -4.2244719457533504e-05, -9.952046712649884e-05, -5.84230697970172e-05, 0.00011922391812938264, 9.785521260578028e-05, -3.328840307826385e-06, -7.710717146379856e-05, -1.90121738755874e-05, 1.88334774891734e-05, 2.7780505244355757e-05, 1.7681556082672784e-05, 6.795945489853436e-08, -1.1096822129094664e-05, -5.429144205379912e-05, -0.00010458087724438001, -0.00012041146575089305, -0.00013232449420254284, -0.00019618788400859572, -0.0001343321131994834, -1.062640397027894e-05, -3.069034087764684e-06, 4.135121813308642e-06, -1.9858950178374796e-06, 2.7939880693699756e-06, -1.0184450057434135e-05, -1.7596282969274706e-05, -3.685671374622513e-05, -7.071886429857249e-05, -8.719108001169916e-05, -8.010976889011872e-05, -2.7813947509073496e-05, -4.79013661529451e-06, 4.045029138412456e-06, 9.060808529024894e-07, -5.5519717484382506e-06, -5.998138842989463e-06, -5.943316001195127e-06, -7.788007164321298e-06, 2.60765673294213e-06, -3.341358458774559e-06, -1.645215289661135e-05, -2.3849317436150213e-05, -7.530751093729318e-06, -1.8381755344138692e-06, -2.7859027054491035e-06, -1.0878742974705705e-06, 2.1927323525166747e-06, -6.79556128294073e-07, -1.7802970718047183e-05, -1.8764380028930754e-05, -1.6816613340836178e-05, -1.1899183440488398e-05, -1.0792800062712379e-05, -1.702934943610304e-05, -1.321182874695772e-05, -1.6914294034144215e-05, -1.064056841411274e-05, -1.690368620896083e-05, -8.830143588862356e-06, -1.2642354281985281e-05, -1.3920894077289986e-05, -1.3103744193535702e-05, -1.2562130871215821e-05, -1.7248316686412183e-05, -1.200737579322853e-05, -1.1783202238358988e-05, -1.2980768458528276e-05, -1.2419588667606328e-05, -1.0538247428763855e-05, -1.5580874805505206e-05, -1.3174596498177154e-05, -9.125136319651525e-06, -1.2734209265475097e-05, -8.090999014726831e-06, -1.8806428888178105e-05, -1.0071845047579449e-05, -1.5003174161580442e-05, -1.2897067102778653e-05, -1.439824254387824e-05, -1.3329015889467866e-05, -1.776473560663706e-05, -8.758805500013703e-06, -1.2104500096266632e-05, -1.5434644775583367e-05, -1.7849828193362182e-05, -1.6270697048400227e-05, -6.707216396449058e-06, -9.825891154689764e-06, -1.653045353070093e-05, -1.8606506417854785e-05, -1.1064990327190304e-05, -1.0852308543549988e-05, -8.596708295598241e-06, -1.4890149857362244e-05, -1.2576214460051517e-05, -1.1718458590621009e-05, -1.558355459765753e-05, -1.093118525274583e-05, -1.0050980275684147e-05, -1.528594577011493e-05, -1.6225988857248125e-05, -1.1253300644932029e-05, -1.125243247261128e-05, -1.4598331728765003e-05, -1.5152562238013469e-05, -1.0149956209022873e-05, -1.557781956001957e-05, -1.7916957512121772e-05, -1.0744072393971744e-05, -1.1365501368884693e-05, -8.475585137158612e-06, -1.534643187456945e-05, -1.736624286143054e-05, -1.612295300060718e-05, -1.8045744860439642e-05, -7.74205402485098e-06, -1.1410181367040326e-05, -1.3305665503783436e-05, -6.032560222013884e-06, -1.2766967808337141e-05, -1.3820752762824047e-05, -1.439305774354557e-05, -1.0540804453790309e-05, -1.2014512473209421e-05, -1.3147579534934356e-05, -7.50357912566009e-06, -8.319929700421482e-06, -1.502546660573985e-05, -1.2296799943493484e-05, -1.2351808844756603e-05, -1.4705409251075004e-05, -1.2168382974870166e-05, -1.3896219178053833e-05, -1.6489504976062177e-05, -1.7157729070074452e-05, -1.4159440834711894e-05, -1.6719357379626794e-05, -1.7371167064173083e-05, -1.5002818207279993e-05, -1.2090390355361282e-05, -1.2625808221427073e-05, -2.1636662244588345e-05, -1.3929714193976452e-05, -7.772329458556586e-06, -1.1449617368705872e-05, -1.2906072974627231e-05, -1.2913011146042732e-05, -1.5721548883548273e-05, -1.2066959826744093e-05, -1.88888441324195e-05, -1.2599432181455244e-05, -1.2246082263886747e-05, -1.0522961488369887e-05, -1.7356536937366793e-05, -1.8801993432452127e-05, -1.294742749318931e-05, -1.3646497706511178e-05, -8.403259076732724e-06, -1.6350908125864503e-05, -1.0299172547103254e-05, -1.0369049621922426e-05, -7.615173710309592e-06, -1.399724377499189e-05, -1.3506086539770981e-05, -1.4064145409280929e-05, -7.967646753096282e-06, -1.4276307769966859e-05, -1.1906617357081525e-05, -6.179350970280175e-06, -1.5695442255480072e-05, -1.2525890902425306e-05, -1.146356155748773e-05, -2.123675066721183e-05, -7.829848804634846e-06, -5.6441778660732735e-06, -1.4055489420634413e-05, -9.054193436363568e-06, -1.7404555805022467e-05, -1.3269368231983382e-05, -1.4266015917494575e-05, -1.380759175068332e-05, -1.4190413347210045e-05, -1.2620736753846722e-05, -1.3566697398515602e-05, -1.432013118818474e-05, -8.75523158683278e-06, -1.6168922461984028e-05, -1.8095298439959417e-05, -1.1814886417569035e-05, -8.774672514450457e-06, -1.1481491619177856e-05, -2.0391753526145233e-05, -1.579604210446156e-06, 1.5371779716248154e-07, -1.6918215946951547e-06, -1.2292808281694895e-05, -1.4372863548221065e-05, -1.7886614530835833e-05, -2.8882957981191023e-05, -6.978027876209412e-05, -9.393713332882177e-05, -4.366126229051625e-05, -1.2562410855858572e-05, 1.1729220501487815e-06, -5.747925480365006e-06, -9.521205463566248e-06, -4.218895682329679e-05, -0.00010764740787322663, -0.0001909247901271763, -0.0001715120374861096, -6.95419155584971e-05, 2.9899984878939382e-05, 0.0001679098333972651, 0.00018407055458350533, 9.059630664787018e-05, 1.0187211872575934e-05, -3.4558729412220406e-06, -3.5439588819634426e-05, -0.00013268654230111035, -0.0002362411518082617, -0.00026358069246066045, -0.0002099398136585255, -0.00015878843974704627, -9.304086641506476e-05, 0.00013534422542263203, 0.00030891981008741783, 0.0002061852695614882, 5.735930231057354e-05, -2.6750957657153212e-06, -3.401309162728167e-05, -8.749341424119794e-05, -2.9350429026418746e-05, 6.926227643010118e-05, 0.00010208060839342433, 2.455164425141108e-05, -5.238226521615271e-05, -5.540713339838669e-05, 0.00019695283447534515, 0.0002199102212359901, 9.010339017553721e-05, 4.630989880270446e-07, -1.7768582083282586e-06, 5.879291110960187e-05, 0.0002456097563159274, 0.0003317764370511132, 0.00017417701144427258, -3.528998536702559e-05, -0.00018319362028384824, -0.0001973084688741975, 0.00015851127786132934, 0.0003759820963762906, 0.0002176406389350328, 9.776481992032506e-07, 1.515284013562086e-06, 0.00018814617105751208, 0.00034194569164340235, 9.34355422734947e-05, -0.0002998503688723535, -0.00035163864520536357, -0.00045023273806552857, -0.00036242663465571026, 8.200586221070931e-05, 0.0004590044941359441, 0.0002708272498583952, 1.8762156395346942e-06, 1.5280147729568652e-05, 0.00028645464212297535, 0.0004298329019837523, 2.2501902302844976e-05, -0.0003312886565270408, -0.00034927984456309706, -0.0004415711468985347, -0.0005993167906863788, -4.0015372112061564e-05, 0.0003595206621495517, 0.00027951130041745857, -1.9884587531838433e-06, -1.2459397924700637e-05, 0.00029936211997843134, 0.000546883769046836, 0.0003381971483461555, 0.00010411279834610973, 0.00010799898169048676, -0.00016938871628218374, -0.0004993660493338886, -0.00012910726665603484, 0.00023297095303123362, 0.0001831839442874115, -7.809532028689788e-06, -5.751203808731032e-05, 0.0001594558787596607, 0.00048488365492666745, 0.0005241894608659266, 0.00030468432632623345, 0.00023324699232555056, -5.65574485102059e-05, -0.0002959391339401642, -0.00011228040149509637, 0.00014423881221936846, 0.00013178410625024054, -7.78416416752245e-06, -0.00011384155674259712, -5.2819873214549595e-05, 0.000256728010335543, 0.0003792369036655187, 0.0002438296130283625, 3.755511958645882e-05, -0.00012137121591172327, -0.0001525509902646913, -9.696553590996578e-06, 8.292714707459405e-05, 4.8934545107201676e-05, -1.3833813417292416e-05, -0.00011619782375257251, -0.0001743005503967529, -4.281935967807731e-05, 7.892711978677105e-05, 1.0912667728252429e-05, -8.69615983021114e-05, -4.188320497311607e-05, -6.858618548789609e-06, 2.8996796809200237e-05, 1.8139136727998715e-05, -4.060509859505639e-06, -9.939471725950825e-06, -3.658504420299265e-05, -0.00010045829148523011, -0.0001813297413912615, -0.0001831258562533655, -0.0001962865554270783, -0.00013596720128657134, -3.0900411101639844e-05, -1.0867440702920706e-06, -2.2628460945732055e-05, -2.9692840580039493e-05, -1.779486286830373e-05, -3.4135853508408714e-06, 7.926524857117897e-07, -4.53948127136484e-06, -1.3196147978061703e-05, -2.3300388628643244e-05, -2.1230430652243238e-05, -9.522367495514256e-06, 3.5811278016315184e-06, 9.268771371349067e-06, 1.282428066455755e-05, -1.2824717420475547e-06, -3.2795877574434983e-06, -6.623596765799887e-06, -7.539577604039079e-06, -2.410801858224213e-05, -2.806725409912898e-05, -2.906773401701052e-05, -1.2610718963245675e-05, -5.053306598182529e-08, 6.77604188811939e-06, 2.854166124678811e-05, 1.769918970774611e-05, 3.3926144279838265e-06, -1.5657611716875466e-06, -9.185240884271408e-07, -2.085300736996839e-05, -2.4411509978172583e-05, -1.9702931890821056e-05, -1.462128004222416e-06, 9.423838657008453e-06, 9.006432004648198e-06, 3.485607676784311e-05, 4.0996740182417594e-05, 2.6916328510486457e-05, 1.5408405700197963e-05, -2.4078073003739785e-07, -7.121968339063338e-06, -7.073586115538756e-06, 6.0484979803722046e-06, 2.944381535226626e-05, 4.396306089938616e-05, 1.544152634437515e-05, -1.87922276391988e-05, -1.67989795359863e-05, 2.6293544239529908e-05, 4.644146807325149e-05, 2.7376462478764513e-05, 1.0743004179101597e-06, -4.908534272475572e-07, 4.417362650546691e-06, 4.892424610654312e-05, 6.6327922986286e-05, 3.529835661596541e-05, -2.4955784902401606e-05, -4.6480974735319886e-05, -4.3946331454786004e-05, 1.2910445159232481e-05, 5.293333610663649e-05, 3.9241406163342535e-05, 8.055917439166985e-06, 3.6048810986820816e-06, 2.4083190334960507e-05, 6.160154359624585e-05, 4.575424504034863e-05, -2.4425418865801684e-05, -5.117986907401227e-05, -6.195509994893796e-05, -7.06215784845337e-05, -8.454822506279991e-06, 6.196861049986346e-05, 4.3242856162601065e-05, 1.1835348841677744e-05, -6.908001860096633e-06, 3.02172035406723e-05, 6.434916303997852e-05, 3.6883633987263606e-05, -1.0873864023910132e-05, -1.8079835191591685e-05, -5.362558969265618e-05, -7.953393198551642e-05, -1.8547522940504446e-06, 4.7124904235753316e-05, 3.6820311201381325e-05, 1.8543614399847086e-06, 1.985842440729097e-06, 3.394802567118082e-05, 7.417959269962673e-05, 6.232564986001587e-05, 3.809152466028206e-05, 2.7945361255993298e-05, -3.14532272193247e-05, -7.038627063356844e-05, -2.4758837797570233e-05, 3.627191681483599e-05, 2.5891273689550474e-05, 3.5549699899713424e-06, -2.4151771457674997e-06, 2.3095940525756847e-05, 6.330525396240993e-05, 7.778555714030621e-05, 6.708723710985722e-05, 4.313745702623096e-05, -6.18013782802244e-06, -3.801789067540182e-05, -1.1640043349813909e-05, 1.7690927148462535e-05, 1.0411523062156545e-05, -1.469775936986517e-06, -1.8887666288425546e-05, -7.117890197417286e-06, 4.0103380243291456e-05, 6.069929254296817e-05, 4.157516608210699e-05, 1.1158128233084196e-05, -1.0502765943642616e-05, -1.5195600140245082e-05, -6.058354416472589e-07, 4.83351464658919e-06, 6.704596147696819e-06, 2.674949781356326e-06, -1.6157089625051014e-05, -2.6643684758299432e-05, -4.48709348920251e-06, 1.7873843729832935e-05, 1.2994657249263133e-06, -8.126709429195354e-06, -1.3119695259377349e-05, -6.166783198916289e-06, 1.3906719475488675e-06, -6.555833580321338e-06, -2.5065849954712436e-06, -2.4392371393689197e-07, -3.117105304557941e-06, -1.0501776228757664e-05, -1.653645864075521e-05, -1.766484005339827e-05, -6.1949235549430664e-06, -8.029447474191045e-06, -4.294207787022431e-06, -5.877916677404947e-06, -3.648290225226672e-06, -1.9867231994558735e-06, -6.834984203738582e-06, -3.6540406753426015e-06], [-1.1352569948926982e-07, 8.336285978687097e-07, -3.6440365065403374e-06, -7.042640314737032e-06, 2.8116161174836484e-06, 8.1576131040102e-06, 7.059318747183118e-06, 9.741169502278753e-06, 4.4017158384266376e-06, 1.7230247900163511e-06, -3.7062792060148965e-06, -2.7697954550705382e-06, -3.754425478039381e-06, 3.19338063178535e-06, -4.6063680449339845e-06, 9.87463859603733e-07, 1.2076167620539032e-06, -5.352972513274266e-06, 2.2740944965502433e-07, -2.009448617233242e-06, -6.993559205814379e-07, -3.613208506187375e-07, 2.552219022815773e-07, 3.155301335204889e-06, -2.3293588254807405e-06, -7.826383500630789e-06, -2.775304237677743e-06, -2.1753646976138364e-06, -3.856638721675601e-06, -1.1481116219973106e-05, -1.480601312964466e-05, -8.454345123870711e-06, 9.434577618274856e-06, -3.890583321594642e-07, 2.1614954993561713e-06, 2.8530288671874398e-06, -6.3348788377579e-06, -8.369252173106982e-07, -1.0110083728200473e-05, -9.166459531387735e-07, -3.6021567198371326e-06, -5.115518128521231e-06, -1.0942763024056925e-05, -4.215790735669435e-06, -3.6704422509227486e-06, 1.149155243308316e-06, -3.4716166968304323e-06, -3.7989733219703483e-06, -3.422567602832796e-06, -5.007008060999255e-06, -2.195906058049097e-06, 2.641506217323651e-06, -5.533034175424795e-06, -1.210032531204387e-05, -9.353295058935647e-06, -2.0242283550890326e-06, 9.681801659924315e-06, 1.244942024386318e-05, -2.836731912064668e-06, 4.463737176710707e-06, 3.2685925613940225e-07, 3.1096863276933067e-06, 1.5092768695636995e-05, 8.271225573234478e-06, -7.675288327260429e-07, -4.921091701927852e-06, -7.758485894547944e-06, -7.4670894195297445e-06, 8.105288554703594e-06, 8.964420236437583e-06, -1.1760613505554243e-06, -5.5863329178702155e-06, -5.535133614538784e-06, 6.8908264073272545e-06, 1.5332455870844822e-05, 1.6700953877060156e-05, 1.2417757751836402e-05, 1.2611867085615719e-05, -4.633526905571321e-06, -4.778326432015434e-06, 4.733966005872981e-06, 5.320713971502157e-06, -2.6342770728881803e-06, -1.6613421664690677e-06, 3.6721726032193676e-06, 8.794670553678521e-06, 1.7164022192486517e-05, 1.2753569671422007e-05, 1.3032800165167052e-05, 5.993420487627338e-06, 8.290159787058858e-07, 1.993907016577952e-08, 8.691619409958668e-06, 3.6888403904581135e-07, -7.577660533591552e-06, 9.746833757509262e-07, -2.475715186193553e-06, 1.0714209902019878e-05, 1.4091872409383395e-05, 1.1342140423906265e-05, 7.848077928372189e-06, -1.4441199095528431e-06, -9.002891183069799e-06, 7.01397967318962e-07, 7.074228717176801e-06, 2.9254809970376364e-06, -5.495849529468456e-06, -8.032110218156854e-06, -9.126077459168965e-07, -9.312410569862962e-07, 7.338044514832367e-06, -5.321173219099251e-06, -3.3491212568224057e-06, -1.0015586454018412e-05, -8.745903365384405e-06, -2.5118933363356605e-06, 5.672124840448552e-07, -5.8304685895568545e-06, -7.280904751903504e-06, -1.2431872618289923e-06, -2.754743698378696e-06, -1.9131567017836824e-07, -4.8042192456054845e-06, -1.4955693329006774e-05, -1.2102991867561771e-05, -1.2606719763534975e-05, -6.304485935769604e-06, -7.078164245938841e-06, -6.428889497174447e-06, -1.9820650523953275e-06, -4.147814853248716e-06, -8.919816564910985e-06, -2.266591139415334e-06, 1.1310222853292389e-06, -1.5720879351901354e-07, -3.581843032289813e-06, -7.44144612053384e-06, -3.7308680717233437e-06, -3.43075759970428e-06, -4.3451157238932425e-06, -4.2161633693399134e-06, -2.1138153226506283e-06, -2.14200883718193e-06, -9.022095819371046e-07, -8.26583905261764e-07, -4.929767980822777e-06, -3.877258571182592e-06, 8.318894101446688e-06, -1.756922063701171e-06, -2.623030457759431e-05, -4.5721740045757556e-05, -4.542397945528116e-05, -2.554284647603914e-05, -1.202461754964662e-05, -1.188624959137573e-06, 8.248265023542377e-06, 2.795096284555504e-06, 1.3286095987278655e-05, 2.172148765199515e-05, 1.8170290165471963e-05, 2.181094253025019e-05, 2.9321509401702094e-05, 4.236684799491475e-05, 2.9490474389599496e-05, 3.229193261098887e-06, -8.702356792782868e-06, -4.054825770784153e-06, 3.5923240496523476e-07, -2.0015072133227093e-07, 1.0673447103955944e-05, 2.6683728224498087e-05, 5.3012486295788855e-05, 8.848122804434375e-05, 0.00011238199174114639, 0.00011463214007310056, 8.351940619540575e-05, 1.5303985548081698e-05, -9.637536566092672e-06, 8.397172092247044e-07, -1.747413973379101e-06, 1.8360676594213042e-06, 1.224297215462076e-05, 2.8781532966963407e-05, 3.73675918424798e-05, 5.577770064724861e-05, 6.886300813238591e-05, 9.02121446264435e-05, 7.431260542840832e-05, 9.373739267200346e-06, -2.924780733024232e-05, -3.245990087785413e-06, 4.569689016665438e-06, -2.986844335234763e-06, -5.87038826383065e-07, -3.996185616226293e-06, -1.4224741135249702e-06, 4.840920788304425e-05, 8.253806184290756e-05, 9.830616332146053e-05, 7.160830515233181e-05, 2.1402839196883208e-05, -1.2960762624624498e-05, -4.235653008197801e-06, -2.0419143370010004e-07, 1.2772599804939987e-07, -5.2347687739893865e-06, -3.4659815692981e-05, -1.9913760549613184e-05, 1.5895349972567957e-05, -1.0667754968730573e-05, 1.5317924038329342e-05, 1.1419610298520884e-05, 1.9274131805987213e-06, -2.0378688750564865e-05, -1.1160013261783244e-05, -3.0689259615468546e-06, 3.954355548697552e-06, -9.260835016527956e-06, -3.7957226576608396e-05, -3.8117351894464164e-05, -4.4686525083041214e-05, -4.328628696180126e-05, -1.7557594443382577e-05, -1.2154967386976097e-05, -2.271321577001087e-05, -2.7183795995387405e-05, -7.482985055728028e-06, -4.657247398632132e-06, 3.479466868300095e-06, -9.260161297021115e-06, -2.0173704343097343e-05, -4.4189796334249e-05, -4.161604489836585e-05, -1.3202620549719781e-05, -1.407805116143276e-05, -2.6912607133287356e-05, -3.0669859426899845e-05, -2.738605244319476e-05, -3.346574268580519e-06, 1.6090736037475744e-06, 5.444657531749457e-07, 1.3027485990450915e-05, -3.3625254843441534e-06, -2.790231799660925e-05, -2.3420559763769268e-05, -2.6386422041554402e-05, -3.2582193546646484e-05, -3.469689723544316e-05, -2.586614798454018e-05, -1.7767231695672327e-05, -3.453283299510358e-06, -2.423214979665757e-06, -3.01799308362374e-07, -6.995281376911044e-07, 1.4704615463168098e-05, 1.8674053213576565e-05, 1.4922214355352303e-05, 2.3267854463690898e-06, -3.974729497035656e-07, -6.778582249956037e-06, -1.6097248384538914e-06, -3.073717361971436e-07, -1.971238765347616e-06, 3.2044133047536155e-06, 3.227162197525868e-06, -5.187934262048381e-07, 9.158051149748477e-06, 7.710055348770727e-06, 4.07116429555492e-06, 4.250325032833641e-06, 4.630827626027512e-06, 5.947082429250893e-07, -1.862414067795507e-06, -1.9930632148358244e-06, -1.029895428535073e-06, 1.224097313625333e-06, -7.803435014143835e-06, -2.1450646095643516e-06, -3.991717530384997e-06, 8.349048467489525e-07, -5.536844211052666e-07, 1.4275535429067135e-05, 2.8585880854055237e-06, -2.5465220969855074e-06, -4.157276938411461e-06, 4.918898707242623e-07, 2.388089493244762e-06, -8.763854672880477e-08, -1.0947277175016199e-05, -1.1655001085447808e-05, -6.053759193086069e-06, -1.23405242501922e-05, -1.4222302714852509e-05, -1.159410012600404e-05, -7.531924138717021e-06, -1.0755803691613013e-05, -5.599161266857461e-06, -4.449770017544953e-06, -9.821612828191565e-06, -8.785739556102432e-06, -8.530553366324612e-06, -8.761569024992332e-06, -9.509397830213498e-06, -1.27924080592994e-05, -7.18978335452855e-06, -1.0709772625645732e-05, -6.270710878228026e-06, 2.2523870498542676e-06, -1.0265262630375132e-05, -1.1110054451407066e-05, -4.168004663206684e-06, -1.0726678703361902e-05, -3.830050709298568e-06, -1.0970106057918597e-05, -7.592589074612157e-06, -1.0171595447577655e-05, -1.4316769351951422e-05, -1.1720021619581584e-05, -1.2082032921552387e-05, -7.521712065775694e-06, -1.1308680893119753e-05, -1.15392451454803e-05, -1.0461429334273752e-05, -2.792633819705808e-06, -5.5753628156880435e-06, -9.904169644719376e-06, -1.6454753809872767e-05, -9.50210256711357e-06, -1.816773968476709e-05, -6.845119772870401e-06, -8.284050117362643e-06, -1.1116657207754799e-05, -1.4211984673375848e-05, -1.4323340575774224e-05, -8.731053093458913e-06, -1.0231389307603257e-05, -9.642524510459227e-06, -1.322502917718588e-05, -4.92949702961709e-06, -9.742120894233852e-06, -7.85764275769038e-06, -1.3264770210559211e-05, -1.3905459641140438e-05, -4.779923881922566e-06, -1.2680534799433277e-05, -3.279945351113575e-06, -1.0997252778593653e-05, -1.0750241941076825e-05, -1.3103741397395968e-05, -1.072852139877567e-05, -6.120965616882877e-06, -1.216050091233761e-05, -1.0266990971372188e-05, -1.040778291389216e-05, -4.184838206217488e-06, -1.0046130437530995e-05, -9.687573666440349e-06, -8.214283453580037e-06, -1.2706141389765029e-05, -1.0744002621845772e-05, -8.13672185116682e-06, -1.5215672585529063e-05, -8.951045574880408e-06, -1.8562433441619398e-05, -1.0327548766229892e-05, -7.606807319128905e-06, -8.80259421722321e-06, -6.8398696887930385e-06, -1.277056559486674e-05, -1.0241451763239123e-05, -1.5342684639096304e-05, -1.030811429938575e-05, -1.1824841845099692e-05, -1.408923716109609e-05, -9.536133651205983e-06, -7.5301126885930946e-06, -7.819194622310344e-06, -4.649788718184715e-06, -1.3667950255207907e-05, -9.389847551306164e-06, -1.2840406295145484e-05, -7.838691893565761e-06, -2.198785291578994e-06, -1.0778188831709728e-05, -7.001197992063055e-06, -1.8168659791382712e-06, -7.888702806770044e-06, -7.805323218519231e-06, -6.75475716144517e-06, -1.1124350170498326e-05, -1.3367131741055857e-05, -7.662641974927122e-06, -8.656831504587067e-06, -1.775217725998029e-05, -1.1640178698693515e-05, -1.5101641868931651e-05, -3.960410707285583e-06, -9.837853234165561e-06, -7.092679520420148e-06, -1.022797172581212e-05, -7.810868506495092e-06, -7.327733706149795e-06, -3.0710574039807874e-06, -7.427653998337061e-06, -7.637251087331509e-06, -9.077029276993122e-06, -7.130252241635905e-06, -8.891237006179122e-06, -1.1457865504022493e-05, -1.0441596365563547e-05, -1.2678599458585918e-05, -1.2146877753242144e-05, -1.4258469299005172e-05, -5.834326581557611e-06, -6.18525023315566e-06, -9.270470025067425e-06, -7.819382484693165e-06, -2.407365068231212e-06, -7.875917075094944e-06, -7.708963571455913e-06, -1.4343225195359862e-05, -6.578851760954016e-06, -2.824135808514933e-06, -1.064122316787706e-05, -6.389643789324116e-06, -9.550289243566476e-06, -6.22357642007304e-06, -5.646396317401299e-06, -5.982220684461114e-06, -5.200145272062908e-06, -3.842195442336107e-06, -3.992504802656591e-06, -3.913509431654424e-06, 3.376181085891617e-06, 4.470508079413786e-06, -2.4466770815920697e-07, -3.635744243883867e-06, -1.2891595179964601e-05, -4.0882958655959826e-06, -9.3233506692126e-06, -1.5285350867957444e-05, -1.5836564071545167e-06, 5.725375974006697e-07, 3.0416060802945996e-06, 3.620024949464976e-06, -5.76736444488019e-06, 1.0006839064440927e-06, 8.421346612764306e-07, -5.973267020790624e-07, -3.277158198701452e-05, -7.485977563151055e-05, -0.00010550436288309701, -0.00010915469592071792, -7.074650965158633e-05, -3.915584935984872e-05, -3.9568714887419425e-06, 8.547478073340532e-07, 4.1331367798134015e-06, 1.4289267608481554e-05, 2.8887873194723802e-05, 2.050361949283073e-05, 8.041672690773769e-06, -4.335785491145655e-06, 1.492585365479566e-06, -3.775170703072419e-05, -0.00010002780095431433, -8.7241517298737e-05, -1.816727786530288e-05, 2.2127695212009587e-06, 1.3300925256424517e-05, 2.9132032182931126e-05, 5.0015098512269456e-05, 5.204743660186835e-05, 4.533124706845615e-05, 8.308883719617269e-05, 0.0001185225376355798, 6.911569775800168e-05, -4.395993522530428e-05, -8.487682756596758e-05, -4.368984999771132e-05, 5.9559651743753155e-06, 3.1010703502917267e-06, 2.0942501841571063e-05, 2.510974408933649e-05, 9.74682913165557e-06, 2.917850134904485e-07, 3.889499754753436e-05, 8.604456928618406e-05, 6.991763778353264e-05, -4.060226881422149e-05, -9.959736767007962e-05, -4.942179002922841e-05, -1.7075397005396965e-06, 3.1093612456953837e-06, -1.392350470087894e-05, -2.760113416547292e-05, -1.3836639588781449e-05, 1.4092931337042116e-05, 4.8062707256386406e-05, 9.542994642816561e-05, 8.053283679810133e-05, -3.099213654010473e-05, -9.683137517614901e-05, -6.15398858436879e-05, 4.631622064243843e-06, -2.8838409927161882e-06, -5.923619609903834e-05, -0.00011109560561519766, -5.5108869002776796e-05, -2.2469157920879903e-05, 8.985056729747085e-06, 7.29026236342147e-05, 0.00011221204937068982, -9.172187939296332e-06, -0.00010198158171015513, -6.255264599737524e-05, -1.3057294167236266e-06, -9.94890058591496e-06, -9.681897471328017e-05, -0.00018086820469987596, -0.00017496312991755245, -0.00013889754188345122, -9.502732506703667e-05, -1.4183591715895939e-06, 6.414678758410971e-05, -2.981026039101758e-05, -8.853071797952461e-05, -5.044995865104037e-05, -2.8154817828345644e-06, -5.834659038822165e-06, -7.553784195407135e-05, -0.00018325209270508716, -0.0002148413324436669, -0.00016292285053632276, -8.859058320568125e-05, -1.2326402593059137e-05, -1.092206621598746e-05, -4.688098226869361e-05, -6.18156458567558e-05, -4.078981373274513e-05, 1.8856000223612543e-06, -4.479346287371833e-06, -3.501180111523242e-05, -0.00010442036077801453, -0.00015218926869728375, -0.0001165226230345983, -3.369061928994348e-05, -3.0627683191379072e-06, -2.6104664224617626e-05, -3.94303280542622e-05, -4.536915658737628e-05, -2.3710841428626653e-05, -3.852685971879148e-07, 3.7912355159260882e-06, 7.3387322423814295e-06, -1.4304064795367746e-05, 